################################################################################
# Neural network connection values (weights and biases).
################################################################################
# Col  Name       Description
################################################################################
# 1    connection Neural network connection value.
# 2    t          Connection type (a = weight, b = bias).
# 3    index      Index enumerating weights.
# 4    l_s        Starting point layer (end point layer for biases).
# 5    n_s        Starting point neuron in starting layer (end point neuron for biases).
# 6    l_e        End point layer.
# 7    n_e        End point neuron in end layer.
################################################################################
#                      1 2         3     4     5     6     7
#             connection t     index   l_s   n_s   l_e   n_e
############################################################
  2.6478414016157142E-01 a         1     0     1     1     1
  5.1726889283550403E-01 a         2     0     1     1     2
  3.2247333655213944E-01 a         3     0     1     1     3
  2.5378942591671610E-01 a         4     0     1     1     4
  2.3627413575921161E-01 a         5     0     1     1     5
  1.7215305663471800E-01 a         6     0     1     1     6
  3.6556411213207812E-01 a         7     0     1     1     7
 -1.0013837650273569E-01 a         8     0     1     1     8
 -2.4519171667615808E-01 a         9     0     1     1     9
 -2.9477986503016490E-01 a        10     0     1     1    10
  1.5242302812422819E-02 a        11     0     1     1    11
  2.0836951353500968E-01 a        12     0     1     1    12
 -9.2006404656280030E-02 a        13     0     1     1    13
 -2.1940526714616884E-01 a        14     0     1     1    14
 -5.2786582625522431E-02 a        15     0     1     1    15
  1.8526511189342121E-01 a        16     0     1     1    16
 -5.9893869399461466E-02 a        17     0     1     1    17
  4.7394864067329023E-01 a        18     0     1     1    18
 -6.5251594214880540E-02 a        19     0     1     1    19
  1.3824110092736469E-01 a        20     0     1     1    20
  1.4176464102769723E-01 a        21     0     2     1     1
  1.9025415419122638E-01 a        22     0     2     1     2
  3.2272610427354609E-01 a        23     0     2     1     3
  3.1832190769365698E-01 a        24     0     2     1     4
  3.9879440885723771E-01 a        25     0     2     1     5
 -6.1896632037051480E-03 a        26     0     2     1     6
  4.3959036269869745E-02 a        27     0     2     1     7
 -1.1590688981720704E-01 a        28     0     2     1     8
 -1.7862295056561428E-01 a        29     0     2     1     9
 -1.3243283225364375E-01 a        30     0     2     1    10
 -3.4576475379296706E-01 a        31     0     2     1    11
  6.0430780946408547E-01 a        32     0     2     1    12
  5.0367356840090187E-02 a        33     0     2     1    13
 -3.4698101569714351E-01 a        34     0     2     1    14
 -2.3585649508655587E-01 a        35     0     2     1    15
 -1.9450712653708777E-01 a        36     0     2     1    16
  7.6508422186363179E-01 a        37     0     2     1    17
  4.5959538601358801E-01 a        38     0     2     1    18
 -2.6879921899473502E-01 a        39     0     2     1    19
 -1.7519872172180395E-01 a        40     0     2     1    20
 -2.1778799403602367E-01 a        41     0     3     1     1
  1.2547659381394091E-01 a        42     0     3     1     2
  6.1720554675923844E-01 a        43     0     3     1     3
  3.9690530418050179E-01 a        44     0     3     1     4
  1.0127201716324965E+00 a        45     0     3     1     5
  6.7435285599977957E-01 a        46     0     3     1     6
  6.0682607513813158E-01 a        47     0     3     1     7
 -6.7659734332123689E-01 a        48     0     3     1     8
 -1.1913658995846078E-01 a        49     0     3     1     9
 -2.9640124340515717E-02 a        50     0     3     1    10
  1.1534152320121643E-01 a        51     0     3     1    11
  1.1688686599933097E-01 a        52     0     3     1    12
  2.5677152264039516E-01 a        53     0     3     1    13
 -6.5248823893790620E-01 a        54     0     3     1    14
  5.8858019662157246E-01 a        55     0     3     1    15
  5.3185735495826680E-01 a        56     0     3     1    16
  7.1718325979415543E-01 a        57     0     3     1    17
  3.1853089400932449E-01 a        58     0     3     1    18
 -4.7418614268114792E-02 a        59     0     3     1    19
  6.8238945033487197E-01 a        60     0     3     1    20
 -3.2441561945494396E-01 a        61     0     4     1     1
 -3.4724281686012903E-01 a        62     0     4     1     2
 -1.8924112387952749E-01 a        63     0     4     1     3
 -2.1524552027715532E-01 a        64     0     4     1     4
 -5.0990925636649607E-02 a        65     0     4     1     5
  3.2025783362726462E-01 a        66     0     4     1     6
  1.7473983210140315E-01 a        67     0     4     1     7
 -9.1310567115073973E-02 a        68     0     4     1     8
  1.5570353026406183E-01 a        69     0     4     1     9
 -5.7820080041283674E-02 a        70     0     4     1    10
  2.9804438549545842E-01 a        71     0     4     1    11
 -2.0290221523736185E-01 a        72     0     4     1    12
 -6.7998617340623957E-02 a        73     0     4     1    13
 -3.0984892006321918E-01 a        74     0     4     1    14
  1.6878654882522801E-01 a        75     0     4     1    15
 -5.8817470011754455E-02 a        76     0     4     1    16
 -3.4601420158063040E-01 a        77     0     4     1    17
 -5.2465678155815279E-02 a        78     0     4     1    18
  1.2812901598995516E-01 a        79     0     4     1    19
 -9.5819111526538422E-02 a        80     0     4     1    20
 -2.2921611089499455E-01 a        81     0     5     1     1
 -4.1449190975964445E-01 a        82     0     5     1     2
 -4.2157645700615293E-01 a        83     0     5     1     3
 -1.8329685788022052E-02 a        84     0     5     1     4
 -1.2644853235788833E-01 a        85     0     5     1     5
  2.7183028177023927E-01 a        86     0     5     1     6
  2.7861625441752752E-01 a        87     0     5     1     7
  2.8341377897636749E-01 a        88     0     5     1     8
  1.5335312894589453E-01 a        89     0     5     1     9
 -2.3350686374608378E-02 a        90     0     5     1    10
  1.7493895861757192E-02 a        91     0     5     1    11
  2.8792609542786018E-01 a        92     0     5     1    12
  1.5345128107377676E-02 a        93     0     5     1    13
 -3.6204603982083050E-01 a        94     0     5     1    14
  5.1318076164617421E-02 a        95     0     5     1    15
 -3.5660534069915784E-01 a        96     0     5     1    16
 -2.3617057711496781E-01 a        97     0     5     1    17
 -2.9106372118486867E-01 a        98     0     5     1    18
 -1.1920349241969758E-01 a        99     0     5     1    19
 -4.3451961442617493E-01 a       100     0     5     1    20
 -3.3925454357509427E-01 a       101     0     6     1     1
 -3.5544805786182926E-01 a       102     0     6     1     2
 -2.1160114807803698E-01 a       103     0     6     1     3
 -1.2411299824694667E-01 a       104     0     6     1     4
  8.1795021619919459E-02 a       105     0     6     1     5
  4.9809500031680043E-01 a       106     0     6     1     6
  4.2823116338297851E-01 a       107     0     6     1     7
  8.6054559128553434E-02 a       108     0     6     1     8
  1.6568213755443401E-01 a       109     0     6     1     9
 -1.5988051789762076E-01 a       110     0     6     1    10
  1.8494922963325147E-01 a       111     0     6     1    11
  3.0274912641356766E-01 a       112     0     6     1    12
 -8.8088134345190208E-02 a       113     0     6     1    13
 -6.4618922638380372E-01 a       114     0     6     1    14
  6.3079493893732172E-02 a       115     0     6     1    15
 -2.9190507663823739E-01 a       116     0     6     1    16
 -2.1627136564857424E-01 a       117     0     6     1    17
  7.7898100144356233E-02 a       118     0     6     1    18
 -1.3429715877815546E-01 a       119     0     6     1    19
 -4.0852419672436141E-01 a       120     0     6     1    20
 -3.0193359792277819E-01 a       121     0     7     1     1
  2.3677681426875449E-01 a       122     0     7     1     2
 -4.3983028242711675E-01 a       123     0     7     1     3
  2.8331611310763827E-01 a       124     0     7     1     4
 -1.3605427511464294E-01 a       125     0     7     1     5
  4.1852085179714915E-01 a       126     0     7     1     6
 -4.2109359957683848E-02 a       127     0     7     1     7
  1.5219821365543371E-01 a       128     0     7     1     8
 -3.9130278508876237E-02 a       129     0     7     1     9
  1.3012518547483681E-01 a       130     0     7     1    10
 -4.0731379802015050E-01 a       131     0     7     1    11
  1.5402330991610608E-01 a       132     0     7     1    12
  4.5210926375823485E-01 a       133     0     7     1    13
 -5.4107089832859645E-01 a       134     0     7     1    14
 -4.6401273520580577E-01 a       135     0     7     1    15
  8.9421343029525779E-01 a       136     0     7     1    16
  9.6729839281264562E-01 a       137     0     7     1    17
 -8.7100537681764637E-02 a       138     0     7     1    18
 -6.6782985398022479E-02 a       139     0     7     1    19
 -1.2000471766200796E-01 a       140     0     7     1    20
  6.5596458269691926E-01 a       141     0     8     1     1
  5.4018479582379197E-01 a       142     0     8     1     2
 -2.0910277933069449E-01 a       143     0     8     1     3
  4.5861622886874731E-01 a       144     0     8     1     4
 -1.9850435904553401E-01 a       145     0     8     1     5
  2.2322745543213363E-01 a       146     0     8     1     6
  7.9513694939713042E-01 a       147     0     8     1     7
  1.7774362185341258E-02 a       148     0     8     1     8
  1.0871264691221265E-01 a       149     0     8     1     9
 -1.5911683924037587E-01 a       150     0     8     1    10
 -1.9738644327811500E-01 a       151     0     8     1    11
  4.0257239745052786E-01 a       152     0     8     1    12
  1.2891834237080521E-01 a       153     0     8     1    13
 -2.5824581022562865E-01 a       154     0     8     1    14
 -6.0162753084360343E-01 a       155     0     8     1    15
  4.6557751147408238E-01 a       156     0     8     1    16
 -4.0951435663060570E-01 a       157     0     8     1    17
  3.4031233576077057E-03 a       158     0     8     1    18
 -4.0992967349701448E-01 a       159     0     8     1    19
 -2.3566056971454398E-02 a       160     0     8     1    20
  3.6452902613050769E-01 a       161     0     9     1     1
  1.8909936241764369E-01 a       162     0     9     1     2
 -1.4479553818197141E-01 a       163     0     9     1     3
  4.8726002396872325E-01 a       164     0     9     1     4
 -2.9337259217428979E-01 a       165     0     9     1     5
  2.7587441270831570E-01 a       166     0     9     1     6
  8.0338479187829903E-01 a       167     0     9     1     7
  4.9330392991978889E-01 a       168     0     9     1     8
 -1.7330496747216187E-01 a       169     0     9     1     9
 -1.6848843555119758E-01 a       170     0     9     1    10
  6.8073477834322604E-02 a       171     0     9     1    11
  1.7902439134143755E-01 a       172     0     9     1    12
 -1.5048353583040730E-01 a       173     0     9     1    13
  5.4483984436327813E-02 a       174     0     9     1    14
  9.9857491807693155E-02 a       175     0     9     1    15
  3.2568189760043348E-01 a       176     0     9     1    16
 -1.0275569316059641E+00 a       177     0     9     1    17
 -2.8410722664569521E-01 a       178     0     9     1    18
 -2.0961337934278124E-01 a       179     0     9     1    19
  2.5881442822547934E-02 a       180     0     9     1    20
  3.3335138416476215E-02 a       181     0    10     1     1
  4.9890965516499880E-02 a       182     0    10     1     2
 -1.8667388929503184E-01 a       183     0    10     1     3
  5.0636658650377964E-01 a       184     0    10     1     4
 -2.6120777303224785E-01 a       185     0    10     1     5
  2.2466269924095814E-01 a       186     0    10     1     6
  3.5880929998742883E-01 a       187     0    10     1     7
  5.1605995252131265E-01 a       188     0    10     1     8
 -2.2776829834552448E-01 a       189     0    10     1     9
 -9.3488346049778126E-02 a       190     0    10     1    10
  5.0066244901389098E-02 a       191     0    10     1    11
  8.5314549571157847E-02 a       192     0    10     1    12
 -1.2064365744211321E-01 a       193     0    10     1    13
  1.1327711573263041E-01 a       194     0    10     1    14
  3.6867721014667448E-01 a       195     0    10     1    15
  9.6026567118845857E-02 a       196     0    10     1    16
 -7.6926342484190335E-01 a       197     0    10     1    17
 -4.0391428578809652E-01 a       198     0    10     1    18
 -2.7430402871818005E-03 a       199     0    10     1    19
 -2.4440531060547294E-02 a       200     0    10     1    20
 -4.3049001151494781E-01 a       201     0    11     1     1
 -2.4206174710962838E-01 a       202     0    11     1     2
 -5.4654185171047331E-01 a       203     0    11     1     3
  4.4566892079318648E-01 a       204     0    11     1     4
 -4.5293799411788410E-01 a       205     0    11     1     5
  8.3853450394706874E-01 a       206     0    11     1     6
  2.6584414020710817E-01 a       207     0    11     1     7
 -3.0595011469851369E-01 a       208     0    11     1     8
 -3.8170729766901751E-01 a       209     0    11     1     9
  2.2528576372567347E-01 a       210     0    11     1    10
 -6.5827091743941779E-01 a       211     0    11     1    11
  6.3775688170210809E-01 a       212     0    11     1    12
  1.7473303451344155E-01 a       213     0    11     1    13
  1.5322160971243193E-02 a       214     0    11     1    14
  3.0608593298997816E-01 a       215     0    11     1    15
  3.0651545048161988E-01 a       216     0    11     1    16
 -1.0640465069688998E-01 a       217     0    11     1    17
  1.0863023025194958E+00 a       218     0    11     1    18
 -7.8037848840637636E-01 a       219     0    11     1    19
 -5.5441281816683806E-02 a       220     0    11     1    20
  6.3277999965058962E-01 a       221     0    12     1     1
  3.9824388994327703E-01 a       222     0    12     1     2
  1.7486262290133794E-01 a       223     0    12     1     3
  2.8458187696977988E-01 a       224     0    12     1     4
 -3.7600968680405933E-01 a       225     0    12     1     5
 -3.9797172753365716E-02 a       226     0    12     1     6
  8.0846213687051083E-01 a       227     0    12     1     7
 -9.5292981329316984E-01 a       228     0    12     1     8
  1.6216936765304124E-01 a       229     0    12     1     9
  1.7359079902817484E-01 a       230     0    12     1    10
 -9.7686105825969760E-01 a       231     0    12     1    11
  1.0470304245892257E+00 a       232     0    12     1    12
  4.4461472754112491E-01 a       233     0    12     1    13
 -1.6923299678574463E-01 a       234     0    12     1    14
 -4.6286356406137558E-01 a       235     0    12     1    15
 -2.2339018277144315E-01 a       236     0    12     1    16
  3.5435619751281733E-01 a       237     0    12     1    17
  5.6719484067499282E-01 a       238     0    12     1    18
 -1.0744009566822548E+00 a       239     0    12     1    19
  3.0136924807876907E-02 a       240     0    12     1    20
  1.0227022908271641E+00 a       241     0    13     1     1
  2.6878329748704594E-01 a       242     0    13     1     2
  9.0005991791056428E-01 a       243     0    13     1     3
 -3.4013199786764464E-01 a       244     0    13     1     4
 -8.9515770123716532E-02 a       245     0    13     1     5
 -3.9535558880955823E-01 a       246     0    13     1     6
  1.0581409364382866E+00 a       247     0    13     1     7
 -9.5497392488792510E-01 a       248     0    13     1     8
  2.4128614539939072E-01 a       249     0    13     1     9
 -4.5743806796555253E-01 a       250     0    13     1    10
  2.6170138008330540E-01 a       251     0    13     1    11
  5.1786985902407090E-01 a       252     0    13     1    12
 -4.8376299284737323E-01 a       253     0    13     1    13
 -2.5468717454252304E-01 a       254     0    13     1    14
 -2.1328597520926768E-01 a       255     0    13     1    15
 -8.9486067461762397E-01 a       256     0    13     1    16
 -1.3930819173435245E+00 a       257     0    13     1    17
  1.0699881827214577E-01 a       258     0    13     1    18
 -6.8514790704948303E-01 a       259     0    13     1    19
  1.2444939359890567E-01 a       260     0    13     1    20
 -5.1515751214991590E-01 a       261     0    14     1     1
 -3.7928424235625474E-01 a       262     0    14     1     2
  7.1982321250215897E-01 a       263     0    14     1     3
 -6.9211062344416263E-01 a       264     0    14     1     4
  1.5531271311497652E-01 a       265     0    14     1     5
  2.4744468301375896E-01 a       266     0    14     1     6
  1.7011739105093130E-02 a       267     0    14     1     7
 -3.5841257140159488E-01 a       268     0    14     1     8
 -2.1089284668950703E-01 a       269     0    14     1     9
 -4.7202807798317231E-01 a       270     0    14     1    10
  8.2673786797879589E-01 a       271     0    14     1    11
 -3.0059413398313678E-01 a       272     0    14     1    12
 -5.8920070263990310E-01 a       273     0    14     1    13
 -6.2061422239436492E-01 a       274     0    14     1    14
  7.4295670865396135E-01 a       275     0    14     1    15
 -4.9549044208611825E-01 a       276     0    14     1    16
 -8.2483020634889692E-01 a       277     0    14     1    17
 -1.5432599332507946E-01 a       278     0    14     1    18
  1.7931725757730230E-01 a       279     0    14     1    19
  5.5881836194251917E-02 a       280     0    14     1    20
 -8.5627202957529314E-01 a       281     0    15     1     1
 -1.2628061029688947E-03 a       282     0    15     1     2
  4.0904618663116732E-01 a       283     0    15     1     3
 -4.2202752918653380E-01 a       284     0    15     1     4
  4.1732169074415992E-01 a       285     0    15     1     5
  5.2205301180349539E-01 a       286     0    15     1     6
 -4.3369356404639620E-01 a       287     0    15     1     7
 -5.9655648484219315E-01 a       288     0    15     1     8
 -1.3274591471927499E-01 a       289     0    15     1     9
 -3.2579574702883324E-01 a       290     0    15     1    10
  4.0893520514995751E-01 a       291     0    15     1    11
 -1.7271069470934636E-01 a       292     0    15     1    12
 -9.7023252585963518E-02 a       293     0    15     1    13
 -1.0769116434172374E+00 a       294     0    15     1    14
  4.8621052277134236E-01 a       295     0    15     1    15
 -1.0130847912657923E-01 a       296     0    15     1    16
  6.8407492888718069E-01 a       297     0    15     1    17
  4.1649093581669455E-01 a       298     0    15     1    18
  2.1912923729555134E-01 a       299     0    15     1    19
  1.1197758994026620E-01 a       300     0    15     1    20
 -4.7107400601223703E-01 a       301     0    16     1     1
  2.2066796327336974E-01 a       302     0    16     1     2
  4.1441537298041087E-01 a       303     0    16     1     3
 -3.7328494025364367E-01 a       304     0    16     1     4
  5.2664801810208106E-01 a       305     0    16     1     5
  6.3049241345709839E-01 a       306     0    16     1     6
 -3.6228781191737836E-02 a       307     0    16     1     7
 -6.8986838910557602E-01 a       308     0    16     1     8
  1.1082584687558505E-01 a       309     0    16     1     9
 -4.3408045947442819E-01 a       310     0    16     1    10
  3.3306036443420550E-01 a       311     0    16     1    11
  1.6032224143850354E-01 a       312     0    16     1    12
 -5.7995296188433909E-02 a       313     0    16     1    13
 -1.0453835255049417E+00 a       314     0    16     1    14
 -2.9940613701875955E-02 a       315     0    16     1    15
  1.9523519097775010E-02 a       316     0    16     1    16
  6.1766409922124166E-01 a       317     0    16     1    17
  8.4959917159266540E-01 a       318     0    16     1    18
 -9.4637353258731280E-02 a       319     0    16     1    19
  5.2961707137844934E-02 a       320     0    16     1    20
 -7.0377043731680536E-02 a       321     0    17     1     1
  5.5517065365865659E-01 a       322     0    17     1     2
  5.7888903527559687E-01 a       323     0    17     1     3
 -7.3766475919005592E-02 a       324     0    17     1     4
  3.9455481614281779E-01 a       325     0    17     1     5
  5.2448058003996967E-01 a       326     0    17     1     6
  3.8074800381324420E-01 a       327     0    17     1     7
 -4.2971822936263732E-01 a       328     0    17     1     8
 -1.1249646128334896E-01 a       329     0    17     1     9
 -5.0405076517583614E-01 a       330     0    17     1    10
  3.7316752442880397E-01 a       331     0    17     1    11
  3.5276582476023027E-02 a       332     0    17     1    12
 -2.1559156839986524E-01 a       333     0    17     1    13
 -6.3530665627252647E-01 a       334     0    17     1    14
  1.3626075272614283E-02 a       335     0    17     1    15
  3.7827916633738295E-01 a       336     0    17     1    16
 -2.8653574641365337E-02 a       337     0    17     1    17
  8.6090478963772699E-01 a       338     0    17     1    18
 -4.7608248933894065E-02 a       339     0    17     1    19
  3.0735593681107570E-01 a       340     0    17     1    20
  2.2339832079907912E-01 a       341     0    18     1     1
  8.1439740345287115E-01 a       342     0    18     1     2
  5.9759057618030564E-01 a       343     0    18     1     3
  3.0466644978106483E-01 a       344     0    18     1     4
  2.3650273021516927E-01 a       345     0    18     1     5
  2.1368362462901819E-01 a       346     0    18     1     6
  2.7021949128676354E-01 a       347     0    18     1     7
 -2.3911771246247340E-01 a       348     0    18     1     8
 -3.7968564772066254E-01 a       349     0    18     1     9
 -4.1740458093879262E-01 a       350     0    18     1    10
  2.1285502021423894E-01 a       351     0    18     1    11
 -1.1949410540112086E-01 a       352     0    18     1    12
 -2.0603602508821325E-01 a       353     0    18     1    13
 -9.1214609058184890E-02 a       354     0    18     1    14
  1.2610296598759554E-01 a       355     0    18     1    15
  5.3641479948211468E-01 a       356     0    18     1    16
 -2.4483115678882078E-01 a       357     0    18     1    17
  5.9357670645666238E-01 a       358     0    18     1    18
  8.2759334993536271E-02 a       359     0    18     1    19
  5.1353271242384768E-01 a       360     0    18     1    20
  1.3486065978964541E+00 a       361     0    19     1     1
  7.7566943545364953E-01 a       362     0    19     1     2
  8.2115178605357464E-01 a       363     0    19     1     3
  3.6022991084512396E-01 a       364     0    19     1     4
  2.3086824238396972E-01 a       365     0    19     1     5
 -6.6238559383650675E-01 a       366     0    19     1     6
  2.5174558036885168E-03 a       367     0    19     1     7
 -8.6132694495249107E-01 a       368     0    19     1     8
  6.4265426847656359E-01 a       369     0    19     1     9
 -2.9992829231293383E-01 a       370     0    19     1    10
  8.6363642661015794E-01 a       371     0    19     1    11
 -1.3000010447334251E-01 a       372     0    19     1    12
 -9.5619014471551772E-02 a       373     0    19     1    13
  2.1654920154369325E-01 a       374     0    19     1    14
  3.4784054960653243E-01 a       375     0    19     1    15
 -3.8357642551296400E-01 a       376     0    19     1    16
 -1.2020601690220742E+00 a       377     0    19     1    17
 -3.3034431521853552E-01 a       378     0    19     1    18
 -3.8451080048343539E-01 a       379     0    19     1    19
  8.7409136078987315E-01 a       380     0    19     1    20
 -1.5771577446756149E+00 a       381     0    20     1     1
 -1.6743751938594748E-01 a       382     0    20     1     2
 -2.0913168660983739E+00 a       383     0    20     1     3
 -1.5943140889664675E-01 a       384     0    20     1     4
 -1.4648258334696957E+00 a       385     0    20     1     5
  1.1959356869247892E+00 a       386     0    20     1     6
 -3.8482041517003857E-01 a       387     0    20     1     7
  8.2602605255084527E-01 a       388     0    20     1     8
 -2.1137424051442451E+00 a       389     0    20     1     9
  6.7157081898161908E-01 a       390     0    20     1    10
 -1.1944096805382074E+00 a       391     0    20     1    11
  4.9877565354057868E-01 a       392     0    20     1    12
  5.8770527781167770E-01 a       393     0    20     1    13
 -2.2559059446522778E-01 a       394     0    20     1    14
  1.8068931524818305E-01 a       395     0    20     1    15
  2.3841977611109657E+00 a       396     0    20     1    16
  5.6457745465113429E-01 a       397     0    20     1    17
  1.9987456970353816E+00 a       398     0    20     1    18
  2.4020502402413532E-01 a       399     0    20     1    19
  9.5216174882500865E-02 a       400     0    20     1    20
  6.7111413356576388E-01 a       401     0    21     1     1
  1.1131563261210393E+00 a       402     0    21     1     2
 -1.6913923097522235E-01 a       403     0    21     1     3
 -4.9331329123386697E-01 a       404     0    21     1     4
  1.0262453961480471E-01 a       405     0    21     1     5
  2.1456327123859245E-01 a       406     0    21     1     6
  9.3455599473637935E-02 a       407     0    21     1     7
 -1.8965225247340129E+00 a       408     0    21     1     8
  8.4265421905465332E-01 a       409     0    21     1     9
 -8.1701925769479133E-01 a       410     0    21     1    10
  2.1989752008719434E+00 a       411     0    21     1    11
 -1.1533260746503338E+00 a       412     0    21     1    12
 -1.3348354302860137E+00 a       413     0    21     1    13
 -1.6819928063851191E+00 a       414     0    21     1    14
  1.0321176567490287E+00 a       415     0    21     1    15
 -3.5257637801436137E-01 a       416     0    21     1    16
 -3.3818824755371657E+00 a       417     0    21     1    17
  1.8168359172045609E-01 a       418     0    21     1    18
 -5.3088317812091879E-01 a       419     0    21     1    19
  5.0781080862309691E-01 a       420     0    21     1    20
  2.0470692576857852E+00 a       421     0    22     1     1
  1.2305344119224595E-01 a       422     0    22     1     2
  2.0922715221542312E+00 a       423     0    22     1     3
  6.1825393082842517E-01 a       424     0    22     1     4
  1.7450391424290153E+00 a       425     0    22     1     5
 -8.7601692580223733E-01 a       426     0    22     1     6
  8.3583786564213514E-01 a       427     0    22     1     7
 -1.1869736922261294E+00 a       428     0    22     1     8
  2.2899960665953825E+00 a       429     0    22     1     9
 -6.6198854706837162E-01 a       430     0    22     1    10
  1.4786365218809914E+00 a       431     0    22     1    11
 -1.4007794185224107E-01 a       432     0    22     1    12
 -8.9790770463117098E-01 a       433     0    22     1    13
 -1.2904397648825019E-01 a       434     0    22     1    14
  2.0395113297534340E-01 a       435     0    22     1    15
 -2.5808778126297223E+00 a       436     0    22     1    16
 -7.9327768494963014E-01 a       437     0    22     1    17
 -1.6475826394452189E+00 a       438     0    22     1    18
 -9.7596544575180411E-01 a       439     0    22     1    19
  4.8847663293893789E-01 a       440     0    22     1    20
  3.2710024690564593E-01 a       441     0    23     1     1
 -1.7150894937385031E-01 a       442     0    23     1     2
  8.1968791881987479E-01 a       443     0    23     1     3
  4.7680444046813028E-02 a       444     0    23     1     4
  4.3590946638862305E-01 a       445     0    23     1     5
 -4.4135632306016565E-01 a       446     0    23     1     6
  3.0879561857008808E-01 a       447     0    23     1     7
 -1.6863784832658327E-01 a       448     0    23     1     8
  5.5880701434294644E-01 a       449     0    23     1     9
 -2.3203533531220297E-01 a       450     0    23     1    10
  5.6158364547285822E-01 a       451     0    23     1    11
 -3.3796296219624422E-01 a       452     0    23     1    12
 -5.4144652089363920E-01 a       453     0    23     1    13
 -3.1763037174108427E-01 a       454     0    23     1    14
 -7.1952622467794936E-02 a       455     0    23     1    15
 -7.3035840161125254E-01 a       456     0    23     1    16
 -1.0661353891653316E-02 a       457     0    23     1    17
 -1.2342810594837346E+00 a       458     0    23     1    18
 -7.9516010296216785E-02 a       459     0    23     1    19
  1.3947012762337621E-01 a       460     0    23     1    20
 -6.2038911386307752E-02 a       461     0    24     1     1
  4.7160369533487456E-02 a       462     0    24     1     2
  3.9773771328501806E-01 a       463     0    24     1     3
  1.9763254516536793E-01 a       464     0    24     1     4
  4.4299807406818920E-01 a       465     0    24     1     5
 -2.4463966021885969E-01 a       466     0    24     1     6
 -4.3899927101288949E-01 a       467     0    24     1     7
  9.5209002012361335E-02 a       468     0    24     1     8
  4.7293224872142020E-02 a       469     0    24     1     9
 -5.4334187785471766E-01 a       470     0    24     1    10
  8.0762352541973104E-01 a       471     0    24     1    11
 -1.0966330944925187E+00 a       472     0    24     1    12
 -8.7492251242681496E-01 a       473     0    24     1    13
 -2.5901581955397662E-01 a       474     0    24     1    14
  1.2877772578811514E-01 a       475     0    24     1    15
 -1.2751763043244718E-01 a       476     0    24     1    16
 -5.9718784533504383E-02 a       477     0    24     1    17
 -1.1076333279713793E+00 a       478     0    24     1    18
  5.1366610637387189E-01 a       479     0    24     1    19
  2.3505023747125953E-01 a       480     0    24     1    20
 -1.3356026512395496E+00 a       481     0    25     1     1
 -5.3450449901399455E-01 a       482     0    25     1     2
 -3.2590249099419843E-01 a       483     0    25     1     3
  2.0256066621934957E-01 a       484     0    25     1     4
  2.0203644134726050E-02 a       485     0    25     1     5
  8.6214128045738980E-01 a       486     0    25     1     6
 -7.3229542768087585E-01 a       487     0    25     1     7
  7.7093907297903452E-01 a       488     0    25     1     8
 -4.8658228399766335E-01 a       489     0    25     1     9
 -1.8935583888363341E-01 a       490     0    25     1    10
  3.9256597313438646E-01 a       491     0    25     1    11
 -8.4458030371225423E-01 a       492     0    25     1    12
 -2.4798621561219844E-01 a       493     0    25     1    13
 -2.8226247944075544E-01 a       494     0    25     1    14
  6.3302497351422338E-01 a       495     0    25     1    15
  9.0728783457436379E-01 a       496     0    25     1    16
  3.7022885707477293E-01 a       497     0    25     1    17
 -5.4241924287041787E-01 a       498     0    25     1    18
  6.3380393921679645E-01 a       499     0    25     1    19
 -4.5493087336191132E-02 a       500     0    25     1    20
  4.5507983685625392E-01 a       501     0    26     1     1
  1.0986659963410839E+00 a       502     0    26     1     2
 -4.4383808094388633E-01 a       503     0    26     1     3
 -1.6403716465870441E-01 a       504     0    26     1     4
  3.0559383749478547E-01 a       505     0    26     1     5
  2.6601856776058108E-01 a       506     0    26     1     6
  2.1186994004881909E-01 a       507     0    26     1     7
 -8.5569945710670969E-01 a       508     0    26     1     8
  4.7324314092289599E-01 a       509     0    26     1     9
 -3.0876973957519033E-01 a       510     0    26     1    10
 -5.3837630317510092E-02 a       511     0    26     1    11
 -6.6846537108882331E-01 a       512     0    26     1    12
 -1.8928795164387729E-01 a       513     0    26     1    13
 -6.8338233977979879E-01 a       514     0    26     1    14
 -4.4744317661971839E-01 a       515     0    26     1    15
  4.4425305808592808E-01 a       516     0    26     1    16
 -3.2800290900192275E-01 a       517     0    26     1    17
 -5.1399995744675797E-02 a       518     0    26     1    18
 -2.7089139346347046E-03 a       519     0    26     1    19
  3.8748059214161572E-02 a       520     0    26     1    20
 -7.6858265794403613E-01 a       521     0    27     1     1
 -1.9456608535294371E+00 a       522     0    27     1     2
  7.0435174499747655E-01 a       523     0    27     1     3
  8.6682770827605193E-01 a       524     0    27     1     4
  1.9013521272670027E-02 a       525     0    27     1     5
 -8.5217710535353250E-02 a       526     0    27     1     6
 -2.4411641105620149E-01 a       527     0    27     1     7
  1.8858814325520727E+00 a       528     0    27     1     8
 -1.1751409308607041E+00 a       529     0    27     1     9
  1.0183598707192303E+00 a       530     0    27     1    10
 -1.7411442154076118E+00 a       531     0    27     1    11
  1.0380826429994183E+00 a       532     0    27     1    12
  1.3936231307292966E+00 a       533     0    27     1    13
  1.8073509716837253E+00 a       534     0    27     1    14
  1.4407061636848663E-02 a       535     0    27     1    15
  3.4983265934626353E-03 a       536     0    27     1    16
  2.6725091582044085E+00 a       537     0    27     1    17
 -5.6652768659334170E-02 a       538     0    27     1    18
  4.4229256706579978E-01 a       539     0    27     1    19
 -6.6139722421194563E-02 a       540     0    27     1    20
 -1.1619488848066053E+00 a       541     0    28     1     1
 -1.3231872612066213E+00 a       542     0    28     1     2
  2.7408469116959211E-01 a       543     0    28     1     3
 -4.5414372804571479E-01 a       544     0    28     1     4
 -1.2208143401354325E-01 a       545     0    28     1     5
  2.3300367210150258E-01 a       546     0    28     1     6
  3.2619035309607733E-02 a       547     0    28     1     7
  1.7756051136941640E+00 a       548     0    28     1     8
 -7.1098729496645541E-01 a       549     0    28     1     9
  4.8788106132300602E-01 a       550     0    28     1    10
 -6.3063593534179019E-01 a       551     0    28     1    11
  8.3844035062081257E-01 a       552     0    28     1    12
  2.1610248888526390E-02 a       553     0    28     1    13
  4.8142545020310173E-01 a       554     0    28     1    14
 -1.0011160312259385E-01 a       555     0    28     1    15
  1.6521772857484290E-01 a       556     0    28     1    16
  8.2026489575338313E-01 a       557     0    28     1    17
 -2.3680848906105989E-01 a       558     0    28     1    18
  6.3004367810150907E-01 a       559     0    28     1    19
 -8.1977694009274205E-01 a       560     0    28     1    20
 -4.6831727090137415E-01 a       561     0    29     1     1
 -3.7646297401021733E-01 a       562     0    29     1     2
 -1.0105182786067504E-01 a       563     0    29     1     3
 -2.1567487426814969E-01 a       564     0    29     1     4
 -1.1764030866103910E-01 a       565     0    29     1     5
  1.1293451314816125E-01 a       566     0    29     1     6
 -4.6819283739805589E-01 a       567     0    29     1     7
  1.2799799989362909E-01 a       568     0    29     1     8
 -4.5866212471850532E-01 a       569     0    29     1     9
  2.1274722514770036E-01 a       570     0    29     1    10
 -8.5485245472379712E-01 a       571     0    29     1    11
  4.4786941440579048E-01 a       572     0    29     1    12
  9.2844702628536620E-03 a       573     0    29     1    13
 -9.4023356033600416E-02 a       574     0    29     1    14
 -4.4075203373187544E-01 a       575     0    29     1    15
  1.5038932001556440E-01 a       576     0    29     1    16
  1.1734598752014624E+00 a       577     0    29     1    17
  2.2972464195205555E-01 a       578     0    29     1    18
  1.2700927995569719E-01 a       579     0    29     1    19
 -2.6585444246641354E-01 a       580     0    29     1    20
 -1.5815354900144247E+00 a       581     0    30     1     1
 -1.5090905427308525E+00 a       582     0    30     1     2
 -4.3526894520780185E-01 a       583     0    30     1     3
  6.0254530757730546E-02 a       584     0    30     1     4
  2.1844564673644901E-02 a       585     0    30     1     5
 -2.8588446503436010E-01 a       586     0    30     1     6
 -2.9783183008550357E-01 a       587     0    30     1     7
 -2.9654618562151291E-01 a       588     0    30     1     8
  1.5809008785377066E-01 a       589     0    30     1     9
 -1.8757067640284322E-01 a       590     0    30     1    10
  5.3840588503085274E-01 a       591     0    30     1    11
  2.3675973147801312E-02 a       592     0    30     1    12
  2.6566042034144810E-01 a       593     0    30     1    13
  1.7937898225303950E-01 a       594     0    30     1    14
  8.8347686957925575E-01 a       595     0    30     1    15
  8.2191147514069057E-02 a       596     0    30     1    16
  4.8894049371135712E-01 a       597     0    30     1    17
 -3.2349947451585320E-01 a       598     0    30     1    18
 -3.4604784683424999E-01 a       599     0    30     1    19
  4.0409161053957782E-01 a       600     0    30     1    20
  1.1051537063731880E+00 a       601     0    31     1     1
 -1.0415897892676280E+00 a       602     0    31     1     2
  6.8561901390423485E-01 a       603     0    31     1     3
  8.5585544442945138E-01 a       604     0    31     1     4
  3.5879616204483838E-01 a       605     0    31     1     5
 -4.2769212818323366E-01 a       606     0    31     1     6
 -1.5574086064940240E+00 a       607     0    31     1     7
 -1.8906137043988075E-01 a       608     0    31     1     8
  1.1123527580412222E+00 a       609     0    31     1     9
 -6.9558768480955990E-01 a       610     0    31     1    10
 -4.8118100174127237E-01 a       611     0    31     1    11
 -1.0204229137231420E+00 a       612     0    31     1    12
  1.8288359630088173E+00 a       613     0    31     1    13
 -1.0279403249584809E+00 a       614     0    31     1    14
  7.0488821180559191E-01 a       615     0    31     1    15
 -4.8618707440597020E-01 a       616     0    31     1    16
  1.2080379644651944E+00 a       617     0    31     1    17
  1.8871621049573399E+00 a       618     0    31     1    18
  1.8146291350935051E-01 a       619     0    31     1    19
  1.0635726545153559E-01 a       620     0    31     1    20
  1.4956496441148692E+00 a       621     0    32     1     1
  2.6064911483158530E+00 a       622     0    32     1     2
 -2.7126631441062204E-01 a       623     0    32     1     3
 -1.9161944489305822E+00 a       624     0    32     1     4
  4.9850347813959545E-01 a       625     0    32     1     5
  1.9937478281305662E-01 a       626     0    32     1     6
  9.4550307128822320E-01 a       627     0    32     1     7
  8.3673833884888071E-01 a       628     0    32     1     8
 -3.9817787182327352E-01 a       629     0    32     1     9
 -2.2827433027141825E-01 a       630     0    32     1    10
 -1.6556632083769955E+00 a       631     0    32     1    11
  1.1673508604071421E+00 a       632     0    32     1    12
  8.2680176947080741E-01 a       633     0    32     1    13
  9.1607510246196577E-01 a       634     0    32     1    14
 -2.6563955012658997E+00 a       635     0    32     1    15
  9.6942713340650200E-01 a       636     0    32     1    16
  1.7724783405676943E+00 a       637     0    32     1    17
 -1.0976587810016381E+00 a       638     0    32     1    18
  5.9590442927883802E-01 a       639     0    32     1    19
 -1.4617383445528285E+00 a       640     0    32     1    20
  6.9907882560716883E-01 a       641     0    33     1     1
  1.5471025876722422E-01 a       642     0    33     1     2
 -2.2120966071139653E-01 a       643     0    33     1     3
  4.4151397269710885E-01 a       644     0    33     1     4
 -9.8507806156415509E-02 a       645     0    33     1     5
 -1.1827014394299501E-01 a       646     0    33     1     6
 -3.2657483631033123E-02 a       647     0    33     1     7
 -1.2705502185529888E-01 a       648     0    33     1     8
 -2.3986662371753964E-01 a       649     0    33     1     9
 -4.9079384895326944E-01 a       650     0    33     1    10
 -9.7166807997283045E-01 a       651     0    33     1    11
  1.5247104916102328E-01 a       652     0    33     1    12
  8.0548396675313061E-01 a       653     0    33     1    13
  4.1484760709097307E-01 a       654     0    33     1    14
 -6.2496063640260180E-01 a       655     0    33     1    15
  1.7326574607651835E-01 a       656     0    33     1    16
  4.3019288107438575E-01 a       657     0    33     1    17
  3.3516747388274010E-01 a       658     0    33     1    18
 -4.2697623758360015E-01 a       659     0    33     1    19
 -1.3272633504038339E-01 a       660     0    33     1    20
 -4.0975152971417078E-01 a       661     0    34     1     1
 -1.4367094816517469E+00 a       662     0    34     1     2
  3.2061737801083798E+00 a       663     0    34     1     3
  2.1629977702563248E+00 a       664     0    34     1     4
 -1.5860195388659766E+00 a       665     0    34     1     5
 -9.9855096242790897E-01 a       666     0    34     1     6
  1.3329410374717727E+00 a       667     0    34     1     7
 -1.2370228896271958E+00 a       668     0    34     1     8
 -2.3199186060099244E+00 a       669     0    34     1     9
  2.6374547389779521E+00 a       670     0    34     1    10
  7.5331741053823831E-01 a       671     0    34     1    11
  1.0812560558932587E+00 a       672     0    34     1    12
 -3.5912843841718911E+00 a       673     0    34     1    13
 -7.5360793708550078E-01 a       674     0    34     1    14
 -5.1193311425056998E-01 a       675     0    34     1    15
  2.0535106036514661E-01 a       676     0    34     1    16
  6.8500063245364384E-01 a       677     0    34     1    17
 -9.9100903445177979E-01 a       678     0    34     1    18
  1.0697644311104069E+00 a       679     0    34     1    19
  3.0055393815726605E-01 a       680     0    34     1    20
 -1.1562672639543843E+00 a       681     0    35     1     1
  5.3148675860503904E-02 a       682     0    35     1     2
  2.3689679107629272E-01 a       683     0    35     1     3
 -2.3255188922733883E+00 a       684     0    35     1     4
 -1.9354483949517684E-01 a       685     0    35     1     5
  3.3042243380585973E-01 a       686     0    35     1     6
  1.7416604701492724E+00 a       687     0    35     1     7
 -6.6811216038769483E-01 a       688     0    35     1     8
  1.9034463348136049E-01 a       689     0    35     1     9
 -1.3262620278176791E+00 a       690     0    35     1    10
  2.7115283184928979E-01 a       691     0    35     1    11
 -1.2031884203429519E-01 a       692     0    35     1    12
  1.0437119999153173E+00 a       693     0    35     1    13
 -3.2469901006586965E-01 a       694     0    35     1    14
 -9.2593071952670891E-01 a       695     0    35     1    15
  1.1884875879632197E+00 a       696     0    35     1    16
 -8.1256258665127257E-01 a       697     0    35     1    17
 -2.5317401115290999E-01 a       698     0    35     1    18
  5.4464354378869906E-01 a       699     0    35     1    19
 -4.1976803921800654E-01 a       700     0    35     1    20
  4.2195328980539193E-01 a       701     0    36     1     1
 -2.0750141768999706E+00 a       702     0    36     1     2
  7.9221159255823825E-01 a       703     0    36     1     3
  2.0598633631704355E+00 a       704     0    36     1     4
 -1.4141119220730582E+00 a       705     0    36     1     5
 -3.4136873674662382E-01 a       706     0    36     1     6
  3.3298726682224227E+00 a       707     0    36     1     7
 -3.3981777844068750E-01 a       708     0    36     1     8
  2.7300940931420370E+00 a       709     0    36     1     9
  2.0590832393977649E+00 a       710     0    36     1    10
  3.1392520866058402E+00 a       711     0    36     1    11
 -2.0396030806371725E+00 a       712     0    36     1    12
 -2.6274184219715289E+00 a       713     0    36     1    13
 -3.5809292257311451E+00 a       714     0    36     1    14
  3.1739251738279721E+00 a       715     0    36     1    15
 -2.7085253267072442E+00 a       716     0    36     1    16
 -1.1897684357643177E+00 a       717     0    36     1    17
 -6.9251205574713010E-02 a       718     0    36     1    18
 -3.0532321934857060E-01 a       719     0    36     1    19
  2.3308774782390973E-01 a       720     0    36     1    20
 -7.1318032328892986E+00 a       721     0    37     1     1
  3.7761880610155023E+00 a       722     0    37     1     2
 -3.0899628376854711E+00 a       723     0    37     1     3
 -1.8862453068046807E+00 a       724     0    37     1     4
  3.7266444170472481E+00 a       725     0    37     1     5
  3.0597848359399333E+00 a       726     0    37     1     6
  3.2569907685781758E+00 a       727     0    37     1     7
 -9.4528607513252294E-01 a       728     0    37     1     8
 -3.9159885322600521E+00 a       729     0    37     1     9
 -3.7747976910916408E+00 a       730     0    37     1    10
 -1.9770184118623655E+00 a       731     0    37     1    11
 -1.7225840430685271E+00 a       732     0    37     1    12
  2.9820326158914980E+00 a       733     0    37     1    13
  8.7482813559320860E-01 a       734     0    37     1    14
 -3.0177265565903020E+00 a       735     0    37     1    15
 -2.7379752514458039E-01 a       736     0    37     1    16
  1.1443563855411885E+00 a       737     0    37     1    17
  2.1920181116898725E+00 a       738     0    37     1    18
 -5.4712967270214135E+00 a       739     0    37     1    19
  4.8270376317526260E+00 a       740     0    37     1    20
  6.2785765212073699E-02 a       741     0    38     1     1
 -1.7892801631299105E-01 a       742     0    38     1     2
  5.9560517868619478E-01 a       743     0    38     1     3
  3.0947646843724996E-01 a       744     0    38     1     4
  8.6659803400286131E-02 a       745     0    38     1     5
 -2.2854719885432268E-01 a       746     0    38     1     6
  3.7735194176806597E-01 a       747     0    38     1     7
  4.5387624779126806E-02 a       748     0    38     1     8
  7.1780991980762307E-02 a       749     0    38     1     9
  1.5872734867670574E-01 a       750     0    38     1    10
  3.8536610549058936E-02 a       751     0    38     1    11
 -5.2607076742326522E-02 a       752     0    38     1    12
 -4.6028466330100964E-02 a       753     0    38     1    13
 -5.0910004779924878E-01 a       754     0    38     1    14
  4.5719113350258261E-01 a       755     0    38     1    15
 -2.6550474342122038E-01 a       756     0    38     1    16
  4.1640255061044390E-01 a       757     0    38     1    17
  5.5989408730711981E-02 a       758     0    38     1    18
 -3.8679075496307913E-01 a       759     0    38     1    19
  1.1543266606070737E-01 a       760     0    38     1    20
 -1.2701398752399420E+00 a       761     0    39     1     1
  3.3613667146474158E-01 a       762     0    39     1     2
  2.6734882807434601E-01 a       763     0    39     1     3
 -4.3365377405241257E-01 a       764     0    39     1     4
 -1.9754200642708272E-02 a       765     0    39     1     5
 -1.2260169049481533E-01 a       766     0    39     1     6
 -3.2517669407303795E-01 a       767     0    39     1     7
  1.6934837243113107E-01 a       768     0    39     1     8
 -5.5313180450599297E-01 a       769     0    39     1     9
  9.6055804761256269E-01 a       770     0    39     1    10
  8.3895868131101536E-01 a       771     0    39     1    11
 -1.1060102891502123E-01 a       772     0    39     1    12
 -1.1558515740465891E+00 a       773     0    39     1    13
  1.7713733749483280E+00 a       774     0    39     1    14
  1.0460657968725957E+00 a       775     0    39     1    15
 -6.3028873133545116E-01 a       776     0    39     1    16
 -2.5852392087432468E+00 a       777     0    39     1    17
 -3.6385078059884801E-01 a       778     0    39     1    18
  2.0871854592025949E+00 a       779     0    39     1    19
  5.0274856969948073E-02 a       780     0    39     1    20
  2.0494407274516067E+00 a       781     0    40     1     1
 -7.6608471309432469E-01 a       782     0    40     1     2
  4.9626303827998414E-01 a       783     0    40     1     3
 -4.4697759649070106E+00 a       784     0    40     1     4
  1.3869160887065635E+00 a       785     0    40     1     5
  6.2255428570263405E+00 a       786     0    40     1     6
 -4.6428576407086108E+00 a       787     0    40     1     7
  2.1676412810403147E+00 a       788     0    40     1     8
  2.8128878943262072E+00 a       789     0    40     1     9
 -1.2346862340584028E+00 a       790     0    40     1    10
 -1.8585643224506754E+00 a       791     0    40     1    11
  1.7636948305217923E+00 a       792     0    40     1    12
  2.6133073083196829E+00 a       793     0    40     1    13
 -1.0777086330051275E+00 a       794     0    40     1    14
  2.8440681664298850E+00 a       795     0    40     1    15
 -1.2300347051476026E+00 a       796     0    40     1    16
 -4.8701925829573811E-01 a       797     0    40     1    17
 -9.8527819359908853E-01 a       798     0    40     1    18
 -3.0114038713831750E+00 a       799     0    40     1    19
  4.2575624493133803E+00 a       800     0    40     1    20
  8.8140171740107789E+00 a       801     0    41     1     1
 -3.1961611059351016E+00 a       802     0    41     1     2
 -3.8024504196780708E+00 a       803     0    41     1     3
  4.6649666670695895E+00 a       804     0    41     1     4
 -3.4984266181787076E+00 a       805     0    41     1     5
 -3.3191146909519920E+00 a       806     0    41     1     6
 -4.0412062865806675E-01 a       807     0    41     1     7
 -5.6332762217672974E+00 a       808     0    41     1     8
  2.5208816872921433E+00 a       809     0    41     1     9
  1.0280689921912252E+00 a       810     0    41     1    10
  2.5419989864570205E+00 a       811     0    41     1    11
  2.5620760386842627E+00 a       812     0    41     1    12
 -6.5439023251017758E+00 a       813     0    41     1    13
  5.6826271625172273E+00 a       814     0    41     1    14
  7.3914289380306375E+00 a       815     0    41     1    15
  8.4391711704887662E+00 a       816     0    41     1    16
  3.7402778180891549E+00 a       817     0    41     1    17
 -5.5572650294756154E-01 a       818     0    41     1    18
  8.3600807436804896E+00 a       819     0    41     1    19
 -1.3632383799189906E+01 a       820     0    41     1    20
  3.2036716667441172E+00 a       821     0    42     1     1
 -1.2845582041654970E+00 a       822     0    42     1     2
  9.5108459335882749E+00 a       823     0    42     1     3
 -5.4667233596803602E+00 a       824     0    42     1     4
  3.8566779277183798E+00 a       825     0    42     1     5
  2.3494068252883138E+00 a       826     0    42     1     6
 -4.8455357796866529E+00 a       827     0    42     1     7
  7.0314129284744915E+00 a       828     0    42     1     8
 -1.4453835108495905E+00 a       829     0    42     1     9
 -2.2282940920495427E+00 a       830     0    42     1    10
 -2.7603781612995690E+00 a       831     0    42     1    11
  7.4041441747502434E-01 a       832     0    42     1    12
  2.0070999114300232E+00 a       833     0    42     1    13
 -9.6270834487309713E+00 a       834     0    42     1    14
 -6.7871248876248256E+00 a       835     0    42     1    15
  2.3981789976695720E+00 a       836     0    42     1    16
 -1.2179080639049986E+00 a       837     0    42     1    17
  7.7942006741752154E-02 a       838     0    42     1    18
 -7.8934515411195860E-01 a       839     0    42     1    19
  5.1990146768727961E+00 a       840     0    42     1    20
 -1.9627550903678854E+00 a       841     0    43     1     1
 -5.4956210882232943E+00 a       842     0    43     1     2
  2.5130738187399739E+00 a       843     0    43     1     3
  3.6027589914012750E+00 a       844     0    43     1     4
  6.6827754970286202E-01 a       845     0    43     1     5
 -5.7895829132595908E+00 a       846     0    43     1     6
  2.5418584877276298E+00 a       847     0    43     1     7
 -7.6864980263724547E-01 a       848     0    43     1     8
 -7.7886537648912890E-01 a       849     0    43     1     9
  1.8283416318814993E+00 a       850     0    43     1    10
  1.2998695346029587E+00 a       851     0    43     1    11
 -4.7155595276182388E-01 a       852     0    43     1    12
 -1.3002615827159372E+00 a       853     0    43     1    13
  2.7122176881362243E+00 a       854     0    43     1    14
 -2.0200342664228597E+00 a       855     0    43     1    15
  2.8213096077678808E+00 a       856     0    43     1    16
  3.6180517957989617E+00 a       857     0    43     1    17
  3.6386797819004015E+00 a       858     0    43     1    18
  1.2296216886234761E+00 a       859     0    43     1    19
 -2.9809887743379129E+00 a       860     0    43     1    20
 -4.1242796963043409E+00 a       861     0    44     1     1
  5.5312607257091413E+00 a       862     0    44     1     2
 -3.7782094698791124E+00 a       863     0    44     1     3
 -1.6590777084710118E-01 a       864     0    44     1     4
  6.8219352516257192E-01 a       865     0    44     1     5
  4.4426476569472237E+00 a       866     0    44     1     6
 -4.8005696012086467E+00 a       867     0    44     1     7
  6.9845170519243984E+00 a       868     0    44     1     8
 -3.2351615193713288E+00 a       869     0    44     1     9
  2.9355458219453565E+00 a       870     0    44     1    10
 -4.3830510910000937E+00 a       871     0    44     1    11
 -2.0107260923724590E+00 a       872     0    44     1    12
  8.3699112798567410E-01 a       873     0    44     1    13
  3.3355459080890584E+00 a       874     0    44     1    14
 -4.9868943925970770E+00 a       875     0    44     1    15
 -1.1473261930838056E+01 a       876     0    44     1    16
 -5.5397877037770646E+00 a       877     0    44     1    17
 -1.8309963852049094E+00 a       878     0    44     1    18
 -5.4747865953504773E+00 a       879     0    44     1    19
  6.4609679320833733E+00 a       880     0    44     1    20
  9.6276203344368128E-01 a       881     0    45     1     1
  1.7942950309276400E+00 a       882     0    45     1     2
 -8.9645107029285287E-01 a       883     0    45     1     3
  1.6395878710776639E+00 a       884     0    45     1     4
  7.2327226870151629E-01 a       885     0    45     1     5
 -2.6260707362492202E+00 a       886     0    45     1     6
 -2.1602568263114215E+00 a       887     0    45     1     7
  1.2948588486616457E+00 a       888     0    45     1     8
 -3.4012672389007303E-01 a       889     0    45     1     9
  1.2302214731501133E+00 a       890     0    45     1    10
 -6.7597598651635937E-01 a       891     0    45     1    11
  8.2569133912902826E-01 a       892     0    45     1    12
  8.4214220867073342E-01 a       893     0    45     1    13
  3.7885437085210385E+00 a       894     0    45     1    14
  2.4044903403554582E-01 a       895     0    45     1    15
 -1.9293984360848033E+00 a       896     0    45     1    16
 -1.5968610084781636E+00 a       897     0    45     1    17
  9.9045572357139650E-02 a       898     0    45     1    18
  2.0989515622658850E-01 a       899     0    45     1    19
 -1.1947633493426431E+00 a       900     0    45     1    20
 -2.9689635583432308E+00 a       901     0    46     1     1
  1.2325292069532214E+00 a       902     0    46     1     2
 -7.7422929947376429E-01 a       903     0    46     1     3
 -1.3568575245966912E+00 a       904     0    46     1     4
 -5.7607092515924716E+00 a       905     0    46     1     5
 -4.6623559853117733E+00 a       906     0    46     1     6
  7.2489468526008105E+00 a       907     0    46     1     7
 -7.9418028902345412E+00 a       908     0    46     1     8
  3.1551238137234461E+00 a       909     0    46     1     9
 -1.6115372507144059E+00 a       910     0    46     1    10
  3.0557321065387839E+00 a       911     0    46     1    11
 -6.8311037077903106E-03 a       912     0    46     1    12
  3.7470324321029991E+00 a       913     0    46     1    13
  2.4129945455509225E+00 a       914     0    46     1    14
  3.6706586918106341E+00 a       915     0    46     1    15
  1.5071375861924794E+00 a       916     0    46     1    16
  9.7675798017876758E-01 a       917     0    46     1    17
 -2.5686790355233038E+00 a       918     0    46     1    18
  6.3345360380206639E+00 a       919     0    46     1    19
 -4.3507854982663368E+00 a       920     0    46     1    20
  1.5474640463462358E-01 a       921     0    47     1     1
  5.0407596838354807E-01 a       922     0    47     1     2
 -1.1978901813370298E-02 a       923     0    47     1     3
  2.4950143922292214E-01 a       924     0    47     1     4
 -2.2049873959096367E-01 a       925     0    47     1     5
 -2.7713363756586687E-02 a       926     0    47     1     6
 -3.3186808404912549E-01 a       927     0    47     1     7
 -3.5472368190370657E-01 a       928     0    47     1     8
 -2.2265361986970250E-01 a       929     0    47     1     9
 -3.2283609885432418E-01 a       930     0    47     1    10
 -2.6293054581853992E-01 a       931     0    47     1    11
 -1.6071912932867963E-01 a       932     0    47     1    12
  1.4861667729349443E-01 a       933     0    47     1    13
  3.6415208694525691E-01 a       934     0    47     1    14
 -2.5082523166146220E-01 a       935     0    47     1    15
  2.0557088387260264E-01 a       936     0    47     1    16
 -1.8833507072652772E-01 a       937     0    47     1    17
  2.3475068032730889E-01 a       938     0    47     1    18
  5.2394279538866073E-01 a       939     0    47     1    19
  3.2544621107497373E-01 a       940     0    47     1    20
  1.1599289553780348E+00 a       941     0    48     1     1
  8.1479755676944592E-03 a       942     0    48     1     2
 -2.1479172660291814E+00 a       943     0    48     1     3
  8.4315734604564141E-01 a       944     0    48     1     4
  8.8748444306594676E-01 a       945     0    48     1     5
  1.8209079492064859E+00 a       946     0    48     1     6
  5.2658105345340045E-01 a       947     0    48     1     7
  3.8956292166178512E-02 a       948     0    48     1     8
 -5.8818871592542155E-01 a       949     0    48     1     9
 -1.7848548380597309E+00 a       950     0    48     1    10
  1.0372231419144733E+00 a       951     0    48     1    11
 -1.3613639965696924E+00 a       952     0    48     1    12
 -2.3871797159114205E+00 a       953     0    48     1    13
 -3.7214278601334567E+00 a       954     0    48     1    14
  2.8781322899028400E-01 a       955     0    48     1    15
  2.7552665281434918E+00 a       956     0    48     1    16
  2.2157764564816045E+00 a       957     0    48     1    17
  2.1458951556679482E+00 a       958     0    48     1    18
 -3.6676682067118462E+00 a       959     0    48     1    19
  1.0264039656751240E+00 a       960     0    48     1    20
 -4.6982957360339639E-02 b       961     1     1
  6.9923902165968735E-02 b       962     1     2
  1.1366815230306064E+00 b       963     1     3
  1.1299914821744696E-01 b       964     1     4
  1.6868141536208314E-01 b       965     1     5
  3.8191848351209795E-01 b       966     1     6
  7.4943443585595249E-01 b       967     1     7
 -1.8261338188340095E-01 b       968     1     8
 -3.7886222377706273E-02 b       969     1     9
 -4.4752900639778015E-01 b       970     1    10
  3.3554826176948210E-01 b       971     1    11
  5.0119295276941173E-02 b       972     1    12
 -1.1659454048841282E+00 b       973     1    13
 -6.7268255605628957E-01 b       974     1    14
  2.4915279033441579E-01 b       975     1    15
 -2.5141318853023303E-01 b       976     1    16
 -4.4569745749118389E-01 b       977     1    17
  4.6908122625366658E-02 b       978     1    18
  1.6521631546974125E-01 b       979     1    19
 -2.7488349793958412E-02 b       980     1    20
  4.5248276451781450E-02 a       981     1     1     2     1
 -2.0396219466302981E-01 a       982     1     1     2     2
  3.4880704765810699E-01 a       983     1     1     2     3
  5.0133017539520076E-02 a       984     1     1     2     4
  1.0990398746736620E+00 a       985     1     1     2     5
  3.5373214660432883E-01 a       986     1     1     2     6
  1.5237867980158087E-01 a       987     1     1     2     7
  1.1768831331343547E-01 a       988     1     1     2     8
  5.2098312885434150E-01 a       989     1     1     2     9
 -4.3812419969023386E-01 a       990     1     1     2    10
  7.9479157053932978E-02 a       991     1     1     2    11
 -3.0008997842934532E-01 a       992     1     1     2    12
  6.3785816473797816E-02 a       993     1     1     2    13
 -9.5169002016026072E-02 a       994     1     1     2    14
  1.9934843149608794E-01 a       995     1     1     2    15
  2.8395778655688857E-02 a       996     1     1     2    16
  1.6135484772161204E-01 a       997     1     1     2    17
 -3.3971208108200351E-01 a       998     1     1     2    18
 -6.0166310347200484E-02 a       999     1     1     2    19
 -8.3724286954371174E-02 a      1000     1     1     2    20
  3.1375924512621473E-01 a      1001     1     2     2     1
  1.7298086255083400E-01 a      1002     1     2     2     2
 -2.8925734259131447E-01 a      1003     1     2     2     3
 -1.9660433506628361E-01 a      1004     1     2     2     4
  2.1047925540777312E-01 a      1005     1     2     2     5
 -3.8986614519283747E-01 a      1006     1     2     2     6
  3.5673161232459040E-02 a      1007     1     2     2     7
 -4.2080213751639123E-01 a      1008     1     2     2     8
 -4.1126045103647979E-01 a      1009     1     2     2     9
 -7.5461740369259678E-02 a      1010     1     2     2    10
 -2.2605611164791747E-02 a      1011     1     2     2    11
  3.5848557988803031E-01 a      1012     1     2     2    12
 -4.8875400587662182E-01 a      1013     1     2     2    13
 -2.1562803834789721E-01 a      1014     1     2     2    14
 -2.5911250506146638E-01 a      1015     1     2     2    15
  1.5179001336376444E-01 a      1016     1     2     2    16
  2.4979101363049405E-01 a      1017     1     2     2    17
  3.0348920694093751E-01 a      1018     1     2     2    18
 -1.5732474181717504E-01 a      1019     1     2     2    19
 -1.6993176572028648E-01 a      1020     1     2     2    20
  6.8670639579934745E-01 a      1021     1     3     2     1
  5.1843869702187806E-01 a      1022     1     3     2     2
 -5.9853612776109544E-01 a      1023     1     3     2     3
  1.5075209760948175E-02 a      1024     1     3     2     4
 -2.9215049556225525E-01 a      1025     1     3     2     5
 -6.4670696172784548E-01 a      1026     1     3     2     6
 -9.3684956180318146E-01 a      1027     1     3     2     7
  5.9560190586520678E-01 a      1028     1     3     2     8
  2.5594130431592216E-01 a      1029     1     3     2     9
 -4.2616155145606166E-01 a      1030     1     3     2    10
  1.5550741938963706E+00 a      1031     1     3     2    11
 -3.3687838422511646E-01 a      1032     1     3     2    12
  2.4682562671478350E-01 a      1033     1     3     2    13
 -7.3169243756118652E-01 a      1034     1     3     2    14
  3.6430285478244412E-01 a      1035     1     3     2    15
  2.4680164871773014E-01 a      1036     1     3     2    16
 -2.2205637873800321E+00 a      1037     1     3     2    17
  1.1565316730520443E+00 a      1038     1     3     2    18
  4.0618747640879233E-01 a      1039     1     3     2    19
 -1.4659391660466756E-01 a      1040     1     3     2    20
 -6.2577161043924634E-01 a      1041     1     4     2     1
 -1.9699739155728885E-01 a      1042     1     4     2     2
  1.0229362700064162E+00 a      1043     1     4     2     3
 -8.7363016520058678E-01 a      1044     1     4     2     4
 -2.0689482049058494E-01 a      1045     1     4     2     5
 -2.0920122082877246E-01 a      1046     1     4     2     6
  5.5351216936047531E-01 a      1047     1     4     2     7
  1.5238264754428643E-01 a      1048     1     4     2     8
  2.4817630413794457E-02 a      1049     1     4     2     9
 -3.0834877520318776E-01 a      1050     1     4     2    10
 -7.3990845484609469E-01 a      1051     1     4     2    11
 -4.1715832661463292E-01 a      1052     1     4     2    12
  7.0616680203670901E-01 a      1053     1     4     2    13
  3.7271289067779134E-01 a      1054     1     4     2    14
 -3.1933588700592319E-01 a      1055     1     4     2    15
  1.5986517039642822E-01 a      1056     1     4     2    16
  9.2898961728774768E-03 a      1057     1     4     2    17
 -3.8461376051305152E-01 a      1058     1     4     2    18
  4.5459102305880456E-01 a      1059     1     4     2    19
 -8.1543707930281173E-01 a      1060     1     4     2    20
  3.3157995665447876E-01 a      1061     1     5     2     1
  6.3097640079775086E-01 a      1062     1     5     2     2
  4.2432218656979098E-01 a      1063     1     5     2     3
  5.2526353365815637E-01 a      1064     1     5     2     4
 -1.3065200435022997E-01 a      1065     1     5     2     5
  1.0157241214203543E+00 a      1066     1     5     2     6
 -4.7686323308833417E-01 a      1067     1     5     2     7
 -2.9348117603204732E-01 a      1068     1     5     2     8
 -4.0188261601204939E-01 a      1069     1     5     2     9
  5.8624468979658095E-01 a      1070     1     5     2    10
  1.7878851355197733E-01 a      1071     1     5     2    11
  9.8696573485978045E-01 a      1072     1     5     2    12
  3.6907583651455106E-01 a      1073     1     5     2    13
  5.6425412344977921E-01 a      1074     1     5     2    14
  2.8426578149536258E-01 a      1075     1     5     2    15
 -3.3466457537621108E-01 a      1076     1     5     2    16
  1.1223136056712548E+00 a      1077     1     5     2    17
 -8.4471228102829827E-03 a      1078     1     5     2    18
  5.5687622229442324E-01 a      1079     1     5     2    19
  1.6475834970486138E+00 a      1080     1     5     2    20
  1.0033485974418685E-01 a      1081     1     6     2     1
 -9.5921075182968873E-01 a      1082     1     6     2     2
 -5.6760586771331956E-01 a      1083     1     6     2     3
  1.2220224322528657E+00 a      1084     1     6     2     4
  5.3019372621181160E-01 a      1085     1     6     2     5
 -5.4796915991411876E-01 a      1086     1     6     2     6
  7.3324518200572786E-01 a      1087     1     6     2     7
 -1.1923988357541411E+00 a      1088     1     6     2     8
 -5.2654222791634608E-01 a      1089     1     6     2     9
 -6.6298577874137876E-01 a      1090     1     6     2    10
  6.1775567839344514E-01 a      1091     1     6     2    11
  3.4123844668648079E-01 a      1092     1     6     2    12
 -7.0440783218022565E-02 a      1093     1     6     2    13
 -1.4648268554875349E-01 a      1094     1     6     2    14
 -4.6082901817275790E-01 a      1095     1     6     2    15
  8.9126006273450975E-01 a      1096     1     6     2    16
  3.7120088250037028E-02 a      1097     1     6     2    17
 -1.9829456957206282E-01 a      1098     1     6     2    18
  2.0804646518702397E-02 a      1099     1     6     2    19
  8.4695350887920379E-02 a      1100     1     6     2    20
 -4.8612104959617453E-01 a      1101     1     7     2     1
 -6.1875123441914859E-01 a      1102     1     7     2     2
  2.8061399434780676E-01 a      1103     1     7     2     3
 -1.3502421327288350E+00 a      1104     1     7     2     4
 -7.2510642915996137E-01 a      1105     1     7     2     5
  7.4746959326895923E-01 a      1106     1     7     2     6
  8.2349990129499973E-01 a      1107     1     7     2     7
  7.7362084891395921E-01 a      1108     1     7     2     8
  3.5897933242200752E-01 a      1109     1     7     2     9
  3.7480969017671761E-01 a      1110     1     7     2    10
 -1.0343373842898338E+00 a      1111     1     7     2    11
 -8.6058079322087599E-01 a      1112     1     7     2    12
 -4.3947775520794136E-01 a      1113     1     7     2    13
  4.1457771036445584E-01 a      1114     1     7     2    14
 -5.7947288762237337E-01 a      1115     1     7     2    15
  1.5944271460702325E-01 a      1116     1     7     2    16
 -5.6150286239670999E-01 a      1117     1     7     2    17
 -3.1374485177103079E-01 a      1118     1     7     2    18
 -4.4501805924778287E-01 a      1119     1     7     2    19
  2.3832988448746212E-01 a      1120     1     7     2    20
  3.0401732174826220E-02 a      1121     1     8     2     1
 -2.5752559472858866E-01 a      1122     1     8     2     2
 -3.9817600327437414E-01 a      1123     1     8     2     3
  9.6683303054331926E-02 a      1124     1     8     2     4
 -7.9573234280943239E-01 a      1125     1     8     2     5
  7.8283325998970410E-01 a      1126     1     8     2     6
 -1.2138089911261443E+00 a      1127     1     8     2     7
  3.9216453647241295E-01 a      1128     1     8     2     8
 -2.1681595723089092E-01 a      1129     1     8     2     9
  2.6109956830139454E-02 a      1130     1     8     2    10
  4.5924734066364037E-01 a      1131     1     8     2    11
 -1.6709304098661257E-01 a      1132     1     8     2    12
  9.7767600680605404E-01 a      1133     1     8     2    13
  1.3065412227594925E-01 a      1134     1     8     2    14
  2.6838060832511762E-01 a      1135     1     8     2    15
 -4.0760867009366769E-01 a      1136     1     8     2    16
  3.1937981769744372E-01 a      1137     1     8     2    17
  7.1538325389117119E-01 a      1138     1     8     2    18
 -8.3120012865109380E-02 a      1139     1     8     2    19
 -4.9551616736581580E-02 a      1140     1     8     2    20
  8.1435070207927354E-02 a      1141     1     9     2     1
 -1.8162687342626460E-01 a      1142     1     9     2     2
 -3.5293314347038163E-01 a      1143     1     9     2     3
  1.6980816860317821E-01 a      1144     1     9     2     4
  7.7122183199987815E-01 a      1145     1     9     2     5
  7.6098490234294103E-01 a      1146     1     9     2     6
  1.5773136121843301E-01 a      1147     1     9     2     7
  5.4342994585826021E-01 a      1148     1     9     2     8
  7.9280379674655588E-01 a      1149     1     9     2     9
  7.3329631811659457E-01 a      1150     1     9     2    10
  1.8017698683633468E-01 a      1151     1     9     2    11
 -4.0079408953371315E-01 a      1152     1     9     2    12
  8.4913019955957361E-02 a      1153     1     9     2    13
 -6.3969220757550160E-01 a      1154     1     9     2    14
  7.6653745263576112E-01 a      1155     1     9     2    15
 -6.8048663207032345E-01 a      1156     1     9     2    16
 -1.7359978248688774E+00 a      1157     1     9     2    17
  5.5064432846923883E-01 a      1158     1     9     2    18
  7.8968893379665650E-01 a      1159     1     9     2    19
  7.6201121097884628E-01 a      1160     1     9     2    20
 -5.7043604887084050E-02 a      1161     1    10     2     1
 -1.2489170910521736E+00 a      1162     1    10     2     2
  3.9847511114239476E-01 a      1163     1    10     2     3
 -8.7787874510725639E-01 a      1164     1    10     2     4
  1.0583071237136497E+00 a      1165     1    10     2     5
 -1.2588548427597437E-01 a      1166     1    10     2     6
  9.6236832694263796E-01 a      1167     1    10     2     7
  4.6190274208573406E-01 a      1168     1    10     2     8
  3.0715998087450437E-02 a      1169     1    10     2     9
  6.2414441627105277E-01 a      1170     1    10     2    10
 -5.2847765847426398E-01 a      1171     1    10     2    11
 -8.9148342303448846E-01 a      1172     1    10     2    12
 -4.9864358902086953E-01 a      1173     1    10     2    13
 -1.5320309860405767E-01 a      1174     1    10     2    14
 -9.3885309554646801E-01 a      1175     1    10     2    15
  1.8032861389949928E-01 a      1176     1    10     2    16
  2.5807410080739179E-01 a      1177     1    10     2    17
 -7.5835481085993517E-01 a      1178     1    10     2    18
 -9.5878905558324790E-01 a      1179     1    10     2    19
 -9.2596880540488291E-01 a      1180     1    10     2    20
  2.7330470108790295E-01 a      1181     1    11     2     1
  9.0857681903611298E-01 a      1182     1    11     2     2
  1.2654015955633278E+00 a      1183     1    11     2     3
 -1.1413582020326281E+00 a      1184     1    11     2     4
 -8.3751459696077335E-01 a      1185     1    11     2     5
  1.6703198103274466E-01 a      1186     1    11     2     6
  1.2767966288959506E-01 a      1187     1    11     2     7
 -1.7421697379141621E-01 a      1188     1    11     2     8
 -5.4611675155763317E-01 a      1189     1    11     2     9
 -8.9597241870450384E-01 a      1190     1    11     2    10
  8.2661371732892686E-01 a      1191     1    11     2    11
 -6.9813211874807635E-01 a      1192     1    11     2    12
 -5.8693247096877336E-02 a      1193     1    11     2    13
  2.1678473291714551E-01 a      1194     1    11     2    14
 -9.5866631143731296E-01 a      1195     1    11     2    15
  4.2992053897918131E-01 a      1196     1    11     2    16
 -1.5218342765133992E+00 a      1197     1    11     2    17
 -6.1262864516867588E-01 a      1198     1    11     2    18
  2.4112754002048367E-01 a      1199     1    11     2    19
 -5.8957370429246181E-01 a      1200     1    11     2    20
 -3.2631007211871904E-01 a      1201     1    12     2     1
 -3.6331221834844996E-01 a      1202     1    12     2     2
 -1.9226267969424873E-01 a      1203     1    12     2     3
 -2.5145580879706173E-02 a      1204     1    12     2     4
  2.5399235402084108E-02 a      1205     1    12     2     5
 -1.0193666849852685E+00 a      1206     1    12     2     6
  7.5687932059076735E-01 a      1207     1    12     2     7
 -8.5309650964741346E-01 a      1208     1    12     2     8
 -4.4815937001010697E-01 a      1209     1    12     2     9
 -2.7395823126878238E-01 a      1210     1    12     2    10
 -8.7171955930200906E-01 a      1211     1    12     2    11
  7.5713541407783258E-01 a      1212     1    12     2    12
  4.6590647866391492E-02 a      1213     1    12     2    13
 -5.6861961954550999E-01 a      1214     1    12     2    14
  4.7662434321465119E-01 a      1215     1    12     2    15
  5.0466072687819463E-01 a      1216     1    12     2    16
  9.8237044765405468E-01 a      1217     1    12     2    17
 -5.8146178816202165E-01 a      1218     1    12     2    18
 -5.5656425600059622E-01 a      1219     1    12     2    19
 -8.1303757749027605E-01 a      1220     1    12     2    20
 -1.3333925336481511E-01 a      1221     1    13     2     1
  4.4542006116349002E-02 a      1222     1    13     2     2
 -3.0357784026844886E-01 a      1223     1    13     2     3
  1.1705068143020483E+00 a      1224     1    13     2     4
 -7.4165767919257031E-01 a      1225     1    13     2     5
 -7.2799532548802692E-01 a      1226     1    13     2     6
  2.5860633979584396E-01 a      1227     1    13     2     7
 -1.4977634298785574E+00 a      1228     1    13     2     8
 -2.8242781313229626E-01 a      1229     1    13     2     9
 -4.3449203913751105E-01 a      1230     1    13     2    10
  5.3335805605016426E-02 a      1231     1    13     2    11
  2.2176636025172547E-01 a      1232     1    13     2    12
 -5.5807001017873947E-01 a      1233     1    13     2    13
  5.3922440548339023E-01 a      1234     1    13     2    14
 -5.1532251493486247E-01 a      1235     1    13     2    15
  8.8240753841471276E-01 a      1236     1    13     2    16
 -6.6235154165866872E-01 a      1237     1    13     2    17
 -5.4271995597212053E-01 a      1238     1    13     2    18
  9.3584034138991801E-01 a      1239     1    13     2    19
 -9.3253678266376872E-01 a      1240     1    13     2    20
  6.3281980866787313E-01 a      1241     1    14     2     1
 -9.5025890194940243E-01 a      1242     1    14     2     2
  1.4236087386254609E-01 a      1243     1    14     2     3
  2.5356334169511857E-01 a      1244     1    14     2     4
  1.9501450309342153E-01 a      1245     1    14     2     5
  1.6449777217553598E+00 a      1246     1    14     2     6
  1.5808053888784570E+00 a      1247     1    14     2     7
 -8.8970952263729319E-01 a      1248     1    14     2     8
 -2.4344140168694664E-01 a      1249     1    14     2     9
  5.8399480555498706E-01 a      1250     1    14     2    10
 -1.3095746707945914E+00 a      1251     1    14     2    11
 -8.3177500210133293E-01 a      1252     1    14     2    12
 -1.6360732433847587E+00 a      1253     1    14     2    13
  2.3073033187885694E-01 a      1254     1    14     2    14
 -1.1681479423499785E+00 a      1255     1    14     2    15
  7.9592959194094126E-01 a      1256     1    14     2    16
  8.7360263922442305E-01 a      1257     1    14     2    17
 -1.5723970771690436E+00 a      1258     1    14     2    18
 -9.3979636198708660E-01 a      1259     1    14     2    19
  6.5242250531367285E-01 a      1260     1    14     2    20
  2.4591029910874126E-01 a      1261     1    15     2     1
 -3.9641570607820628E-02 a      1262     1    15     2     2
 -3.2441756665751154E-01 a      1263     1    15     2     3
 -3.8513050169732815E-01 a      1264     1    15     2     4
  7.7633630035577206E-01 a      1265     1    15     2     5
  4.9230032306298321E-01 a      1266     1    15     2     6
  6.4111617426223011E-01 a      1267     1    15     2     7
 -1.0959005760530213E-01 a      1268     1    15     2     8
  6.1692003907727078E-01 a      1269     1    15     2     9
  1.6997004148991142E-02 a      1270     1    15     2    10
 -7.2432231309045547E-01 a      1271     1    15     2    11
  9.7104479643541880E-02 a      1272     1    15     2    12
 -8.8339203812488154E-01 a      1273     1    15     2    13
 -3.4909869802925197E-01 a      1274     1    15     2    14
  3.7882152295687010E-01 a      1275     1    15     2    15
  1.2525982959546289E-01 a      1276     1    15     2    16
  4.1491955991627899E-01 a      1277     1    15     2    17
 -4.6467974608237045E-01 a      1278     1    15     2    18
 -2.0435753713096991E-01 a      1279     1    15     2    19
 -1.3222399453827327E-01 a      1280     1    15     2    20
 -3.7914672273511009E-02 a      1281     1    16     2     1
  8.9926769068519086E-01 a      1282     1    16     2     2
  3.1935038192065873E-01 a      1283     1    16     2     3
 -5.2647866130353682E-01 a      1284     1    16     2     4
  8.3347297386479757E-01 a      1285     1    16     2     5
 -1.8626525131629382E-01 a      1286     1    16     2     6
 -3.1324984104162346E-02 a      1287     1    16     2     7
  7.0716547302153143E-01 a      1288     1    16     2     8
  1.3838707381818189E+00 a      1289     1    16     2     9
  5.4996606752452171E-01 a      1290     1    16     2    10
  7.8176234459853167E-02 a      1291     1    16     2    11
 -2.2460169889784670E-01 a      1292     1    16     2    12
  4.1750304013799799E-01 a      1293     1    16     2    13
 -6.1078645769786510E-01 a      1294     1    16     2    14
  1.4507684561047023E+00 a      1295     1    16     2    15
 -4.1869225509271402E-01 a      1296     1    16     2    16
 -5.0160637391283402E-01 a      1297     1    16     2    17
  2.5577494720947119E-01 a      1298     1    16     2    18
  5.9335293505255626E-01 a      1299     1    16     2    19
  2.8333199772268386E-01 a      1300     1    16     2    20
  4.7739707774556756E-01 a      1301     1    17     2     1
  2.5219593288798026E-01 a      1302     1    17     2     2
  1.7068260463144504E-02 a      1303     1    17     2     3
 -3.3902489854467083E-01 a      1304     1    17     2     4
 -6.5216891095379914E-01 a      1305     1    17     2     5
  6.5180325439699194E-01 a      1306     1    17     2     6
 -2.6075348242566626E-01 a      1307     1    17     2     7
  2.9078479294496890E-01 a      1308     1    17     2     8
  5.3073981298387522E-02 a      1309     1    17     2     9
 -5.1020693660412342E-01 a      1310     1    17     2    10
  8.1377944412081371E-01 a      1311     1    17     2    11
 -5.2859212754369322E-01 a      1312     1    17     2    12
  1.5199220853180906E-01 a      1313     1    17     2    13
 -3.4490638308492022E-01 a      1314     1    17     2    14
 -1.8754272926390717E-01 a      1315     1    17     2    15
  1.2224677577451451E-01 a      1316     1    17     2    16
 -1.0781866148050576E+00 a      1317     1    17     2    17
 -5.6037460113845652E-02 a      1318     1    17     2    18
 -1.2159807239599356E-01 a      1319     1    17     2    19
  3.7572070905131866E-01 a      1320     1    17     2    20
  5.9764633272681955E-01 a      1321     1    18     2     1
  1.9263726924887495E-01 a      1322     1    18     2     2
 -4.0110456376208736E-01 a      1323     1    18     2     3
  5.6546803900520770E-01 a      1324     1    18     2     4
  1.1856223329600632E-02 a      1325     1    18     2     5
  2.4492284856569319E-01 a      1326     1    18     2     6
 -8.0713766533374032E-01 a      1327     1    18     2     7
  6.2361484531660560E-01 a      1328     1    18     2     8
  1.0121893175633988E-01 a      1329     1    18     2     9
  3.6617244031909046E-01 a      1330     1    18     2    10
  2.3081844225569478E-01 a      1331     1    18     2    11
 -4.0159220273025059E-01 a      1332     1    18     2    12
  3.0208478818296430E-01 a      1333     1    18     2    13
 -4.8644571174624951E-01 a      1334     1    18     2    14
 -1.6953837227680882E-01 a      1335     1    18     2    15
 -1.6903442530623103E-01 a      1336     1    18     2    16
 -1.2180198415926009E+00 a      1337     1    18     2    17
  4.4205127244491660E-02 a      1338     1    18     2    18
 -8.0821802621682326E-01 a      1339     1    18     2    19
 -5.4944903196205618E-02 a      1340     1    18     2    20
  3.1935502783060582E-01 a      1341     1    19     2     1
 -3.3865730021917462E-01 a      1342     1    19     2     2
  1.8212631217884415E-01 a      1343     1    19     2     3
 -1.2692567494124582E-01 a      1344     1    19     2     4
  1.0589493893445448E-01 a      1345     1    19     2     5
  2.8578449308472631E-01 a      1346     1    19     2     6
  6.5136144682530561E-01 a      1347     1    19     2     7
  1.9729658712631368E-01 a      1348     1    19     2     8
  7.8321628620922026E-02 a      1349     1    19     2     9
 -5.6134505091099995E-01 a      1350     1    19     2    10
 -1.5451569042452895E-01 a      1351     1    19     2    11
 -8.2741166551623030E-02 a      1352     1    19     2    12
  5.9636008722842582E-01 a      1353     1    19     2    13
 -5.9226271421492316E-01 a      1354     1    19     2    14
 -2.4282134987769577E-01 a      1355     1    19     2    15
  7.6550153256331230E-02 a      1356     1    19     2    16
 -1.5591237235104927E-01 a      1357     1    19     2    17
 -5.3183972939424939E-01 a      1358     1    19     2    18
  2.8554652178982554E-01 a      1359     1    19     2    19
  9.1735785913845802E-01 a      1360     1    19     2    20
 -2.3273675738547554E-02 a      1361     1    20     2     1
 -2.3842765781160899E-01 a      1362     1    20     2     2
 -1.0741573210295197E+00 a      1363     1    20     2     3
  1.3841059105209623E+00 a      1364     1    20     2     4
 -1.0092150789079670E+00 a      1365     1    20     2     5
 -3.7056836887039535E-02 a      1366     1    20     2     6
 -8.7221383226836102E-01 a      1367     1    20     2     7
 -6.3288891672882641E-01 a      1368     1    20     2     8
 -1.0578699170199424E+00 a      1369     1    20     2     9
  3.7707935017777972E-01 a      1370     1    20     2    10
  2.0174564152823782E-01 a      1371     1    20     2    11
  6.0846682427948218E-01 a      1372     1    20     2    12
  1.9857951258347235E-02 a      1373     1    20     2    13
 -3.5749966610128171E-02 a      1374     1    20     2    14
  1.1982223203738557E-01 a      1375     1    20     2    15
 -2.9374971396731869E-01 a      1376     1    20     2    16
  4.0060438357850764E-01 a      1377     1    20     2    17
 -7.6520008025349889E-02 a      1378     1    20     2    18
  3.3555633969972304E-01 a      1379     1    20     2    19
  7.5330034637709076E-01 a      1380     1    20     2    20
  9.0906837627259707E-02 b      1381     2     1
 -8.3977487780570362E-02 b      1382     2     2
  1.2427829160276983E-01 b      1383     2     3
  6.7109021104497790E-01 b      1384     2     4
 -2.0705676436161657E-01 b      1385     2     5
 -2.4444658256944235E-01 b      1386     2     6
  6.9213359894695303E-01 b      1387     2     7
 -1.0005624265054174E+00 b      1388     2     8
  1.6563721825626382E-01 b      1389     2     9
  1.7636598924096281E-01 b      1390     2    10
 -2.3038105255736346E-01 b      1391     2    11
  1.9256058815268390E-01 b      1392     2    12
 -6.1930592919326699E-01 b      1393     2    13
  2.5305631550165358E-01 b      1394     2    14
 -5.2851830600115446E-01 b      1395     2    15
  2.5267673631677179E-01 b      1396     2    16
  9.7590233000893123E-01 b      1397     2    17
 -7.1019844055294767E-01 b      1398     2    18
  3.1576198170213748E-01 b      1399     2    19
  1.7107124327176579E-01 b      1400     2    20
  3.8454877276454497E-01 a      1401     2     1     3     1
  5.1664350809383874E-01 a      1402     2     1     3     2
 -1.7554626370215778E-01 a      1403     2     1     3     3
  8.3266423944594459E-01 a      1404     2     1     3     4
  5.5189429534618799E-02 a      1405     2     1     3     5
  1.8532866946699961E-01 a      1406     2     1     3     6
  7.5831438018084818E-01 a      1407     2     1     3     7
 -7.0990694381082420E-01 a      1408     2     1     3     8
 -6.6188569306319434E-01 a      1409     2     1     3     9
  2.0761552140334560E-01 a      1410     2     1     3    10
  1.1230681972733207E+00 a      1411     2     1     3    11
 -4.9880955575098607E-01 a      1412     2     1     3    12
 -4.9994355737173618E-01 a      1413     2     1     3    13
 -5.2276070043242862E-01 a      1414     2     1     3    14
  4.6646336726532717E-01 a      1415     2     1     3    15
 -2.8403536333656904E-02 a      1416     2     1     3    16
 -4.4301582127949390E-01 a      1417     2     1     3    17
  5.6049671766173030E-02 a      1418     2     1     3    18
 -6.8178429362472792E-01 a      1419     2     1     3    19
  1.0471721949501665E-01 a      1420     2     1     3    20
 -8.1863869425089688E-03 a      1421     2     2     3     1
 -6.5597231090853830E-03 a      1422     2     2     3     2
 -5.2455395521281167E-01 a      1423     2     2     3     3
 -1.1545790253270647E+00 a      1424     2     2     3     4
 -3.8318606199544408E-01 a      1425     2     2     3     5
  3.3686615341635917E-01 a      1426     2     2     3     6
  6.0323713372076593E-01 a      1427     2     2     3     7
  4.7142562157513501E-02 a      1428     2     2     3     8
  3.0392294883964011E-01 a      1429     2     2     3     9
 -8.8414692443149367E-01 a      1430     2     2     3    10
 -1.3239564614467864E-01 a      1431     2     2     3    11
 -4.9821779379400571E-01 a      1432     2     2     3    12
  7.3240292851936784E-02 a      1433     2     2     3    13
  9.1686491369561607E-01 a      1434     2     2     3    14
  1.9417000076982974E-01 a      1435     2     2     3    15
  2.7794303931462516E-01 a      1436     2     2     3    16
 -3.5674593367633761E-01 a      1437     2     2     3    17
  1.7076666846275509E-01 a      1438     2     2     3    18
  1.2906200307959809E-01 a      1439     2     2     3    19
 -4.9895753936178885E-02 a      1440     2     2     3    20
  9.4871658908681356E-01 a      1441     2     3     3     1
  2.5664117330946007E-01 a      1442     2     3     3     2
 -2.7793462265838126E-01 a      1443     2     3     3     3
  2.0666344194962508E-01 a      1444     2     3     3     4
 -1.5690530509743394E-01 a      1445     2     3     3     5
 -8.9269961834292466E-01 a      1446     2     3     3     6
  2.2904262810368645E-01 a      1447     2     3     3     7
  3.8248019342390499E-01 a      1448     2     3     3     8
 -2.9734867121171772E-02 a      1449     2     3     3     9
 -1.5137915195626704E-02 a      1450     2     3     3    10
 -3.4027010805454322E-01 a      1451     2     3     3    11
  9.4063137117449347E-01 a      1452     2     3     3    12
  3.3575743676580327E-01 a      1453     2     3     3    13
 -2.9215070963557943E-01 a      1454     2     3     3    14
 -3.2404253540032596E-01 a      1455     2     3     3    15
  6.0771000773655526E-01 a      1456     2     3     3    16
 -2.7246549423138006E-01 a      1457     2     3     3    17
  4.1257935705516724E-01 a      1458     2     3     3    18
  5.8837044857718801E-01 a      1459     2     3     3    19
  9.0459649770863473E-02 a      1460     2     3     3    20
  5.7932844238227643E-01 a      1461     2     4     3     1
 -2.5804066675593368E-01 a      1462     2     4     3     2
 -6.2203160987528129E-02 a      1463     2     4     3     3
 -6.7724826735556976E-01 a      1464     2     4     3     4
 -2.8412483433428437E-01 a      1465     2     4     3     5
  3.8625623031244860E-01 a      1466     2     4     3     6
 -1.7403949641176655E-01 a      1467     2     4     3     7
  1.1313423211231591E-01 a      1468     2     4     3     8
 -6.0447286892406316E-01 a      1469     2     4     3     9
 -1.0840491388947472E-01 a      1470     2     4     3    10
 -4.8571878521899237E-01 a      1471     2     4     3    11
 -4.8918961614529377E-01 a      1472     2     4     3    12
  7.5764961307681034E-01 a      1473     2     4     3    13
  7.7184293134483573E-01 a      1474     2     4     3    14
  3.1202041966790467E-01 a      1475     2     4     3    15
 -3.4352399060412309E-01 a      1476     2     4     3    16
 -1.1747442530510079E-01 a      1477     2     4     3    17
  4.9719681676873417E-01 a      1478     2     4     3    18
  6.1034059772612892E-01 a      1479     2     4     3    19
 -1.5323797734176231E-01 a      1480     2     4     3    20
 -3.8576247871219538E-01 a      1481     2     5     3     1
 -1.1671103649634931E-01 a      1482     2     5     3     2
  5.6500518784807952E-01 a      1483     2     5     3     3
 -1.4674054009213686E+00 a      1484     2     5     3     4
 -8.7849397292995191E-01 a      1485     2     5     3     5
  1.1498155727117465E+00 a      1486     2     5     3     6
  1.0884189539346739E-01 a      1487     2     5     3     7
 -2.0630013415569076E-01 a      1488     2     5     3     8
 -7.1877732934541749E-02 a      1489     2     5     3     9
 -5.0078602709674602E-01 a      1490     2     5     3    10
 -5.6085402732992085E-01 a      1491     2     5     3    11
  4.1957740001013683E-01 a      1492     2     5     3    12
 -5.5628472199562809E-02 a      1493     2     5     3    13
 -2.5485603391491568E-01 a      1494     2     5     3    14
  3.1214429435031826E-01 a      1495     2     5     3    15
 -2.7190808899882291E-01 a      1496     2     5     3    16
  4.8759507716775807E-01 a      1497     2     5     3    17
 -8.5889952050935758E-01 a      1498     2     5     3    18
 -6.0893679764516140E-01 a      1499     2     5     3    19
 -3.6694972345976462E-01 a      1500     2     5     3    20
  3.2397145882992806E-01 a      1501     2     6     3     1
  1.4274976934249803E-01 a      1502     2     6     3     2
  3.9688113798474323E-01 a      1503     2     6     3     3
  3.0359994610302121E-01 a      1504     2     6     3     4
 -1.6674259415403212E+00 a      1505     2     6     3     5
 -3.2225624246000650E-01 a      1506     2     6     3     6
 -6.4674797398146966E-01 a      1507     2     6     3     7
 -5.6381226686864139E-01 a      1508     2     6     3     8
  1.2790014474972282E+00 a      1509     2     6     3     9
 -3.0797156704112233E-01 a      1510     2     6     3    10
 -5.4258984279019366E-02 a      1511     2     6     3    11
  5.8671333425640693E-01 a      1512     2     6     3    12
  3.8331009689267542E-01 a      1513     2     6     3    13
  7.3266071501599228E-01 a      1514     2     6     3    14
  1.7995675233801001E+00 a      1515     2     6     3    15
  5.1567745104481466E-01 a      1516     2     6     3    16
  3.6879253557083930E-01 a      1517     2     6     3    17
 -1.1007329701448862E+00 a      1518     2     6     3    18
  5.9452145778162335E-01 a      1519     2     6     3    19
  1.5358558603707598E-01 a      1520     2     6     3    20
  1.1552790590249566E+00 a      1521     2     7     3     1
  1.1386100496799560E+00 a      1522     2     7     3     2
 -6.1728099526048696E-01 a      1523     2     7     3     3
 -4.2100180279436566E-01 a      1524     2     7     3     4
 -1.3729200433645041E+00 a      1525     2     7     3     5
  4.5258849173795712E-01 a      1526     2     7     3     6
  6.0862856539868859E-01 a      1527     2     7     3     7
 -3.3611517130507362E-01 a      1528     2     7     3     8
 -1.1870752501373570E-01 a      1529     2     7     3     9
  3.0834355274396978E-02 a      1530     2     7     3    10
 -5.3459384781844119E-03 a      1531     2     7     3    11
 -6.8961099772377010E-01 a      1532     2     7     3    12
 -4.5419095815091420E-01 a      1533     2     7     3    13
  1.2146131047492308E-01 a      1534     2     7     3    14
 -2.0711428057638495E-02 a      1535     2     7     3    15
 -8.6307628451389062E-02 a      1536     2     7     3    16
 -3.4315351326717702E-01 a      1537     2     7     3    17
  2.0303688887376431E-01 a      1538     2     7     3    18
 -1.4943974673783425E-01 a      1539     2     7     3    19
  4.3905555926064949E-01 a      1540     2     7     3    20
  2.2410503163136855E-01 a      1541     2     8     3     1
 -5.1610522872877174E-01 a      1542     2     8     3     2
 -2.2743645189568407E-01 a      1543     2     8     3     3
 -2.0020249455916239E-01 a      1544     2     8     3     4
 -1.0465618908563137E+00 a      1545     2     8     3     5
  6.1534638696874433E-01 a      1546     2     8     3     6
 -4.4173696708628285E-01 a      1547     2     8     3     7
 -1.7936696638181049E-01 a      1548     2     8     3     8
  1.9919315126090614E-01 a      1549     2     8     3     9
 -5.7040522892862003E-02 a      1550     2     8     3    10
  2.3343284959211746E-01 a      1551     2     8     3    11
  4.6253926991520283E-01 a      1552     2     8     3    12
 -5.7724538246265215E-02 a      1553     2     8     3    13
  4.0113688675754509E-02 a      1554     2     8     3    14
  5.2609985583074104E-01 a      1555     2     8     3    15
 -1.3568620972912311E+00 a      1556     2     8     3    16
 -5.1916952050238196E-01 a      1557     2     8     3    17
 -2.5074707777068306E-01 a      1558     2     8     3    18
 -5.3030637861825947E-01 a      1559     2     8     3    19
  2.6754330792314190E-01 a      1560     2     8     3    20
 -7.4348537003943393E-01 a      1561     2     9     3     1
  8.2538628465542219E-02 a      1562     2     9     3     2
 -3.2941856491726312E-01 a      1563     2     9     3     3
  9.7069351576407570E-01 a      1564     2     9     3     4
  3.2687347267685779E-01 a      1565     2     9     3     5
 -5.3921531031650427E-01 a      1566     2     9     3     6
 -6.9692101200362400E-01 a      1567     2     9     3     7
 -6.1606400057737154E-01 a      1568     2     9     3     8
  6.2753092813072453E-01 a      1569     2     9     3     9
  8.6985670810015500E-02 a      1570     2     9     3    10
 -1.6789306501833540E-01 a      1571     2     9     3    11
 -7.2174329816749083E-01 a      1572     2     9     3    12
 -4.5474912726781380E-01 a      1573     2     9     3    13
  5.0940124507567919E-01 a      1574     2     9     3    14
 -1.7412167937506627E-02 a      1575     2     9     3    15
  6.0709456221052083E-01 a      1576     2     9     3    16
 -2.8864228527964769E-01 a      1577     2     9     3    17
 -2.6527692155586435E-02 a      1578     2     9     3    18
 -4.5821024363103383E-02 a      1579     2     9     3    19
  6.9180869854585922E-02 a      1580     2     9     3    20
 -2.1334928832613878E-01 a      1581     2    10     3     1
 -1.3967405495931304E-01 a      1582     2    10     3     2
 -5.5319671482755606E-01 a      1583     2    10     3     3
  6.3883102960505977E-01 a      1584     2    10     3     4
  1.1322525769472667E+00 a      1585     2    10     3     5
 -9.0503387289233062E-01 a      1586     2    10     3     6
 -1.2767387051122847E-01 a      1587     2    10     3     7
  4.7472328362624799E-01 a      1588     2    10     3     8
 -1.5379517722039696E-01 a      1589     2    10     3     9
 -9.2632256695159135E-02 a      1590     2    10     3    10
  1.6930429422804500E+00 a      1591     2    10     3    11
 -4.2312980612904860E-01 a      1592     2    10     3    12
  7.6401725189039871E-01 a      1593     2    10     3    13
  9.1757910266870704E-02 a      1594     2    10     3    14
 -4.7349408571915730E-01 a      1595     2    10     3    15
  3.4682815590137461E-01 a      1596     2    10     3    16
 -6.8665758246412301E-01 a      1597     2    10     3    17
 -5.4932624452448142E-01 a      1598     2    10     3    18
  8.3639916525237479E-01 a      1599     2    10     3    19
  8.0569935259378722E-01 a      1600     2    10     3    20
  1.1391473698827761E+00 a      1601     2    11     3     1
  9.4044021438837699E-01 a      1602     2    11     3     2
  2.6441643344650118E-01 a      1603     2    11     3     3
  3.1702236591449151E-01 a      1604     2    11     3     4
 -2.6622646437692531E-02 a      1605     2    11     3     5
 -9.8597192009908985E-01 a      1606     2    11     3     6
 -3.4884002742255954E-01 a      1607     2    11     3     7
  2.2354342361335838E-01 a      1608     2    11     3     8
 -2.1392290874214148E+00 a      1609     2    11     3     9
  5.6374829220641032E-01 a      1610     2    11     3    10
  4.4682764190480884E-01 a      1611     2    11     3    11
  9.7252150700102868E-01 a      1612     2    11     3    12
  3.1368333451098879E-01 a      1613     2    11     3    13
 -1.8018658601370956E-02 a      1614     2    11     3    14
 -9.2495125137140033E-01 a      1615     2    11     3    15
  3.1126621474580152E-01 a      1616     2    11     3    16
 -4.0494965136334926E-01 a      1617     2    11     3    17
 -5.2580291107141630E-01 a      1618     2    11     3    18
  2.0517189268484540E-01 a      1619     2    11     3    19
  4.1558722107545015E-01 a      1620     2    11     3    20
 -3.1641715475187937E-01 a      1621     2    12     3     1
 -1.5854516459485124E-01 a      1622     2    12     3     2
  9.2394130759885798E-02 a      1623     2    12     3     3
  1.4799665484502471E+00 a      1624     2    12     3     4
 -1.4484418004182564E-01 a      1625     2    12     3     5
 -1.3374350684526068E+00 a      1626     2    12     3     6
  2.5633493924707823E-01 a      1627     2    12     3     7
 -6.1350946135373410E-02 a      1628     2    12     3     8
  1.4609407676663200E+00 a      1629     2    12     3     9
 -2.7835996542838859E-01 a      1630     2    12     3    10
