################################################################################
# Neural network connection values (weights and biases).
################################################################################
# Col  Name       Description
################################################################################
# 1    connection Neural network connection value.
# 2    t          Connection type (a = weight, b = bias).
# 3    index      Index enumerating weights.
# 4    l_s        Starting point layer (end point layer for biases).
# 5    n_s        Starting point neuron in starting layer (end point neuron for biases).
# 6    l_e        End point layer.
# 7    n_e        End point neuron in end layer.
################################################################################
#                      1 2         3     4     5     6     7
#             connection t     index   l_s   n_s   l_e   n_e
############################################################
 -6.4964536372734727E-01 a         1     0     1     1     1
  3.7142446807404400E-01 a         2     0     1     1     2
 -1.2789908000753950E-01 a         3     0     1     1     3
  6.5490083794439691E-01 a         4     0     1     1     4
 -4.4892177213965556E-01 a         5     0     1     1     5
 -4.8011619715422083E-01 a         6     0     1     1     6
 -1.3082409770871711E-01 a         7     0     1     1     7
 -3.1242348333139891E-01 a         8     0     1     1     8
  7.2812946000037215E-01 a         9     0     1     1     9
  2.4252686040046340E-01 a        10     0     1     1    10
  5.6143956721315347E-01 a        11     0     1     1    11
 -3.7770632583667840E-01 a        12     0     1     1    12
 -7.2772361580472378E-01 a        13     0     1     1    13
 -1.0572272975543909E-01 a        14     0     1     1    14
  4.9981299276122809E-01 a        15     0     1     1    15
  3.8558159081397486E-01 a        16     0     1     1    16
 -7.8979264042254604E-01 a        17     0     1     1    17
  7.8184433743330906E-01 a        18     0     1     1    18
  7.2701616387921630E-01 a        19     0     1     1    19
  2.2076847685679690E-01 a        20     0     1     1    20
 -3.5640909079497150E-02 a        21     0     2     1     1
 -5.6275143601934564E-04 a        22     0     2     1     2
  8.9221883731069984E-02 a        23     0     2     1     3
 -3.5796221539127054E-01 a        24     0     2     1     4
  1.3459898834936998E-01 a        25     0     2     1     5
  1.8857455445776500E-01 a        26     0     2     1     6
  2.7584246847962479E-01 a        27     0     2     1     7
 -1.8045291930372593E-02 a        28     0     2     1     8
 -3.0265722290584557E-01 a        29     0     2     1     9
 -3.4597139276219741E-01 a        30     0     2     1    10
  2.0338886449819477E-01 a        31     0     2     1    11
  1.3190870292985886E+00 a        32     0     2     1    12
 -3.3368179019724463E-02 a        33     0     2     1    13
  1.6966474199305585E-02 a        34     0     2     1    14
 -2.8189910211589686E-01 a        35     0     2     1    15
 -5.3905379177558166E-02 a        36     0     2     1    16
  2.1154283697535518E-02 a        37     0     2     1    17
  7.3374947720672157E-02 a        38     0     2     1    18
 -2.8313264586158676E-01 a        39     0     2     1    19
 -3.1725012034929959E-02 a        40     0     2     1    20
 -1.2460923477368009E-01 a        41     0     3     1     1
  2.0890436255121989E-01 a        42     0     3     1     2
  1.7140172956364932E-01 a        43     0     3     1     3
  4.6890338282945976E-02 a        44     0     3     1     4
 -8.6766643484991635E-02 a        45     0     3     1     5
  2.5363492207040522E-02 a        46     0     3     1     6
  7.4488436229066299E-02 a        47     0     3     1     7
 -8.5907021473670644E-02 a        48     0     3     1     8
 -1.9269303573274313E-01 a        49     0     3     1     9
  1.3144503420149731E-01 a        50     0     3     1    10
  1.2240589354794763E-01 a        51     0     3     1    11
  1.0693159556106904E-01 a        52     0     3     1    12
 -2.2036659772736100E-01 a        53     0     3     1    13
 -1.5344554838469307E-01 a        54     0     3     1    14
 -2.0191291181212659E-01 a        55     0     3     1    15
  2.3904837023017089E-01 a        56     0     3     1    16
 -5.0962161540162469E-02 a        57     0     3     1    17
 -1.4021804267507423E-02 a        58     0     3     1    18
  1.5121722222991654E-01 a        59     0     3     1    19
  2.1197726031525363E-01 a        60     0     3     1    20
  4.1353660103118752E-03 a        61     0     4     1     1
 -5.2058490509665778E-01 a        62     0     4     1     2
 -1.5603365973548350E-01 a        63     0     4     1     3
  5.5225654853728923E-01 a        64     0     4     1     4
 -9.5207548152755950E-02 a        65     0     4     1     5
  1.3014518407025007E-02 a        66     0     4     1     6
  2.0431876986399464E-01 a        67     0     4     1     7
  4.9468677445109674E-02 a        68     0     4     1     8
  3.2438352976391159E-04 a        69     0     4     1     9
 -5.1626141994156927E-01 a        70     0     4     1    10
 -4.9086822264273344E-01 a        71     0     4     1    11
 -1.5018894981685840E-01 a        72     0     4     1    12
 -1.1301100508589772E-01 a        73     0     4     1    13
 -2.3124653777532447E-02 a        74     0     4     1    14
  2.2249790581063130E-02 a        75     0     4     1    15
 -1.5976716832761848E-01 a        76     0     4     1    16
 -1.1101351600250314E-01 a        77     0     4     1    17
 -4.8683975069805702E-01 a        78     0     4     1    18
 -1.6386854088389560E-01 a        79     0     4     1    19
 -6.6815144934269854E-01 a        80     0     4     1    20
 -2.3712470636429683E-01 a        81     0     5     1     1
  1.6812374668629497E-02 a        82     0     5     1     2
 -1.5450097445132521E-01 a        83     0     5     1     3
  1.4860251699178548E-01 a        84     0     5     1     4
  1.9974147157097022E-01 a        85     0     5     1     5
 -1.6324687938696603E-01 a        86     0     5     1     6
  2.4186266209661686E-01 a        87     0     5     1     7
  2.5984613742751389E-01 a        88     0     5     1     8
 -1.6178481614108733E-01 a        89     0     5     1     9
 -1.8583110848721793E-01 a        90     0     5     1    10
  1.2700821554098431E-02 a        91     0     5     1    11
 -7.6689069712161495E-02 a        92     0     5     1    12
  1.8414173926397792E-01 a        93     0     5     1    13
  2.4761058073030393E-01 a        94     0     5     1    14
 -2.0382110865282263E-01 a        95     0     5     1    15
 -2.2794000662816166E-01 a        96     0     5     1    16
  1.4135969327507811E-01 a        97     0     5     1    17
  6.2494984600259033E-02 a        98     0     5     1    18
 -2.3242984807189693E-01 a        99     0     5     1    19
  1.6598649682358838E-01 a       100     0     5     1    20
  1.3239065051178067E-01 a       101     0     6     1     1
  9.7351075480327773E-02 a       102     0     6     1     2
  2.2402969016634747E-01 a       103     0     6     1     3
  3.6325288562584754E-02 a       104     0     6     1     4
  5.1834054578599693E-02 a       105     0     6     1     5
  1.6297538902308054E-01 a       106     0     6     1     6
  4.4482824658458403E-01 a       107     0     6     1     7
 -7.6898735592242209E-02 a       108     0     6     1     8
 -4.2800500236703606E-02 a       109     0     6     1     9
 -5.7817285773806326E-01 a       110     0     6     1    10
 -1.1766017744148041E-01 a       111     0     6     1    11
 -3.2522373235696431E-03 a       112     0     6     1    12
  2.4515499202806035E-01 a       113     0     6     1    13
  3.6847361146578037E-02 a       114     0     6     1    14
  1.6938551660442794E-01 a       115     0     6     1    15
 -5.0243833474321285E-03 a       116     0     6     1    16
 -9.5673757396362719E-02 a       117     0     6     1    17
  8.1459430572622130E-02 a       118     0     6     1    18
 -3.8007309871543260E-01 a       119     0     6     1    19
  2.2092908668927384E-02 a       120     0     6     1    20
 -2.1111211835432026E-01 a       121     0     7     1     1
 -1.5818303650454693E-01 a       122     0     7     1     2
  4.3379322972608703E-01 a       123     0     7     1     3
  2.3026108756349434E-01 a       124     0     7     1     4
  1.5428207037181510E-01 a       125     0     7     1     5
  2.5370016467243789E-01 a       126     0     7     1     6
  3.6597071750471555E-01 a       127     0     7     1     7
  3.8327417797671973E-02 a       128     0     7     1     8
  6.6118362255014509E-02 a       129     0     7     1     9
 -3.6590632298166825E-01 a       130     0     7     1    10
 -8.9165691002342354E-02 a       131     0     7     1    11
  2.5054989630065527E-01 a       132     0     7     1    12
 -3.5799588639601747E-02 a       133     0     7     1    13
 -3.1474978394698837E-02 a       134     0     7     1    14
  1.8985322946734529E-01 a       135     0     7     1    15
  1.2982510697461140E-02 a       136     0     7     1    16
 -5.5150119309209759E-02 a       137     0     7     1    17
 -2.6769717361680982E-02 a       138     0     7     1    18
 -1.9139091765671976E-01 a       139     0     7     1    19
 -1.7813737144153466E-01 a       140     0     7     1    20
 -5.3775285308563910E-02 a       141     0     8     1     1
 -6.7893858004846930E-02 a       142     0     8     1     2
  2.1981662175562902E-01 a       143     0     8     1     3
 -2.6752029685987746E-02 a       144     0     8     1     4
 -1.4903300253311622E-01 a       145     0     8     1     5
  2.1143114969096019E-01 a       146     0     8     1     6
  7.6030594234275925E-02 a       147     0     8     1     7
  1.2720949518017338E-01 a       148     0     8     1     8
 -2.5147767281928957E-01 a       149     0     8     1     9
 -3.7849105783242465E-01 a       150     0     8     1    10
 -9.4084148120159569E-02 a       151     0     8     1    11
 -1.9166616640114165E-01 a       152     0     8     1    12
  3.7749562523186745E-03 a       153     0     8     1    13
 -2.0429047367350858E-01 a       154     0     8     1    14
  1.8381852475593824E-01 a       155     0     8     1    15
 -2.3464744088212647E-01 a       156     0     8     1    16
 -9.6126141509820989E-02 a       157     0     8     1    17
 -2.1003799310821411E-01 a       158     0     8     1    18
 -1.2176272518383012E-01 a       159     0     8     1    19
 -2.5233762493211565E-01 a       160     0     8     1    20
  3.1537844435542119E-02 a       161     0     9     1     1
  6.2297001387118620E-02 a       162     0     9     1     2
 -4.4606283853980355E-02 a       163     0     9     1     3
  7.2190174231883508E-02 a       164     0     9     1     4
  1.0415489161902752E-01 a       165     0     9     1     5
 -1.9763868145415453E-01 a       166     0     9     1     6
 -2.4763623547738398E-01 a       167     0     9     1     7
  4.6800773274784151E-02 a       168     0     9     1     8
 -2.3758926670742317E-01 a       169     0     9     1     9
 -3.8407577910012508E-01 a       170     0     9     1    10
  1.5801404880868279E-02 a       171     0     9     1    11
  2.6817707230375426E-01 a       172     0     9     1    12
  3.8992963814403064E-01 a       173     0     9     1    13
  1.3885134620213518E-01 a       174     0     9     1    14
  4.2224243785922572E-02 a       175     0     9     1    15
 -1.2774577707233726E-03 a       176     0     9     1    16
  9.2556532596745955E-02 a       177     0     9     1    17
  9.9001587093173873E-02 a       178     0     9     1    18
 -1.3285653607126285E-01 a       179     0     9     1    19
  1.4513933905872498E-01 a       180     0     9     1    20
  9.1684454776132684E-01 a       181     0    10     1     1
  1.9872958619960993E-01 a       182     0    10     1     2
  1.0907609040223014E+00 a       183     0    10     1     3
  4.2115724583121283E-01 a       184     0    10     1     4
  1.2187114692043725E-01 a       185     0    10     1     5
 -2.9640315292257913E-01 a       186     0    10     1     6
 -1.5263592569035586E-01 a       187     0    10     1     7
  5.9642646038644553E-01 a       188     0    10     1     8
  1.2092900270943052E-01 a       189     0    10     1     9
 -3.7850333282011023E-01 a       190     0    10     1    10
  1.2643958730212836E+00 a       191     0    10     1    11
  5.1683670520980118E-01 a       192     0    10     1    12
  1.4884038384035085E+00 a       193     0    10     1    13
 -6.2954526787680809E-01 a       194     0    10     1    14
 -6.3264126025240108E-01 a       195     0    10     1    15
 -2.3322629954028673E-01 a       196     0    10     1    16
 -1.2791444759087320E+00 a       197     0    10     1    17
  5.3008264468114974E-01 a       198     0    10     1    18
 -9.8643667215612540E-01 a       199     0    10     1    19
 -6.0785030214375402E-01 a       200     0    10     1    20
  4.1720028586631164E-01 a       201     0    11     1     1
  2.0880533665859108E-01 a       202     0    11     1     2
  6.5365291240045886E-01 a       203     0    11     1     3
  8.1781423986536839E-01 a       204     0    11     1     4
  5.6167113629015530E-01 a       205     0    11     1     5
 -3.6171710549831960E-02 a       206     0    11     1     6
  7.3399035392498324E-01 a       207     0    11     1     7
  6.9693440962354158E-01 a       208     0    11     1     8
  3.4766951102226917E-01 a       209     0    11     1     9
 -9.2284366715566279E-01 a       210     0    11     1    10
  9.6470515962945191E-01 a       211     0    11     1    11
  8.8856054483753555E-01 a       212     0    11     1    12
 -1.7038319295622639E-01 a       213     0    11     1    13
 -2.8353028091692539E-01 a       214     0    11     1    14
  6.7577713784852167E-01 a       215     0    11     1    15
  7.4568629472134396E-01 a       216     0    11     1    16
  9.6227540553952196E-01 a       217     0    11     1    17
  1.5651960071180699E+00 a       218     0    11     1    18
 -4.4061252765496495E-01 a       219     0    11     1    19
 -1.6769891593151326E-01 a       220     0    11     1    20
 -1.2959536094218413E+00 a       221     0    12     1     1
  6.5593039527131347E-01 a       222     0    12     1     2
 -4.0698070105720469E-01 a       223     0    12     1     3
  5.3020611065865184E-02 a       224     0    12     1     4
 -6.6020863897588655E-01 a       225     0    12     1     5
  6.8769237996449493E-03 a       226     0    12     1     6
 -6.3214726605340776E-01 a       227     0    12     1     7
 -1.0774238142193231E+00 a       228     0    12     1     8
  4.5621761571518543E-01 a       229     0    12     1     9
  7.0522592611573520E-01 a       230     0    12     1    10
 -1.8020100255766364E-01 a       231     0    12     1    11
 -6.4641537725483200E-01 a       232     0    12     1    12
 -6.7112753233573053E-01 a       233     0    12     1    13
 -3.6763106035316302E-02 a       234     0    12     1    14
  1.7600601109498931E-02 a       235     0    12     1    15
 -4.5019474903234413E-01 a       236     0    12     1    16
 -1.3149540163792028E+00 a       237     0    12     1    17
 -3.7195241167346134E-02 a       238     0    12     1    18
  1.4716832230040336E-01 a       239     0    12     1    19
  8.1619111584388970E-01 a       240     0    12     1    20
  1.5288596180630820E-01 a       241     0    13     1     1
  4.9089774840030120E-01 a       242     0    13     1     2
  4.2011745912163462E-01 a       243     0    13     1     3
 -1.5551211200739651E-01 a       244     0    13     1     4
  2.6550098068409805E-01 a       245     0    13     1     5
 -1.2170885712830667E-01 a       246     0    13     1     6
  4.1290183006391512E-01 a       247     0    13     1     7
  3.7775981091475574E-01 a       248     0    13     1     8
  1.3761436046943318E-01 a       249     0    13     1     9
 -4.9831314482587824E-01 a       250     0    13     1    10
  3.6690982883708040E-01 a       251     0    13     1    11
  5.5588568745726730E-01 a       252     0    13     1    12
  6.3993678535026147E-02 a       253     0    13     1    13
 -1.8139659255451765E-01 a       254     0    13     1    14
  2.0810363251228428E-01 a       255     0    13     1    15
  2.0318154906484562E-01 a       256     0    13     1    16
  5.1077825193379056E-01 a       257     0    13     1    17
  1.1831153440252626E-01 a       258     0    13     1    18
  9.6479814828178301E-02 a       259     0    13     1    19
  1.0465394648886251E-02 a       260     0    13     1    20
 -3.8982943586165088E-02 a       261     0    14     1     1
  2.6902841377376276E-02 a       262     0    14     1     2
  4.1067486843509138E-02 a       263     0    14     1     3
  4.5607300414347452E-03 a       264     0    14     1     4
  2.9620274240862443E-01 a       265     0    14     1     5
 -1.9792463715736466E-02 a       266     0    14     1     6
  2.1244532995671883E-01 a       267     0    14     1     7
  1.9271473206182513E-01 a       268     0    14     1     8
  2.8140766688971897E-01 a       269     0    14     1     9
  2.0735991400462023E-03 a       270     0    14     1    10
 -3.5624498795847330E-02 a       271     0    14     1    11
  6.8388833534161875E-01 a       272     0    14     1    12
  2.5735225407559825E-01 a       273     0    14     1    13
 -1.8171579149613917E-01 a       274     0    14     1    14
  2.7430217740999890E-01 a       275     0    14     1    15
  1.0612224381165888E-01 a       276     0    14     1    16
  2.0835137744715296E-01 a       277     0    14     1    17
  3.0408824079253677E-01 a       278     0    14     1    18
 -5.5343298858123807E-02 a       279     0    14     1    19
  2.0851965771154293E-01 a       280     0    14     1    20
 -1.0380964116713165E-02 a       281     0    15     1     1
  1.0145795134685028E-02 a       282     0    15     1     2
  7.9236055994745327E-03 a       283     0    15     1     3
  8.3662088546169799E-02 a       284     0    15     1     4
 -1.1082188563335596E-01 a       285     0    15     1     5
  4.1059207239725462E-02 a       286     0    15     1     6
  5.4976840272098404E-03 a       287     0    15     1     7
  1.5058951456799766E-01 a       288     0    15     1     8
 -4.7311302486097474E-02 a       289     0    15     1     9
 -2.7025755460716455E-01 a       290     0    15     1    10
 -6.9239116383651808E-02 a       291     0    15     1    11
  1.0500292966475848E+00 a       292     0    15     1    12
  4.7447160141414681E-02 a       293     0    15     1    13
 -9.2522589046916445E-04 a       294     0    15     1    14
  1.3768183595330938E-01 a       295     0    15     1    15
  7.0312359628288412E-02 a       296     0    15     1    16
 -2.1685187177646242E-01 a       297     0    15     1    17
  1.2692312006089895E-02 a       298     0    15     1    18
  7.4940823017050481E-03 a       299     0    15     1    19
  1.0401657674609999E-01 a       300     0    15     1    20
 -2.2533238631153110E-01 a       301     0    16     1     1
 -3.2341153134981776E-01 a       302     0    16     1     2
 -8.2179303523517863E-02 a       303     0    16     1     3
  2.0093806593676089E-01 a       304     0    16     1     4
 -9.9905241432602307E-02 a       305     0    16     1     5
  3.3846117658031571E-01 a       306     0    16     1     6
  3.8830000600968240E-01 a       307     0    16     1     7
  4.1285584199127257E-02 a       308     0    16     1     8
 -6.4286689932791506E-04 a       309     0    16     1     9
 -6.7234312978208777E-01 a       310     0    16     1    10
  2.2571680158210239E-01 a       311     0    16     1    11
  2.4389751563940107E-01 a       312     0    16     1    12
  1.2491008718799006E-02 a       313     0    16     1    13
 -2.7732235699902276E-02 a       314     0    16     1    14
  3.7422552269660375E-01 a       315     0    16     1    15
 -2.4487042536573592E-02 a       316     0    16     1    16
 -3.0997025107353654E-01 a       317     0    16     1    17
  2.0562384017811874E-01 a       318     0    16     1    18
 -2.5694611500203629E-01 a       319     0    16     1    19
 -1.9228709163331342E-01 a       320     0    16     1    20
  1.2837328796336442E-01 a       321     0    17     1     1
  1.2547492877852595E-01 a       322     0    17     1     2
  4.1952805286861350E-01 a       323     0    17     1     3
 -8.3930632078143427E-02 a       324     0    17     1     4
  1.5554762507239545E-01 a       325     0    17     1     5
  2.7562803272501513E-01 a       326     0    17     1     6
  7.3022363614837202E-02 a       327     0    17     1     7
  1.3484666279943280E-01 a       328     0    17     1     8
  7.0032196333736779E-02 a       329     0    17     1     9
 -2.1894350390350964E-01 a       330     0    17     1    10
  1.3791237883887386E-01 a       331     0    17     1    11
  4.8097911788117786E-01 a       332     0    17     1    12
  2.6660725453761586E-01 a       333     0    17     1    13
 -5.6392192969119417E-02 a       334     0    17     1    14
 -1.3203275214855658E-02 a       335     0    17     1    15
 -1.0242742473719714E-01 a       336     0    17     1    16
  1.4295662295516418E-01 a       337     0    17     1    17
  1.7283327233629167E-01 a       338     0    17     1    18
 -4.8551921401979226E-01 a       339     0    17     1    19
  3.4932326497323501E-01 a       340     0    17     1    20
  6.9029848219808065E-02 a       341     0    18     1     1
 -5.4541592167442537E-03 a       342     0    18     1     2
 -5.4601653696660618E-02 a       343     0    18     1     3
  2.3837607973719205E-01 a       344     0    18     1     4
 -1.7398188262977995E-01 a       345     0    18     1     5
  2.4407109406518876E-01 a       346     0    18     1     6
  1.0939936304773273E-01 a       347     0    18     1     7
  1.5613301234141397E-01 a       348     0    18     1     8
 -7.2936701880310525E-02 a       349     0    18     1     9
 -2.5013976308302138E-01 a       350     0    18     1    10
 -5.8846237236232241E-03 a       351     0    18     1    11
 -1.5375352343909975E-02 a       352     0    18     1    12
  3.6559932532224906E-02 a       353     0    18     1    13
 -1.2989539337269883E-02 a       354     0    18     1    14
  4.0073512515831668E-02 a       355     0    18     1    15
  1.4464654452075168E-01 a       356     0    18     1    16
  3.9716667275708030E-02 a       357     0    18     1    17
  6.0068011775926716E-02 a       358     0    18     1    18
 -3.5192928020113157E-01 a       359     0    18     1    19
 -5.5976470573425960E-02 a       360     0    18     1    20
 -1.2618442757459514E-01 a       361     0    19     1     1
 -8.1651992768022735E-02 a       362     0    19     1     2
 -3.2928658224711466E-01 a       363     0    19     1     3
  1.9829906539250394E-01 a       364     0    19     1     4
 -3.5109830066880066E-02 a       365     0    19     1     5
  1.9136342543021664E-01 a       366     0    19     1     6
 -1.1430812728261898E-01 a       367     0    19     1     7
  2.0482241502455087E-01 a       368     0    19     1     8
 -3.0233333251703957E-02 a       369     0    19     1     9
 -8.7787660934184691E-02 a       370     0    19     1    10
  4.7967431315399885E-02 a       371     0    19     1    11
  3.0014137305975436E-01 a       372     0    19     1    12
 -4.8566110360366031E-02 a       373     0    19     1    13
 -1.1325820152221587E-01 a       374     0    19     1    14
  3.8570094458934900E-01 a       375     0    19     1    15
  1.8830491117504145E-01 a       376     0    19     1    16
 -1.3149795928555921E-01 a       377     0    19     1    17
  2.2096000640493912E-01 a       378     0    19     1    18
 -4.1594767511126002E-01 a       379     0    19     1    19
  6.9259530052118573E-02 a       380     0    19     1    20
 -6.2651100355958098E-02 a       381     0    20     1     1
  6.9187810640942926E-02 a       382     0    20     1     2
  1.8238841621924751E-01 a       383     0    20     1     3
  2.0518811225475397E-01 a       384     0    20     1     4
 -1.9055950642213890E-01 a       385     0    20     1     5
  5.5331892765075086E-01 a       386     0    20     1     6
  1.2630768449351706E-01 a       387     0    20     1     7
  3.8802995599223553E-02 a       388     0    20     1     8
 -8.5566040005277524E-02 a       389     0    20     1     9
 -3.1689780004246754E-01 a       390     0    20     1    10
  2.7581899296875340E-01 a       391     0    20     1    11
  2.5168470505207413E-01 a       392     0    20     1    12
  6.2506883870232011E-02 a       393     0    20     1    13
  5.7344894329087216E-02 a       394     0    20     1    14
  2.2575949673218021E-01 a       395     0    20     1    15
 -3.3285303384392201E-02 a       396     0    20     1    16
  1.2965913097421869E-01 a       397     0    20     1    17
  1.9466961087092441E-01 a       398     0    20     1    18
 -1.7246138826558166E-01 a       399     0    20     1    19
 -7.0829439657056945E-02 a       400     0    20     1    20
  1.4690164046014082E-02 a       401     0    21     1     1
 -4.4383707807962525E-02 a       402     0    21     1     2
  2.3357600138583684E-01 a       403     0    21     1     3
  1.4392119308301390E-01 a       404     0    21     1     4
  2.5780861705369218E-01 a       405     0    21     1     5
  2.3116652943669364E-01 a       406     0    21     1     6
  3.2899898517286408E-01 a       407     0    21     1     7
  2.2756404903829350E-01 a       408     0    21     1     8
 -1.5601841297501134E-01 a       409     0    21     1     9
 -5.7370748874289379E-01 a       410     0    21     1    10
  1.7410087507565458E-01 a       411     0    21     1    11
 -9.3693059732589595E-02 a       412     0    21     1    12
  1.2510961603711726E-01 a       413     0    21     1    13
 -2.4357573755413447E-02 a       414     0    21     1    14
 -5.1414338456539609E-02 a       415     0    21     1    15
 -2.5970608363682612E-01 a       416     0    21     1    16
  1.9772455749887785E-01 a       417     0    21     1    17
  2.2180976340740857E-01 a       418     0    21     1    18
 -4.1429377913841575E-02 a       419     0    21     1    19
 -4.2527706654123520E-01 a       420     0    21     1    20
 -3.1811620666503410E-01 a       421     0    22     1     1
 -2.5131388968016483E-01 a       422     0    22     1     2
 -1.1368000412494589E-01 a       423     0    22     1     3
 -9.8336914804972780E-02 a       424     0    22     1     4
 -1.2917422496256112E-01 a       425     0    22     1     5
  4.8573558121615745E-01 a       426     0    22     1     6
 -7.8529932468872310E-01 a       427     0    22     1     7
 -1.0242586835033313E-01 a       428     0    22     1     8
  3.3920407222805188E-01 a       429     0    22     1     9
  3.5736288333321248E-01 a       430     0    22     1    10
 -4.4826281788376603E-02 a       431     0    22     1    11
 -1.2532653187314682E-01 a       432     0    22     1    12
  9.8788498690136350E-01 a       433     0    22     1    13
  4.7585341505602452E-02 a       434     0    22     1    14
 -3.3970589001674473E-01 a       435     0    22     1    15
  2.6493880724397190E-01 a       436     0    22     1    16
 -5.4768776309076050E-01 a       437     0    22     1    17
 -9.0866508531974810E-01 a       438     0    22     1    18
 -5.7398415065121167E-01 a       439     0    22     1    19
  3.3782543801052195E-01 a       440     0    22     1    20
  1.9675043962530536E+00 a       441     0    23     1     1
  4.9382477984368005E-02 a       442     0    23     1     2
  8.4430837664946090E-01 a       443     0    23     1     3
  9.4616504704162452E-01 a       444     0    23     1     4
  7.0419947675715511E-01 a       445     0    23     1     5
 -3.4064168161592323E-01 a       446     0    23     1     6
 -1.6827168124743408E+00 a       447     0    23     1     7
  1.9849435914500508E+00 a       448     0    23     1     8
 -4.3757932256769683E-01 a       449     0    23     1     9
 -1.3889759256298120E+00 a       450     0    23     1    10
  4.2696838942902204E-01 a       451     0    23     1    11
 -1.6527670330424815E-01 a       452     0    23     1    12
  2.0247853563315962E-01 a       453     0    23     1    13
 -4.0146590670057281E-01 a       454     0    23     1    14
  9.8155211403050113E-01 a       455     0    23     1    15
  5.3907057649345658E-01 a       456     0    23     1    16
  1.9884161067477529E-01 a       457     0    23     1    17
  4.6276957931355049E-02 a       458     0    23     1    18
  4.7685995181238746E-03 a       459     0    23     1    19
 -2.0374870641503914E-01 a       460     0    23     1    20
 -3.1855938831927844E-01 a       461     0    24     1     1
  1.6512246690969704E-01 a       462     0    24     1     2
 -6.6659320258506105E-01 a       463     0    24     1     3
 -1.7284596368390079E-01 a       464     0    24     1     4
 -6.8479428767414297E-01 a       465     0    24     1     5
 -4.4212071893095317E-01 a       466     0    24     1     6
 -4.5210034277158895E-01 a       467     0    24     1     7
 -7.7141905683939771E-01 a       468     0    24     1     8
 -7.1770135332445542E-02 a       469     0    24     1     9
 -1.0247502480516121E-01 a       470     0    24     1    10
 -4.8828024887537741E-01 a       471     0    24     1    11
 -1.7554961004550662E-01 a       472     0    24     1    12
 -1.5407382192930760E-01 a       473     0    24     1    13
 -1.3266283502743595E-01 a       474     0    24     1    14
  9.5106345358804661E-02 a       475     0    24     1    15
 -9.7365628990295883E-01 a       476     0    24     1    16
 -7.2201003238258976E-01 a       477     0    24     1    17
 -8.2247889456247933E-02 a       478     0    24     1    18
  5.6016764655961693E-01 a       479     0    24     1    19
 -7.8796761151018258E-01 a       480     0    24     1    20
 -6.3793690254340979E-02 a       481     0    25     1     1
 -5.4388176862806903E-01 a       482     0    25     1     2
 -9.8989303652988921E-03 a       483     0    25     1     3
  1.7500429345951501E-01 a       484     0    25     1     4
  1.6049287414919647E-01 a       485     0    25     1     5
 -2.8812024182753693E-01 a       486     0    25     1     6
  3.7939542196120224E-01 a       487     0    25     1     7
  7.9647440932589658E-03 a       488     0    25     1     8
 -1.7248375694745155E-01 a       489     0    25     1     9
  3.8116388218067766E-02 a       490     0    25     1    10
  1.5636223420378886E-01 a       491     0    25     1    11
  4.0389205426053115E-01 a       492     0    25     1    12
  7.7902288834380828E-02 a       493     0    25     1    13
  4.6981024786779402E-02 a       494     0    25     1    14
 -3.4793040958938100E-02 a       495     0    25     1    15
 -1.1255332612496864E-01 a       496     0    25     1    16
  3.9791660130875095E-01 a       497     0    25     1    17
 -3.5924724186193180E-01 a       498     0    25     1    18
 -3.9450457293453062E-01 a       499     0    25     1    19
 -3.9910344013391430E-01 a       500     0    25     1    20
  2.4544555626555856E-01 a       501     0    26     1     1
  2.5499328457869613E-01 a       502     0    26     1     2
  2.6998946375020025E-02 a       503     0    26     1     3
 -1.8462746961098994E-01 a       504     0    26     1     4
  3.7891474553481996E-01 a       505     0    26     1     5
  1.5392062493264852E-03 a       506     0    26     1     6
  1.8317719082036391E-01 a       507     0    26     1     7
  2.8652150744211818E-01 a       508     0    26     1     8
 -9.8699984203938898E-02 a       509     0    26     1     9
 -2.6804979226020964E-01 a       510     0    26     1    10
 -2.7753429356638437E-02 a       511     0    26     1    11
  3.5475134631529398E-01 a       512     0    26     1    12
  2.0481035152171861E-01 a       513     0    26     1    13
 -6.1155258727580777E-02 a       514     0    26     1    14
  5.4914005002436615E-02 a       515     0    26     1    15
  3.4064523439327449E-02 a       516     0    26     1    16
  3.8960065108954939E-01 a       517     0    26     1    17
 -4.9489798650122485E-02 a       518     0    26     1    18
 -8.4450854111866258E-02 a       519     0    26     1    19
 -1.4474890094737286E-01 a       520     0    26     1    20
 -2.5364435301754051E-01 a       521     0    27     1     1
 -3.3985597331848544E-01 a       522     0    27     1     2
 -1.4476906700378933E-01 a       523     0    27     1     3
  1.0477298401566787E-01 a       524     0    27     1     4
 -8.8940849235817646E-02 a       525     0    27     1     5
  1.4611519501153367E-01 a       526     0    27     1     6
 -2.2074675704359148E-01 a       527     0    27     1     7
 -1.7400801855547915E-01 a       528     0    27     1     8
 -1.7701392192604373E-02 a       529     0    27     1     9
  3.1964646857069534E-01 a       530     0    27     1    10
 -1.1415553544759244E-01 a       531     0    27     1    11
  1.3409881865647058E-01 a       532     0    27     1    12
 -2.9060049900027845E-02 a       533     0    27     1    13
  7.8289390426418609E-02 a       534     0    27     1    14
 -9.2427298095940247E-02 a       535     0    27     1    15
 -1.3246199776189543E-01 a       536     0    27     1    16
 -2.4739388441349955E-01 a       537     0    27     1    17
 -1.4762911185653357E-01 a       538     0    27     1    18
 -2.9019592072226913E-01 a       539     0    27     1    19
 -9.0554556619810659E-03 a       540     0    27     1    20
 -3.1852530884673498E-02 a       541     0    28     1     1
 -2.1685438374558555E-01 a       542     0    28     1     2
 -1.9906014287077420E-01 a       543     0    28     1     3
  9.1108449745028117E-02 a       544     0    28     1     4
 -3.0058333858625003E-01 a       545     0    28     1     5
  1.6315141876477122E-02 a       546     0    28     1     6
 -1.7426235018209454E-01 a       547     0    28     1     7
  2.6122071234337404E-02 a       548     0    28     1     8
 -1.8134893614384059E-01 a       549     0    28     1     9
  1.2800392676876826E-01 a       550     0    28     1    10
 -8.6178470879891930E-02 a       551     0    28     1    11
  4.1313771085028805E-01 a       552     0    28     1    12
 -8.8261170815886233E-02 a       553     0    28     1    13
  1.1415233829112401E-01 a       554     0    28     1    14
 -2.7474498914912632E-01 a       555     0    28     1    15
  3.6903292276147200E-02 a       556     0    28     1    16
 -3.2000700599410653E-01 a       557     0    28     1    17
 -1.3334594483383444E-01 a       558     0    28     1    18
 -9.7597587961053792E-02 a       559     0    28     1    19
 -9.4460320323137351E-02 a       560     0    28     1    20
  1.7780293292020113E-01 a       561     0    29     1     1
  8.2294486733554897E-02 a       562     0    29     1     2
  1.8084847753410843E-01 a       563     0    29     1     3
 -1.3530140989283293E-01 a       564     0    29     1     4
  2.7635595376142830E-01 a       565     0    29     1     5
  1.6372741418919187E-01 a       566     0    29     1     6
  1.0971786198449444E-01 a       567     0    29     1     7
 -7.3307325073856996E-02 a       568     0    29     1     8
 -1.7565054196985933E-01 a       569     0    29     1     9
 -4.3942794317466377E-01 a       570     0    29     1    10
  2.3313520308812279E-02 a       571     0    29     1    11
  5.1325954599441581E-01 a       572     0    29     1    12
  2.6946800161271649E-02 a       573     0    29     1    13
 -1.1835235336133408E-01 a       574     0    29     1    14
 -1.2097931820992447E-01 a       575     0    29     1    15
  1.1291447791040869E-01 a       576     0    29     1    16
  2.3755145348482723E-01 a       577     0    29     1    17
  9.4320619052529711E-02 a       578     0    29     1    18
 -1.7078109205000958E-01 a       579     0    29     1    19
 -8.0564773580793867E-03 a       580     0    29     1    20
 -8.2907234309774952E-02 a       581     0    30     1     1
 -1.7035057109724153E-01 a       582     0    30     1     2
 -1.3156787783309534E-01 a       583     0    30     1     3
  2.7032232408808210E-01 a       584     0    30     1     4
  1.5005345485772273E-02 a       585     0    30     1     5
  2.6006402308306814E-01 a       586     0    30     1     6
  2.8957217014139275E-01 a       587     0    30     1     7
  6.4945578270399096E-02 a       588     0    30     1     8
  1.0891875553378698E-01 a       589     0    30     1     9
 -4.6723757782091141E-01 a       590     0    30     1    10
  7.4889451212478170E-02 a       591     0    30     1    11
  1.9004623649401595E-01 a       592     0    30     1    12
 -2.3867029304333515E-02 a       593     0    30     1    13
  5.5271456068956483E-02 a       594     0    30     1    14
  3.9807840954288148E-01 a       595     0    30     1    15
  4.4730132179627580E-01 a       596     0    30     1    16
 -2.3535997195911681E-01 a       597     0    30     1    17
  6.1117277272736718E-03 a       598     0    30     1    18
 -1.7984473699385597E-01 a       599     0    30     1    19
 -2.4779023122574692E-01 a       600     0    30     1    20
 -8.4620918006922910E-02 a       601     0    31     1     1
 -2.3652118522792487E-01 a       602     0    31     1     2
 -2.8476243257171457E-01 a       603     0    31     1     3
  1.2792994585315823E-01 a       604     0    31     1     4
 -9.2698425999393944E-02 a       605     0    31     1     5
 -2.7387693243523373E-02 a       606     0    31     1     6
  2.4829118333378400E-01 a       607     0    31     1     7
 -1.0577016294075398E-01 a       608     0    31     1     8
 -3.2598378669903033E-02 a       609     0    31     1     9
 -6.0429167064896117E-01 a       610     0    31     1    10
 -4.7309050176354887E-02 a       611     0    31     1    11
  1.8305651605496140E-01 a       612     0    31     1    12
 -1.6044078472361453E-01 a       613     0    31     1    13
 -3.7453795749412782E-03 a       614     0    31     1    14
  3.5479896136618050E-01 a       615     0    31     1    15
  1.6157374828528994E-02 a       616     0    31     1    16
  4.5185372103801309E-02 a       617     0    31     1    17
  3.5831642846611826E-02 a       618     0    31     1    18
 -1.4548806972174685E-01 a       619     0    31     1    19
 -9.1055064627631147E-02 a       620     0    31     1    20
  2.6400936681329290E-01 a       621     0    32     1     1
 -1.2311232101801123E-01 a       622     0    32     1     2
  5.0271262226695024E-03 a       623     0    32     1     3
 -8.9493669705694445E-02 a       624     0    32     1     4
 -5.8224471596082940E-02 a       625     0    32     1     5
  9.3159493134986476E-02 a       626     0    32     1     6
  2.9024331048618141E-01 a       627     0    32     1     7
 -2.4681835944116132E-01 a       628     0    32     1     8
 -1.1017694838047573E-01 a       629     0    32     1     9
 -8.1897322572992437E-01 a       630     0    32     1    10
  9.2138532829298195E-03 a       631     0    32     1    11
  1.1592946624294978E-01 a       632     0    32     1    12
  1.4783111048277262E-01 a       633     0    32     1    13
  1.3729832811175582E-01 a       634     0    32     1    14
  1.3551598113318106E-01 a       635     0    32     1    15
 -1.1178556553920894E-01 a       636     0    32     1    16
  2.1641159436988028E-01 a       637     0    32     1    17
  1.5140290145583860E-01 a       638     0    32     1    18
 -1.6423376489173327E-01 a       639     0    32     1    19
  3.8437671588901996E-02 a       640     0    32     1    20
  3.7216876480024384E-02 a       641     0    33     1     1
 -3.5935329968987042E-03 a       642     0    33     1     2
  1.3064950802161274E-01 a       643     0    33     1     3
  2.5820688921629886E-01 a       644     0    33     1     4
  1.9275288101424154E-01 a       645     0    33     1     5
 -5.7994563890345786E-03 a       646     0    33     1     6
  2.8670989800559593E-01 a       647     0    33     1     7
  1.6363476947583569E-01 a       648     0    33     1     8
  6.7623906873980247E-02 a       649     0    33     1     9
 -4.8187271727064479E-01 a       650     0    33     1    10
 -2.4716502446454286E-01 a       651     0    33     1    11
 -6.3660608364238841E-02 a       652     0    33     1    12
 -3.9715652132696327E-03 a       653     0    33     1    13
  1.3158474980193929E-01 a       654     0    33     1    14
  1.5244375435301927E-01 a       655     0    33     1    15
  1.9744318154077120E-01 a       656     0    33     1    16
  3.2746491191819233E-01 a       657     0    33     1    17
  1.3031494559077303E-01 a       658     0    33     1    18
 -1.6321079330319552E-01 a       659     0    33     1    19
  1.7247792117588340E-01 a       660     0    33     1    20
 -1.3408104902695639E-02 a       661     0    34     1     1
 -5.5286466704853410E-01 a       662     0    34     1     2
 -2.1314972719315739E-01 a       663     0    34     1     3
 -1.3087741390180383E-02 a       664     0    34     1     4
 -1.8793188640788422E-01 a       665     0    34     1     5
  2.1355724039527632E-01 a       666     0    34     1     6
  2.4470362230490514E-01 a       667     0    34     1     7
  2.2120842786036726E-01 a       668     0    34     1     8
 -1.9860069117997553E-01 a       669     0    34     1     9
 -1.0780870533643126E-01 a       670     0    34     1    10
  1.4661661983890167E-01 a       671     0    34     1    11
  2.6092134066499900E-01 a       672     0    34     1    12
  4.1202889675796862E-02 a       673     0    34     1    13
 -3.9862334591131997E-02 a       674     0    34     1    14
  4.3683636928247366E-01 a       675     0    34     1    15
  2.1816822672049908E-02 a       676     0    34     1    16
 -3.0662225388932274E-01 a       677     0    34     1    17
  3.1342182778709904E-01 a       678     0    34     1    18
 -2.1971627332345989E-01 a       679     0    34     1    19
 -8.9824024998496538E-02 a       680     0    34     1    20
 -3.7578705037981980E-01 a       681     0    35     1     1
  1.3530798194287116E-01 a       682     0    35     1     2
  4.2887391799769514E-01 a       683     0    35     1     3
  7.5298702145627350E-01 a       684     0    35     1     4
  9.8172707907893855E-02 a       685     0    35     1     5
  9.8573391815021705E-01 a       686     0    35     1     6
  9.6212553180772098E-02 a       687     0    35     1     7
  3.5505900593982320E-01 a       688     0    35     1     8
  3.1839974639000296E-01 a       689     0    35     1     9
 -5.2965543382386271E-01 a       690     0    35     1    10
  8.7035250888766846E-02 a       691     0    35     1    11
 -2.3274172858061623E-01 a       692     0    35     1    12
  9.3683874212726947E-01 a       693     0    35     1    13
 -7.1795258951198759E-02 a       694     0    35     1    14
  4.1412201542798233E-01 a       695     0    35     1    15
 -4.0622944097768743E-01 a       696     0    35     1    16
  1.7896516569739662E-01 a       697     0    35     1    17
  5.3762349983464675E-01 a       698     0    35     1    18
  7.1531687495782495E-02 a       699     0    35     1    19
  3.8781403489678440E-01 a       700     0    35     1    20
  3.4818111171353550E-01 a       701     0    36     1     1
 -3.8026107951505100E-01 a       702     0    36     1     2
 -1.6717341096422703E-01 a       703     0    36     1     3
 -5.8141376193372418E-01 a       704     0    36     1     4
  1.5906356301418706E-01 a       705     0    36     1     5
 -7.1100569850582572E-03 a       706     0    36     1     6
 -2.0263551566243110E-01 a       707     0    36     1     7
  3.6362801240746939E-01 a       708     0    36     1     8
 -5.6424297184561312E-01 a       709     0    36     1     9
  1.7006429129061165E-01 a       710     0    36     1    10
 -3.5506492451543875E-01 a       711     0    36     1    11
 -1.6111808400852162E-01 a       712     0    36     1    12
  3.7452287283941893E-01 a       713     0    36     1    13
 -3.3597632489787303E-02 a       714     0    36     1    14
 -4.5443319482570516E-01 a       715     0    36     1    15
 -6.8442769597824180E-02 a       716     0    36     1    16
  6.6056065754297844E-01 a       717     0    36     1    17
 -8.3251016398681799E-01 a       718     0    36     1    18
  8.3827070002510419E-03 a       719     0    36     1    19
 -1.4182913131002420E-01 a       720     0    36     1    20
  8.5246306060539538E+00 a       721     0    37     1     1
 -1.1315200935540593E+01 a       722     0    37     1     2
 -5.7165379708646764E+00 a       723     0    37     1     3
 -1.5483273536581180E+01 a       724     0    37     1     4
  3.0684998061202227E+00 a       725     0    37     1     5
  3.5461262946385856E+00 a       726     0    37     1     6
 -2.2068465959780683E+00 a       727     0    37     1     7
  3.2657158929509655E-01 a       728     0    37     1     8
 -1.1096590068228938E+01 a       729     0    37     1     9
  2.3980130826022807E+00 a       730     0    37     1    10
 -1.0389293782816296E+01 a       731     0    37     1    11
 -8.1161616127452249E-02 a       732     0    37     1    12
  1.0325121535623172E+01 a       733     0    37     1    13
  5.8808929650064528E+00 a       734     0    37     1    14
 -1.0211650330089702E+01 a       735     0    37     1    15
 -3.0149471989641392E+00 a       736     0    37     1    16
  1.1917639964798511E+01 a       737     0    37     1    17
 -2.0732472805873471E+01 a       738     0    37     1    18
 -5.8163522354064225E+00 a       739     0    37     1    19
 -6.3052923799033902E+00 a       740     0    37     1    20
  2.4771148630728032E-01 a       741     0    38     1     1
 -3.1392141573171028E-01 a       742     0    38     1     2
  2.2463551527974490E-01 a       743     0    38     1     3
  9.2763085146890925E-02 a       744     0    38     1     4
 -1.7595670673518451E-01 a       745     0    38     1     5
  3.8230809164839297E-01 a       746     0    38     1     6
  1.7923161424003721E-02 a       747     0    38     1     7
  1.9889037134373891E-01 a       748     0    38     1     8
 -2.8405655563978072E-01 a       749     0    38     1     9
 -1.0099106846448794E-01 a       750     0    38     1    10
 -3.1039990834690101E-01 a       751     0    38     1    11
 -2.1826859793994624E-01 a       752     0    38     1    12
  3.7633532134721659E-01 a       753     0    38     1    13
 -1.4070063517507711E-01 a       754     0    38     1    14
 -1.8710555342430768E-01 a       755     0    38     1    15
 -1.3419839862353064E-01 a       756     0    38     1    16
  3.0111552259506923E-02 a       757     0    38     1    17
 -3.2759179245694953E-01 a       758     0    38     1    18
 -3.8842840522009969E-01 a       759     0    38     1    19
 -3.2402909042530303E-01 a       760     0    38     1    20
  2.8169843666804789E-01 a       761     0    39     1     1
 -3.9223063964143806E-01 a       762     0    39     1     2
  1.2963210846799786E-01 a       763     0    39     1     3
 -3.3323368349601307E-01 a       764     0    39     1     4
  1.6619551636499710E-01 a       765     0    39     1     5
  1.3534089191382279E-01 a       766     0    39     1     6
 -7.1937164739097739E-02 a       767     0    39     1     7
  1.8044708136969859E-01 a       768     0    39     1     8
  1.2673540952585935E-01 a       769     0    39     1     9
  2.6528420543728334E-02 a       770     0    39     1    10
 -8.1283001185416745E-02 a       771     0    39     1    11
 -2.0513350737172931E-01 a       772     0    39     1    12
 -7.8053120199957152E-02 a       773     0    39     1    13
 -1.1676883872360365E-01 a       774     0    39     1    14
 -1.0514451869197573E-01 a       775     0    39     1    15
  1.4388506372158424E-01 a       776     0    39     1    16
 -1.0108526048541354E-01 a       777     0    39     1    17
 -2.0774446353396270E-01 a       778     0    39     1    18
 -2.6337496415040401E-01 a       779     0    39     1    19
 -1.4475195293619281E-01 a       780     0    39     1    20
  1.4650367384548790E+00 a       781     0    40     1     1
 -2.1604109426304041E+00 a       782     0    40     1     2
 -1.2193407612409097E+00 a       783     0    40     1     3
 -2.9353524455441873E+00 a       784     0    40     1     4
  3.8301232744152997E-01 a       785     0    40     1     5
  8.0905294767792080E-01 a       786     0    40     1     6
 -1.9701848205606812E-01 a       787     0    40     1     7
  1.0052510366295030E-02 a       788     0    40     1     8
 -2.3292896318683716E+00 a       789     0    40     1     9
  1.8050949629672280E-01 a       790     0    40     1    10
 -2.2644131443130977E+00 a       791     0    40     1    11
 -1.8499562720785639E-01 a       792     0    40     1    12
  2.4527156427873904E+00 a       793     0    40     1    13
  1.0183006023626378E+00 a       794     0    40     1    14
 -1.8233169002517482E+00 a       795     0    40     1    15
 -4.0660338378598171E-01 a       796     0    40     1    16
  2.5074724140090647E+00 a       797     0    40     1    17
 -4.0706603305690292E+00 a       798     0    40     1    18
 -1.3303691205140886E+00 a       799     0    40     1    19
 -1.1355250718648837E+00 a       800     0    40     1    20
  9.0099092129771186E-01 a       801     0    41     1     1
 -9.2163786834906514E-01 a       802     0    41     1     2
 -3.5155734515214720E-01 a       803     0    41     1     3
 -8.0282520756731557E-01 a       804     0    41     1     4
  3.7700775053175845E-01 a       805     0    41     1     5
  2.5843311286936282E-01 a       806     0    41     1     6
 -6.5253057625168948E-02 a       807     0    41     1     7
  3.0467349285477313E-01 a       808     0    41     1     8
 -1.4059281338107474E+00 a       809     0    41     1     9
  2.6059350494505107E-01 a       810     0    41     1    10
 -9.9595630862417805E-01 a       811     0    41     1    11
 -1.8691601373872443E-01 a       812     0    41     1    12
  1.7107138585911503E+00 a       813     0    41     1    13
  7.4146409579370387E-01 a       814     0    41     1    14
 -1.1600421657924678E+00 a       815     0    41     1    15
 -3.1893098727590280E-01 a       816     0    41     1    16
  4.6089364153449647E-01 a       817     0    41     1    17
 -1.8188159092786393E+00 a       818     0    41     1    18
 -5.0399929528083098E-01 a       819     0    41     1    19
 -7.6286459567761344E-01 a       820     0    41     1    20
  1.8426348404262397E-01 a       821     0    42     1     1
 -5.8800901142539413E-02 a       822     0    42     1     2
 -6.0701493887294462E-02 a       823     0    42     1     3
 -1.8200771106134429E-02 a       824     0    42     1     4
  1.9675603255757554E-01 a       825     0    42     1     5
 -1.7498142522925311E-01 a       826     0    42     1     6
  4.6556049315670360E-02 a       827     0    42     1     7
  1.0879928576031301E-02 a       828     0    42     1     8
 -2.9601928500941687E-02 a       829     0    42     1     9
 -2.1849978933819397E-01 a       830     0    42     1    10
  1.9891707081841618E-02 a       831     0    42     1    11
  1.8787120458255038E-01 a       832     0    42     1    12
  2.6234960842254895E-01 a       833     0    42     1    13
 -1.4476043787508358E-01 a       834     0    42     1    14
 -2.3501376022924420E-01 a       835     0    42     1    15
  2.2355380735809993E-01 a       836     0    42     1    16
  2.3076719284827571E-01 a       837     0    42     1    17
  8.7571192508839962E-02 a       838     0    42     1    18
  4.0283452599636393E-02 a       839     0    42     1    19
  1.8699600312821345E-02 a       840     0    42     1    20
 -1.0075209157582780E-01 a       841     0    43     1     1
 -1.9625468065590809E-01 a       842     0    43     1     2
 -1.7595127453305898E-01 a       843     0    43     1     3
 -7.6306952579153167E-02 a       844     0    43     1     4
  5.4839831268649150E-02 a       845     0    43     1     5
  2.5770744481742414E-01 a       846     0    43     1     6
 -2.6215110551874943E-01 a       847     0    43     1     7
  5.5310382443952991E-02 a       848     0    43     1     8
  2.0058865904257314E-01 a       849     0    43     1     9
  2.1733917819572446E-01 a       850     0    43     1    10
 -2.4159044019361531E-01 a       851     0    43     1    11
  8.7934054348054833E-02 a       852     0    43     1    12
  1.1757268875707026E-01 a       853     0    43     1    13
  1.0745107054234902E-01 a       854     0    43     1    14
 -1.2704905060057090E-01 a       855     0    43     1    15
 -1.3773359026691098E-01 a       856     0    43     1    16
 -2.7137935918963263E-01 a       857     0    43     1    17
 -2.6604855094854774E-01 a       858     0    43     1    18
 -2.2983420868698282E-01 a       859     0    43     1    19
  2.6322666814784795E-01 a       860     0    43     1    20
  4.4207646086382718E-01 a       861     0    44     1     1
 -5.9647832632565934E-01 a       862     0    44     1     2
 -1.3696205501177763E-01 a       863     0    44     1     3
 -6.7962609410302410E-01 a       864     0    44     1     4
  3.0485106526833045E-01 a       865     0    44     1     5
  1.1841045668326967E-01 a       866     0    44     1     6
 -1.5642990552013930E-01 a       867     0    44     1     7
  1.1175920211909721E-01 a       868     0    44     1     8
 -8.4200312961962620E-01 a       869     0    44     1     9
  1.1554277522952795E-01 a       870     0    44     1    10
 -8.4087894580321032E-01 a       871     0    44     1    11
  1.9909833590230050E-01 a       872     0    44     1    12
  9.0088983359171260E-01 a       873     0    44     1    13
  4.6718158075928545E-01 a       874     0    44     1    14
 -5.0462196251271596E-01 a       875     0    44     1    15
 -3.6231611405490005E-01 a       876     0    44     1    16
  4.5609807433366667E-01 a       877     0    44     1    17
 -1.0200293820944082E+00 a       878     0    44     1    18
 -4.5630685465668824E-01 a       879     0    44     1    19
 -5.7971475408840378E-01 a       880     0    44     1    20
  3.0316173705432242E-02 a       881     0    45     1     1
  2.2796725383475921E-01 a       882     0    45     1     2
  4.2243387414135532E-02 a       883     0    45     1     3
  1.6832717311619771E-01 a       884     0    45     1     4
 -6.5094299582654266E-02 a       885     0    45     1     5
 -2.6201347187685636E-01 a       886     0    45     1     6
  6.0968237466618403E-03 a       887     0    45     1     7
 -2.3392957727415087E-01 a       888     0    45     1     8
 -1.2525608317522995E-02 a       889     0    45     1     9
 -2.3663910782748762E-01 a       890     0    45     1    10
  8.5517984764136731E-02 a       891     0    45     1    11
 -2.5789678604276511E-01 a       892     0    45     1    12
 -2.1788979935383648E-01 a       893     0    45     1    13
  2.5408931827653591E-01 a       894     0    45     1    14
  1.4252055683728054E-01 a       895     0    45     1    15
 -1.2809786483632180E-01 a       896     0    45     1    16
  1.8567348487111297E-02 a       897     0    45     1    17
  6.5617478994741060E-02 a       898     0    45     1    18
  1.7624283649296685E-01 a       899     0    45     1    19
 -2.7283504700257023E-02 a       900     0    45     1    20
 -1.7072544897531680E-01 a       901     0    46     1     1
  6.1987315262893576E-02 a       902     0    46     1     2
 -1.2218012415550232E-01 a       903     0    46     1     3
  1.8509218832987695E-01 a       904     0    46     1     4
 -1.6014456092474685E-01 a       905     0    46     1     5
  1.2980200542848261E-01 a       906     0    46     1     6
  1.6865606117750709E-01 a       907     0    46     1     7
 -1.9660473847682655E-01 a       908     0    46     1     8
  9.6165301787015656E-02 a       909     0    46     1     9
  2.6093111946518471E-01 a       910     0    46     1    10
  4.5854980308414214E-02 a       911     0    46     1    11
  2.6152026967368455E-02 a       912     0    46     1    12
  2.1522429394244780E-01 a       913     0    46     1    13
  2.3944010442617658E-01 a       914     0    46     1    14
  4.4201347239998086E-02 a       915     0    46     1    15
  1.7905121631316306E-01 a       916     0    46     1    16
 -3.8866261983153308E-02 a       917     0    46     1    17
  6.4885492162090011E-02 a       918     0    46     1    18
  2.2053496063589251E-01 a       919     0    46     1    19
 -1.4841646241736009E-01 a       920     0    46     1    20
 -8.0478822170177822E-02 a       921     0    47     1     1
 -1.1178324317301717E-01 a       922     0    47     1     2
 -1.3245280723930780E-01 a       923     0    47     1     3
  1.0629036622337756E-01 a       924     0    47     1     4
 -1.7013694020694523E-01 a       925     0    47     1     5
 -2.5867243997735379E-02 a       926     0    47     1     6
 -1.5597753603823516E-01 a       927     0    47     1     7
  1.8684482545039821E-01 a       928     0    47     1     8
 -1.1837876084371479E-02 a       929     0    47     1     9
  2.1373710045973768E-01 a       930     0    47     1    10
  1.7608626264339827E-01 a       931     0    47     1    11
 -2.0074893044963232E-01 a       932     0    47     1    12
  1.8289292013099068E-01 a       933     0    47     1    13
 -1.0200550554281189E-01 a       934     0    47     1    14
 -2.0675248985653991E-01 a       935     0    47     1    15
  4.2655397964764911E-02 a       936     0    47     1    16
  1.5037697321901675E-01 a       937     0    47     1    17
 -1.8069985057281168E-01 a       938     0    47     1    18
 -2.6147007923005539E-01 a       939     0    47     1    19
  1.9753393276088330E-01 a       940     0    47     1    20
  7.4325825869601500E-02 a       941     0    48     1     1
 -2.0793107931679064E-01 a       942     0    48     1     2
 -1.4601760935017397E-01 a       943     0    48     1     3
  4.2640775196785751E-03 a       944     0    48     1     4
  8.3618174414457042E-02 a       945     0    48     1     5
  2.2956523374381577E-02 a       946     0    48     1     6
 -2.1474525396273297E-01 a       947     0    48     1     7
 -7.5947607081716217E-02 a       948     0    48     1     8
 -3.9171437427413490E-02 a       949     0    48     1     9
 -2.2079688386265614E-01 a       950     0    48     1    10
 -1.2093293109401222E-01 a       951     0    48     1    11
 -1.3210984237939294E-01 a       952     0    48     1    12
  5.4325234249133450E-02 a       953     0    48     1    13
  8.1293390443888308E-02 a       954     0    48     1    14
 -1.4888892583786005E-02 a       955     0    48     1    15
 -1.7521087439927091E-01 a       956     0    48     1    16
 -2.1731331825885516E-01 a       957     0    48     1    17
  2.2738569827581367E-01 a       958     0    48     1    18
  1.8162324385069128E-01 a       959     0    48     1    19
 -1.9006578965322274E-01 a       960     0    48     1    20
  4.5594278377982848E-02 a       961     0    49     1     1
  2.6367383024778479E-01 a       962     0    49     1     2
  1.2137853567215606E-01 a       963     0    49     1     3
 -2.2992696498522555E-01 a       964     0    49     1     4
 -1.7033475079225291E-01 a       965     0    49     1     5
 -2.5840335173286350E-02 a       966     0    49     1     6
 -7.4526198428636739E-02 a       967     0    49     1     7
 -1.6638460389999901E-01 a       968     0    49     1     8
  1.6900325176989961E-01 a       969     0    49     1     9
 -6.3649461249821987E-02 a       970     0    49     1    10
 -8.2783612198903997E-02 a       971     0    49     1    11
  3.2603036261177651E-02 a       972     0    49     1    12
  2.2143121640551347E-01 a       973     0    49     1    13
  2.5538428954677339E-01 a       974     0    49     1    14
 -4.5786782144727124E-02 a       975     0    49     1    15
 -3.5285958456966172E-02 a       976     0    49     1    16
  2.0817025814951187E-01 a       977     0    49     1    17
 -4.8110007681608044E-02 a       978     0    49     1    18
 -1.8756768778511568E-01 a       979     0    49     1    19
 -1.7009619874943840E-01 a       980     0    49     1    20
  4.9987152541580544E-02 a       981     0    50     1     1
 -7.8257379341534511E-02 a       982     0    50     1     2
 -5.7108105405818420E-02 a       983     0    50     1     3
  1.9022799889264638E-01 a       984     0    50     1     4
 -2.2583050075800160E-01 a       985     0    50     1     5
  8.1302839892830308E-03 a       986     0    50     1     6
 -2.4575352690870342E-01 a       987     0    50     1     7
 -1.1511353282505078E-01 a       988     0    50     1     8
  1.6955247048734812E-01 a       989     0    50     1     9
  2.4193494136616131E-01 a       990     0    50     1    10
  1.6878637463979621E-01 a       991     0    50     1    11
  6.4530310511008035E-02 a       992     0    50     1    12
 -2.4154647225978187E-01 a       993     0    50     1    13
 -4.6914347780720976E-02 a       994     0    50     1    14
 -1.7410578776051888E-01 a       995     0    50     1    15
  1.0592220262567294E-01 a       996     0    50     1    16
  9.7659973464334679E-02 a       997     0    50     1    17
 -2.5135264312213013E-01 a       998     0    50     1    18
 -1.3522551892889326E-01 a       999     0    50     1    19
 -7.1446906946386737E-02 a      1000     0    50     1    20
 -6.7428510792005092E-01 a      1001     0    51     1     1
  1.4577921482940086E+00 a      1002     0    51     1     2
  4.1065672385262614E-01 a      1003     0    51     1     3
  3.1928272107434297E+00 a      1004     0    51     1     4
  9.5125227685737923E-01 a      1005     0    51     1     5
 -2.7088121046989824E+00 a      1006     0    51     1     6
  1.1392838324704373E+00 a      1007     0    51     1     7
  3.0435844894661768E-01 a      1008     0    51     1     8
  7.3143241850382754E+00 a      1009     0    51     1     9
 -5.3541028406650737E-01 a      1010     0    51     1    10
  4.6264179643461354E+00 a      1011     0    51     1    11
 -3.0585482328024632E-01 a      1012     0    51     1    12
 -7.0741056546264520E+00 a      1013     0    51     1    13
 -1.7738936550847959E+00 a      1014     0    51     1    14
  6.1680512944344006E+00 a      1015     0    51     1    15
  3.0603198737599517E+00 a      1016     0    51     1    16
  3.0540631859704814E-01 a      1017     0    51     1    17
  5.9546263035916871E+00 a      1018     0    51     1    18
  4.4251252236093555E+00 a      1019     0    51     1    19
  2.9555203719106635E+00 a      1020     0    51     1    20
  8.5146828683146170E-01 a      1021     0    52     1     1
 -1.0936134187777600E+00 a      1022     0    52     1     2
 -3.4781107508374054E-01 a      1023     0    52     1     3
 -5.6138698325301750E-01 a      1024     0    52     1     4
  5.0811285801235984E-01 a      1025     0    52     1     5
  5.7356811416434277E-02 a      1026     0    52     1     6
 -3.2424396453066488E-02 a      1027     0    52     1     7
  6.2363943897302254E-01 a      1028     0    52     1     8
 -2.7666389718047085E-01 a      1029     0    52     1     9
  5.0371517517662556E-02 a      1030     0    52     1    10
 -1.6918769325522376E-01 a      1031     0    52     1    11
  1.1013959907232306E-01 a      1032     0    52     1    12
  4.9070828426077580E-02 a      1033     0    52     1    13
  4.4254115689940338E-02 a      1034     0    52     1    14
  1.4357427226354633E-01 a      1035     0    52     1    15
 -2.1819783713933277E-01 a      1036     0    52     1    16
  1.0500804941417945E+00 a      1037     0    52     1    17
 -8.2748546672722922E-01 a      1038     0    52     1    18
  3.3555779698914517E-01 a      1039     0    52     1    19
  5.6908122435934017E-02 a      1040     0    52     1    20
 -4.6688863536888815E-02 a      1041     0    53     1     1
 -4.2187265699469317E-02 a      1042     0    53     1     2
  3.1878904027809636E-02 a      1043     0    53     1     3
 -5.5860008463111488E-01 a      1044     0    53     1     4
 -1.8366176300492204E-01 a      1045     0    53     1     5
  1.9726891888323533E-02 a      1046     0    53     1     6
  1.5099097673101397E-01 a      1047     0    53     1     7
  7.8591237355715871E-03 a      1048     0    53     1     8
 -4.7218108264555567E-02 a      1049     0    53     1     9
 -1.4781974048368565E-01 a      1050     0    53     1    10
 -3.4426281976663203E-01 a      1051     0    53     1    11
  2.0167690332945096E-01 a      1052     0    53     1    12
  1.7337817573857531E-01 a      1053     0    53     1    13
  3.2948298076602700E-01 a      1054     0    53     1    14
 -2.1908902695843205E-01 a      1055     0    53     1    15
  9.1872224709472219E-02 a      1056     0    53     1    16
  7.7299951576221812E-02 a      1057     0    53     1    17
 -6.0342796594597792E-01 a      1058     0    53     1    18
 -2.0171156683430772E-01 a      1059     0    53     1    19
  2.1472769622020983E-02 a      1060     0    53     1    20
  2.3813288020252651E-01 a      1061     0    54     1     1
  1.0064962200532651E-01 a      1062     0    54     1     2
  2.3287148569165669E-01 a      1063     0    54     1     3
 -1.5196544824534813E-01 a      1064     0    54     1     4
  9.5808432898526925E-03 a      1065     0    54     1     5
 -8.8199542831266839E-02 a      1066     0    54     1     6
 -1.7745130976647658E-01 a      1067     0    54     1     7
 -6.9351570278617394E-02 a      1068     0    54     1     8
  1.1918503381863732E-01 a      1069     0    54     1     9
  1.7552878580927378E-01 a      1070     0    54     1    10
 -1.9797961000061606E-01 a      1071     0    54     1    11
  1.0948480923464773E-01 a      1072     0    54     1    12
  2.1499627297766577E-01 a      1073     0    54     1    13
  1.1309236489220337E-01 a      1074     0    54     1    14
  5.6150304596869927E-02 a      1075     0    54     1    15
  1.5397944731594781E-01 a      1076     0    54     1    16
 -5.3350381584915240E-03 a      1077     0    54     1    17
  5.9908669269671172E-02 a      1078     0    54     1    18
 -2.0296245240002270E-01 a      1079     0    54     1    19
  8.6234020863098532E-02 a      1080     0    54     1    20
 -1.4923670692152055E-01 a      1081     0    55     1     1
  1.5896843447106573E-01 a      1082     0    55     1     2
  1.1156931740178462E-01 a      1083     0    55     1     3
  1.8386468148937334E-02 a      1084     0    55     1     4
 -2.2601334444530863E-01 a      1085     0    55     1     5
  1.9301422430707821E-01 a      1086     0    55     1     6
  2.4925962977301833E-01 a      1087     0    55     1     7
 -1.4178940089516359E-01 a      1088     0    55     1     8
  6.2846189517630777E-03 a      1089     0    55     1     9
 -9.5574841203451291E-02 a      1090     0    55     1    10
 -2.1344322157391840E-01 a      1091     0    55     1    11
 -2.4981298680178252E-01 a      1092     0    55     1    12
  1.5059546844978705E-01 a      1093     0    55     1    13
 -5.7559405609121296E-02 a      1094     0    55     1    14
 -2.6856756125786696E-01 a      1095     0    55     1    15
 -1.4140150690213807E-01 a      1096     0    55     1    16
  1.3796411469522446E-01 a      1097     0    55     1    17
  9.1336996691809530E-02 a      1098     0    55     1    18
 -1.1884108277070111E-01 a      1099     0    55     1    19
  1.4714853952815308E-02 a      1100     0    55     1    20
 -2.6700276774348708E-01 a      1101     0    56     1     1
  2.4790940012222434E-01 a      1102     0    56     1     2
 -2.5471519307537160E-01 a      1103     0    56     1     3
 -1.8326266751279567E-02 a      1104     0    56     1     4
  1.0935341813753510E-02 a      1105     0    56     1     5
 -2.0323180848653760E-01 a      1106     0    56     1     6
  1.1214378362848447E-01 a      1107     0    56     1     7
 -1.0407839684616925E-01 a      1108     0    56     1     8
 -2.4026148943659081E-01 a      1109     0    56     1     9
  1.0836435070867752E-01 a      1110     0    56     1    10
  1.9475777276994086E-01 a      1111     0    56     1    11
  5.6633846870425782E-02 a      1112     0    56     1    12
  6.2562679395724782E-04 a      1113     0    56     1    13
 -1.5633587250996339E-01 a      1114     0    56     1    14
  2.1815140954726139E-01 a      1115     0    56     1    15
  1.5200171791270787E-02 a      1116     0    56     1    16
 -1.1870384919389594E-01 a      1117     0    56     1    17
 -7.2950068490924933E-02 a      1118     0    56     1    18
  1.6528892206194568E-01 a      1119     0    56     1    19
  2.6689552600937033E-01 a      1120     0    56     1    20
  2.2426501006561592E-01 a      1121     0    57     1     1
 -1.6310828221584109E-01 a      1122     0    57     1     2
 -2.3201651853034641E-01 a      1123     0    57     1     3
  1.2885736093162387E-01 a      1124     0    57     1     4
 -2.0207926485417821E-01 a      1125     0    57     1     5
 -1.3326707265643176E-01 a      1126     0    57     1     6
  2.5803133379401633E-01 a      1127     0    57     1     7
 -9.4142217492998656E-02 a      1128     0    57     1     8
 -6.6508106073410997E-02 a      1129     0    57     1     9
  5.2565999878337148E-02 a      1130     0    57     1    10
  1.5360259855244970E-01 a      1131     0    57     1    11
  8.8265305165101865E-02 a      1132     0    57     1    12
 -3.2077827334278552E-02 a      1133     0    57     1    13
 -1.2909156994171311E-01 a      1134     0    57     1    14
  9.7280786887976034E-02 a      1135     0    57     1    15
  2.5367995543512978E-01 a      1136     0    57     1    16
 -1.7836932871517203E-01 a      1137     0    57     1    17
 -2.2710011818537076E-01 a      1138     0    57     1    18
  1.8390278532806914E-01 a      1139     0    57     1    19
  1.3762399372799056E-01 a      1140     0    57     1    20
  9.8021947657369365E-02 a      1141     0    58     1     1
 -9.8872692181480523E-02 a      1142     0    58     1     2
 -1.6713416963160843E-01 a      1143     0    58     1     3
 -1.8045585231016475E-01 a      1144     0    58     1     4
 -2.2266813833748686E-01 a      1145     0    58     1     5
  1.1597117719536812E-01 a      1146     0    58     1     6
 -1.3463958982774710E-01 a      1147     0    58     1     7
 -2.2594218920233194E-01 a      1148     0    58     1     8
  1.4081940397647949E-01 a      1149     0    58     1     9
 -9.0260956198254486E-02 a      1150     0    58     1    10
  2.2759913305260696E-01 a      1151     0    58     1    11
 -1.5893401112079811E-01 a      1152     0    58     1    12
  5.9748899403283713E-02 a      1153     0    58     1    13
  8.0011508016194374E-02 a      1154     0    58     1    14
  2.4998557025818047E-01 a      1155     0    58     1    15
  1.4957437840617829E-01 a      1156     0    58     1    16
  2.2212721538775512E-02 a      1157     0    58     1    17
  1.5915112390910729E-01 a      1158     0    58     1    18
  1.1779642858540794E-01 a      1159     0    58     1    19
 -2.2489182298982949E-01 a      1160     0    58     1    20
  1.1133028100085808E-01 a      1161     0    59     1     1
  1.8811726805149948E-01 a      1162     0    59     1     2
  1.9925591295032274E-01 a      1163     0    59     1     3
  1.7114511098691565E-01 a      1164     0    59     1     4
  1.4447168851608325E-01 a      1165     0    59     1     5
  1.0955528803836947E-02 a      1166     0    59     1     6
  5.7288827286811075E-02 a      1167     0    59     1     7
 -6.1590942086052293E-02 a      1168     0    59     1     8
 -1.0389275665983488E-01 a      1169     0    59     1     9
  2.5315529645906265E-01 a      1170     0    59     1    10
  2.3716127990441085E-01 a      1171     0    59     1    11
  7.3524195399401068E-02 a      1172     0    59     1    12
 -2.8326028926195623E-02 a      1173     0    59     1    13
 -1.6811004321652796E-02 a      1174     0    59     1    14
  5.5211654755016888E-02 a      1175     0    59     1    15
  1.1617154767091945E-03 a      1176     0    59     1    16
 -7.9473639469830493E-02 a      1177     0    59     1    17
 -3.3683782389265754E-02 a      1178     0    59     1    18
  2.0454262076820846E-02 a      1179     0    59     1    19
  5.5735580269310166E-03 a      1180     0    59     1    20
  1.4228941275595816E-01 a      1181     0    60     1     1
  1.8766294212804252E-01 a      1182     0    60     1     2
 -1.1856263241702744E-01 a      1183     0    60     1     3
 -2.0251147680369178E-01 a      1184     0    60     1     4
 -9.5258038561264205E-02 a      1185     0    60     1     5
 -5.1244977992922533E-02 a      1186     0    60     1     6
 -1.1494356652175398E-01 a      1187     0    60     1     7
 -2.0007763363747588E-01 a      1188     0    60     1     8
  6.3510583132159695E-02 a      1189     0    60     1     9
 -2.6642434283218130E-01 a      1190     0    60     1    10
  2.4800597238727703E-01 a      1191     0    60     1    11
  2.2274565881503058E-02 a      1192     0    60     1    12
 -2.5893352781151774E-01 a      1193     0    60     1    13
  4.9978457093152372E-02 a      1194     0    60     1    14
  1.1510868749041740E-01 a      1195     0    60     1    15
 -1.0269270326624240E-01 a      1196     0    60     1    16
 -1.6657691593613830E-01 a      1197     0    60     1    17
  3.8408173811201175E-03 a      1198     0    60     1    18
 -7.1773808726867838E-02 a      1199     0    60     1    19
 -1.7903515240236026E-01 a      1200     0    60     1    20
 -1.9242314484563158E-01 a      1201     0    61     1     1
  1.0991658184833496E-01 a      1202     0    61     1     2
  1.2084163645515558E-01 a      1203     0    61     1     3
  1.7334601245093745E-01 a      1204     0    61     1     4
  1.1616935290978379E-01 a      1205     0    61     1     5
  1.7764915029593084E-01 a      1206     0    61     1     6
  5.2301280472265232E-02 a      1207     0    61     1     7
 -1.2539692856085924E-01 a      1208     0    61     1     8
  6.1330426681770966E-02 a      1209     0    61     1     9
  2.5781151178118794E-01 a      1210     0    61     1    10
  1.5677617457452719E-01 a      1211     0    61     1    11
 -2.1283535815909441E-01 a      1212     0    61     1    12
  2.1942866387783019E-01 a      1213     0    61     1    13
  1.9988250266582025E-01 a      1214     0    61     1    14
  8.4061002775050797E-02 a      1215     0    61     1    15
  1.3116280283290122E-01 a      1216     0    61     1    16
  1.2484313944404996E-01 a      1217     0    61     1    17
  2.0585179516416613E-01 a      1218     0    61     1    18
  1.1928789220675025E-03 a      1219     0    61     1    19
  1.1540562451351245E-01 a      1220     0    61     1    20
  1.9971426863155028E-01 a      1221     0    62     1     1
  1.7219038518000729E-01 a      1222     0    62     1     2
 -4.8909838485946808E-02 a      1223     0    62     1     3
  2.3406927071254968E-01 a      1224     0    62     1     4
  2.3696115335799156E-02 a      1225     0    62     1     5
 -2.5747555048368209E-01 a      1226     0    62     1     6
 -2.0410224474305921E-01 a      1227     0    62     1     7
 -1.2301437139167255E-01 a      1228     0    62     1     8
  7.3122843092924647E-02 a      1229     0    62     1     9
 -2.4527538382289971E-01 a      1230     0    62     1    10
  1.0531987107958478E-01 a      1231     0    62     1    11
  3.0526813100811682E-02 a      1232     0    62     1    12
  7.4301580842739301E-02 a      1233     0    62     1    13
 -2.0231133894300726E-01 a      1234     0    62     1    14
 -1.3734225043357279E-01 a      1235     0    62     1    15
  2.0411306172209077E-02 a      1236     0    62     1    16
 -2.1302444471565779E-01 a      1237     0    62     1    17
 -2.4443509362093094E-01 a      1238     0    62     1    18
 -3.0493497013383039E-02 a      1239     0    62     1    19
 -8.5332113296029619E-02 a      1240     0    62     1    20
 -6.6079039834794143E-02 a      1241     0    63     1     1
 -1.5827406797751198E-01 a      1242     0    63     1     2
  1.6334812411877206E-01 a      1243     0    63     1     3
  5.7014176068358062E-02 a      1244     0    63     1     4
 -2.4310953934799904E-02 a      1245     0    63     1     5
  2.3245967177200866E-01 a      1246     0    63     1     6
 -7.8804898070328089E-02 a      1247     0    63     1     7
 -9.0743396717857833E-02 a      1248     0    63     1     8
 -1.5078282392543482E-01 a      1249     0    63     1     9
 -1.2448242000660036E-01 a      1250     0    63     1    10
 -1.1236169274476047E-01 a      1251     0    63     1    11
 -3.6869485971377375E-02 a      1252     0    63     1    12
  1.2812636098628255E-01 a      1253     0    63     1    13
  1.4851904222396020E-03 a      1254     0    63     1    14
 -1.1046355582953495E-01 a      1255     0    63     1    15
  6.2277241149000601E-02 a      1256     0    63     1    16
 -2.1098592419096757E-01 a      1257     0    63     1    17
 -1.0979635277403869E-01 a      1258     0    63     1    18
 -2.6189733090498102E-01 a      1259     0    63     1    19
  1.5126678517261280E-01 a      1260     0    63     1    20
  1.8255080434732049E-01 a      1261     0    64     1     1
  1.1161124628854560E-01 a      1262     0    64     1     2
  6.9184992607845427E-02 a      1263     0    64     1     3
  5.5237075794324846E-02 a      1264     0    64     1     4
  1.7138354478073617E-01 a      1265     0    64     1     5
 -2.1988508839384238E-01 a      1266     0    64     1     6
  1.6706074155857892E-01 a      1267     0    64     1     7
 -3.8247890378187370E-02 a      1268     0    64     1     8
  6.3587823811566288E-02 a      1269     0    64     1     9
 -1.6183074734421765E-01 a      1270     0    64     1    10
 -1.5018164879322451E-01 a      1271     0    64     1    11
 -1.5658530854624048E-01 a      1272     0    64     1    12
 -1.8563748877559225E-01 a      1273     0    64     1    13
  2.4484771291589527E-01 a      1274     0    64     1    14
 -1.4821797415100865E-01 a      1275     0    64     1    15
  1.7898396552209531E-01 a      1276     0    64     1    16
 -1.3958441188403067E-01 a      1277     0    64     1    17
  1.9583776962508651E-01 a      1278     0    64     1    18
 -4.7159761698459896E-02 a      1279     0    64     1    19
 -1.7092051904364045E-01 a      1280     0    64     1    20
  4.8744688387452412E-02 b      1281     1     1
  6.5194717731656956E-02 b      1282     1     2
 -2.7431575795305146E-01 b      1283     1     3
  8.0774907269339044E-02 b      1284     1     4
  3.1111648914483536E-01 b      1285     1     5
 -7.5403837417528236E-02 b      1286     1     6
  7.2020676368759237E-02 b      1287     1     7
  9.7926074279041181E-02 b      1288     1     8
  4.4328488990608782E-02 b      1289     1     9
  1.0107918910848812E-01 b      1290     1    10
  2.0707778428256232E-01 b      1291     1    11
  1.3147692337133476E-01 b      1292     1    12
 -3.3570596833693583E-01 b      1293     1    13
 -1.6860617790892020E-02 b      1294     1    14
 -5.1191916511465076E-02 b      1295     1    15
  2.5847923664410931E-02 b      1296     1    16
 -1.5172932916628293E-01 b      1297     1    17
 -1.9915700596254610E-02 b      1298     1    18
 -8.0773713505169181E-02 b      1299     1    19
 -1.6778977198990266E-01 b      1300     1    20
 -4.2510387664047196E-02 a      1301     1     1     2     1
  4.9035631477498914E-01 a      1302     1     1     2     2
  2.5210075929158615E-01 a      1303     1     1     2     3
  1.0412989890314093E+00 a      1304     1     1     2     4
 -3.0028927577855502E-01 a      1305     1     1     2     5
  7.0549931212444073E-01 a      1306     1     1     2     6
 -3.6119232484786751E-01 a      1307     1     1     2     7
 -9.3245642048611377E-01 a      1308     1     1     2     8
  5.9505258927937121E-02 a      1309     1     1     2     9
 -2.7884088602282225E-01 a      1310     1     1     2    10
 -1.0886364161822186E+00 a      1311     1     1     2    11
 -1.1350690226133986E+00 a      1312     1     1     2    12
  1.1670991903571930E+00 a      1313     1     1     2    13
  1.0504839912469524E+00 a      1314     1     1     2    14
  8.6719752446435827E-01 a      1315     1     1     2    15
  1.8571463948022129E+00 a      1316     1     1     2    16
 -1.1520173115527674E+00 a      1317     1     1     2    17
 -5.5081507835613563E-01 a      1318     1     1     2    18
 -6.9432269057989604E-02 a      1319     1     1     2    19
 -1.8169933866023252E-02 a      1320     1     1     2    20
  2.8283210694496019E-01 a      1321     1     2     2     1
 -5.7382135061120276E-01 a      1322     1     2     2     2
  2.6552205208881174E-01 a      1323     1     2     2     3
 -4.4572720364992935E-01 a      1324     1     2     2     4
  6.1865520666606844E-01 a      1325     1     2     2     5
 -1.8925004863599160E-01 a      1326     1     2     2     6
  1.1126823690443770E+00 a      1327     1     2     2     7
  5.3191872942926532E-01 a      1328     1     2     2     8
  3.8953202615205362E-01 a      1329     1     2     2     9
 -2.9730485185259464E-01 a      1330     1     2     2    10
  2.8437583200774286E-01 a      1331     1     2     2    11
 -1.0486856272832199E+00 a      1332     1     2     2    12
  1.3147362571892841E-02 a      1333     1     2     2    13
 -7.9084445863697372E-01 a      1334     1     2     2    14
 -1.2235006118823821E+00 a      1335     1     2     2    15
  5.6080171422213110E-02 a      1336     1     2     2    16
  5.4616430132142579E-01 a      1337     1     2     2    17
 -4.0053847220164203E-02 a      1338     1     2     2    18
  3.7912900854589920E-01 a      1339     1     2     2    19
  6.6457274353810125E-01 a      1340     1     2     2    20
  1.9814678549541614E-01 a      1341     1     3     2     1
 -7.5357931286035726E-02 a      1342     1     3     2     2
 -1.6414081701008534E-01 a      1343     1     3     2     3
 -8.8694385626478606E-02 a      1344     1     3     2     4
 -3.8453464556231176E-01 a      1345     1     3     2     5
  2.3920092027408962E-01 a      1346     1     3     2     6
 -1.9344341241833471E-01 a      1347     1     3     2     7
 -9.9585349654013597E-02 a      1348     1     3     2     8
 -2.1052303970887284E-01 a      1349     1     3     2     9
 -3.9079074357283174E-02 a      1350     1     3     2    10
  7.9392458131191412E-01 a      1351     1     3     2    11
 -2.8522177033287488E-01 a      1352     1     3     2    12
  1.9694556307154268E-01 a      1353     1     3     2    13
 -1.1930234400945827E+00 a      1354     1     3     2    14
 -6.0205331832617104E-01 a      1355     1     3     2    15
  3.1245144915394607E-01 a      1356     1     3     2    16
  4.2693984867732482E-01 a      1357     1     3     2    17
  5.7960589441946109E-01 a      1358     1     3     2    18
  2.2317049949892581E-01 a      1359     1     3     2    19
 -5.0643144677236192E-02 a      1360     1     3     2    20
  2.0065618247307515E-01 a      1361     1     4     2     1
 -4.8203383177544179E-01 a      1362     1     4     2     2
  3.1340814083137636E-01 a      1363     1     4     2     3
  1.9721870956965107E-01 a      1364     1     4     2     4
  4.0209129958914591E-01 a      1365     1     4     2     5
 -6.3855357734162677E-02 a      1366     1     4     2     6
  6.5316554677936278E-01 a      1367     1     4     2     7
  1.3045880391036738E-01 a      1368     1     4     2     8
 -2.0658597100928375E-01 a      1369     1     4     2     9
 -7.0643931911522373E-01 a      1370     1     4     2    10
  1.4872723274103594E-01 a      1371     1     4     2    11
 -3.5456709510644796E-01 a      1372     1     4     2    12
  2.1641026511622460E-01 a      1373     1     4     2    13
 -1.2133200117392626E+00 a      1374     1     4     2    14
 -1.6412389557018607E+00 a      1375     1     4     2    15
 -2.2553416410716209E-01 a      1376     1     4     2    16
  7.0291523973507009E-01 a      1377     1     4     2    17
  9.3870894253345258E-02 a      1378     1     4     2    18
  1.6877464016592417E-01 a      1379     1     4     2    19
  8.6138668409757813E-01 a      1380     1     4     2    20
  9.1519024458572976E-02 a      1381     1     5     2     1
  1.5277545814371379E-01 a      1382     1     5     2     2
 -4.3142449663311494E-01 a      1383     1     5     2     3
  1.0490106185608901E+00 a      1384     1     5     2     4
  2.5065553970384447E-01 a      1385     1     5     2     5
  1.1441947273983401E-01 a      1386     1     5     2     6
 -6.7130581959123345E-02 a      1387     1     5     2     7
 -6.4458080569572862E-01 a      1388     1     5     2     8
  5.0475046136424569E-02 a      1389     1     5     2     9
 -8.4560249857307604E-02 a      1390     1     5     2    10
  3.8557805062789594E-02 a      1391     1     5     2    11
  4.5140283555420074E-01 a      1392     1     5     2    12
  1.2452313717317103E-01 a      1393     1     5     2    13
  6.1268422675200140E-01 a      1394     1     5     2    14
  3.8350242010426733E-01 a      1395     1     5     2    15
  2.4637284370876403E-01 a      1396     1     5     2    16
 -1.6235068080856793E-01 a      1397     1     5     2    17
  4.9105690940822821E-01 a      1398     1     5     2    18
 -1.3592841927572299E-01 a      1399     1     5     2    19
  7.6835435552670028E-02 a      1400     1     5     2    20
 -6.0066897694622501E-01 a      1401     1     6     2     1
  3.3411982660382411E-01 a      1402     1     6     2     2
  7.6635845863601271E-01 a      1403     1     6     2     3
 -6.6575581340625550E-02 a      1404     1     6     2     4
  2.1318002425339966E-01 a      1405     1     6     2     5
  4.6313106598236353E-01 a      1406     1     6     2     6
  3.4122276419058462E-02 a      1407     1     6     2     7
 -4.6530563564326549E-01 a      1408     1     6     2     8
 -1.7846440177387302E-01 a      1409     1     6     2     9
  6.6828023601916808E-01 a      1410     1     6     2    10
 -3.7280453916544787E-01 a      1411     1     6     2    11
 -5.6717361725988324E-01 a      1412     1     6     2    12
 -1.9335055665139381E-02 a      1413     1     6     2    13
  5.5878658587976349E-01 a      1414     1     6     2    14
  4.1650479257364176E-01 a      1415     1     6     2    15
  6.3479175347621253E-01 a      1416     1     6     2    16
 -2.4861274934376701E-01 a      1417     1     6     2    17
 -3.3617552893718650E-01 a      1418     1     6     2    18
  3.9607617245334570E-02 a      1419     1     6     2    19
 -3.7876481598989187E-01 a      1420     1     6     2    20
 -4.5023072845910039E-01 a      1421     1     7     2     1
 -3.1096278088712964E-01 a      1422     1     7     2     2
 -2.3635461322160378E-02 a      1423     1     7     2     3
  4.6442925005838703E-01 a      1424     1     7     2     4
 -4.4377648851285900E-01 a      1425     1     7     2     5
  5.4136287151621920E-01 a      1426     1     7     2     6
  2.7456533108114511E-01 a      1427     1     7     2     7
 -8.2088549695608926E-01 a      1428     1     7     2     8
  3.0866974834794220E-01 a      1429     1     7     2     9
  6.3959205298514821E-01 a      1430     1     7     2    10
 -4.9257794358845697E-01 a      1431     1     7     2    11
 -1.1585813047156832E-01 a      1432     1     7     2    12
 -3.8850023395058414E-01 a      1433     1     7     2    13
 -4.6258542696597282E-01 a      1434     1     7     2    14
 -1.2701467311172487E-01 a      1435     1     7     2    15
  5.7361484502778282E-02 a      1436     1     7     2    16
  3.0758742374181536E-01 a      1437     1     7     2    17
 -7.0167181756026109E-01 a      1438     1     7     2    18
 -2.4980252128382563E-01 a      1439     1     7     2    19
 -4.5827396889366234E-01 a      1440     1     7     2    20
  2.8002541643438539E-01 a      1441     1     8     2     1
  7.1830712725571666E-01 a      1442     1     8     2     2
 -2.0648953441696172E-01 a      1443     1     8     2     3
  8.3601644854288559E-01 a      1444     1     8     2     4
  1.2939911586427539E-02 a      1445     1     8     2     5
  2.1661159135683122E-01 a      1446     1     8     2     6
 -2.0154909548675609E-01 a      1447     1     8     2     7
 -2.2362524646420068E-01 a      1448     1     8     2     8
 -1.9043051413244080E-01 a      1449     1     8     2     9
  4.5152609897736040E-01 a      1450     1     8     2    10
 -3.3520557794823796E-01 a      1451     1     8     2    11
 -3.9767919021795266E-02 a      1452     1     8     2    12
 -1.6962057074479342E-01 a      1453     1     8     2    13
 -9.0009345566805829E-02 a      1454     1     8     2    14
  2.3325588764656480E-01 a      1455     1     8     2    15
 -1.3639716390207821E-01 a      1456     1     8     2    16
 -9.8343007123509973E-01 a      1457     1     8     2    17
 -1.9195776269257885E-02 a      1458     1     8     2    18
  1.1493196961231995E-01 a      1459     1     8     2    19
 -7.1935788235763165E-01 a      1460     1     8     2    20
  3.3763437217137382E-01 a      1461     1     9     2     1
 -5.4676820039215246E-01 a      1462     1     9     2     2
 -2.8882141053363825E-01 a      1463     1     9     2     3
 -1.6641381543164999E-01 a      1464     1     9     2     4
  3.4359376282890608E-01 a      1465     1     9     2     5
 -8.3205948145264136E-02 a      1466     1     9     2     6
  3.5717221106607944E-01 a      1467     1     9     2     7
  7.2086746367478050E-01 a      1468     1     9     2     8
 -2.6897230797564492E-01 a      1469     1     9     2     9
 -2.6611424142801704E-01 a      1470     1     9     2    10
  1.0239620264714799E+00 a      1471     1     9     2    11
  9.3626754966597880E-01 a      1472     1     9     2    12
 -3.1050743672044945E-01 a      1473     1     9     2    13
 -1.2584278355164786E+00 a      1474     1     9     2    14
 -1.5594360352110075E+00 a      1475     1     9     2    15
 -1.4897691948656746E+00 a      1476     1     9     2    16
  4.4474696874376535E-01 a      1477     1     9     2    17
  9.4315148543567173E-01 a      1478     1     9     2    18
 -4.0555843137911475E-02 a      1479     1     9     2    19
  4.8516139143163556E-01 a      1480     1     9     2    20
  9.1831851220609009E-02 a      1481     1    10     2     1
 -1.2529575714458923E+00 a      1482     1    10     2     2
  3.7288717123969239E-03 a      1483     1    10     2     3
  1.0012514498687095E+00 a      1484     1    10     2     4
  7.1124520002049452E-01 a      1485     1    10     2     5
 -7.2452273218962482E-01 a      1486     1    10     2     6
  2.0063449629737226E-01 a      1487     1    10     2     7
  8.6557998867050789E-02 a      1488     1    10     2     8
  5.2777013910704851E-01 a      1489     1    10     2     9
  1.9928226821448482E-02 a      1490     1    10     2    10
 -1.3498596898198210E+00 a      1491     1    10     2    11
 -1.9263328875866570E+00 a      1492     1    10     2    12
  1.6416270810520819E-01 a      1493     1    10     2    13
  3.7183370471855304E-01 a      1494     1    10     2    14
  7.7629755189727900E-01 a      1495     1    10     2    15
  1.4956211987228043E+00 a      1496     1    10     2    16
  3.0391414409761719E-01 a      1497     1    10     2    17
 -1.3022051572296733E+00 a      1498     1    10     2    18
  1.1766798026390454E-01 a      1499     1    10     2    19
 -7.9858682609853949E-03 a      1500     1    10     2    20
 -3.4740732336353725E-01 a      1501     1    11     2     1
 -7.6714117779525715E-01 a      1502     1    11     2     2
 -4.5206325129591785E-01 a      1503     1    11     2     3
 -1.0679473498887047E-01 a      1504     1    11     2     4
  5.6315651416285872E-01 a      1505     1    11     2     5
 -2.1809916406289653E-01 a      1506     1    11     2     6
  6.6019921440389806E-01 a      1507     1    11     2     7
  2.3425485673388294E-01 a      1508     1    11     2     8
  4.1008703807100921E-01 a      1509     1    11     2     9
  9.3960765640701671E-01 a      1510     1    11     2    10
  1.4895528398174785E-02 a      1511     1    11     2    11
  4.2650079613927172E-01 a      1512     1    11     2    12
 -4.1317370374957124E-01 a      1513     1    11     2    13
 -5.3226000238211202E-01 a      1514     1    11     2    14
 -1.3148682239680132E+00 a      1515     1    11     2    15
  3.4456063422450021E-02 a      1516     1    11     2    16
  1.2694872698548038E-01 a      1517     1    11     2    17
  2.4308258350892709E-01 a      1518     1    11     2    18
 -2.9213390458127259E-01 a      1519     1    11     2    19
 -3.5381809739189302E-01 a      1520     1    11     2    20
  2.9073358670571298E-01 a      1521     1    12     2     1
 -2.0418521810153248E-01 a      1522     1    12     2     2
  7.0571679070601168E-01 a      1523     1    12     2     3
 -3.8856229930675806E-01 a      1524     1    12     2     4
  1.1166991795470075E-03 a      1525     1    12     2     5
  8.3586200786855958E-01 a      1526     1    12     2     6
  7.4962618724919927E-01 a      1527     1    12     2     7
 -9.0679452845173103E-01 a      1528     1    12     2     8
  3.0577547546119849E-01 a      1529     1    12     2     9
 -1.1613010837815596E+00 a      1530     1    12     2    10
 -1.0449132762126964E-01 a      1531     1    12     2    11
 -5.4415689440361881E-01 a      1532     1    12     2    12
  1.1271556031457590E-01 a      1533     1    12     2    13
  1.2325858400243792E-01 a      1534     1    12     2    14
 -1.4138604292812174E-01 a      1535     1    12     2    15
  6.3944589295886067E-01 a      1536     1    12     2    16
 -4.2569945743208895E-02 a      1537     1    12     2    17
 -3.4732713558032730E-01 a      1538     1    12     2    18
 -1.1254104047442072E-01 a      1539     1    12     2    19
  9.0400939386997281E-01 a      1540     1    12     2    20
 -4.4350047801205628E-01 a      1541     1    13     2     1
  5.9670171736829558E-01 a      1542     1    13     2     2
  4.7839087801320838E-02 a      1543     1    13     2     3
 -3.5589419966440944E-01 a      1544     1    13     2     4
 -8.5704776397533078E-01 a      1545     1    13     2     5
  4.3553004172022752E-01 a      1546     1    13     2     6
 -5.0490031217356035E-01 a      1547     1    13     2     7
 -2.9577667522180034E-01 a      1548     1    13     2     8
 -1.8908474971833043E-02 a      1549     1    13     2     9
 -5.1930040820211087E-01 a      1550     1    13     2    10
 -6.0044696502698391E-01 a      1551     1    13     2    11
  6.7352934336654047E-01 a      1552     1    13     2    12
  7.4565667882570394E-02 a      1553     1    13     2    13
  1.1062080266181917E+00 a      1554     1    13     2    14
  1.1142612603654038E+00 a      1555     1    13     2    15
  1.5480422221097612E-01 a      1556     1    13     2    16
 -4.4092387242958270E-01 a      1557     1    13     2    17
 -9.7780142145957138E-01 a      1558     1    13     2    18
  2.5634558037530997E-01 a      1559     1    13     2    19
  3.3229115376985507E-01 a      1560     1    13     2    20
 -5.6100246518282104E-01 a      1561     1    14     2     1
  1.2082480457681979E+00 a      1562     1    14     2     2
  4.3637804668327446E-01 a      1563     1    14     2     3
  1.5831115407047947E-01 a      1564     1    14     2     4
  7.2143207195886155E-02 a      1565     1    14     2     5
  2.6049351233511103E-01 a      1566     1    14     2     6
 -1.5157201610980966E+00 a      1567     1    14     2     7
  2.1010178982461991E-02 a      1568     1    14     2     8
 -2.2062653818893962E-01 a      1569     1    14     2     9
 -9.3321867232446093E-02 a      1570     1    14     2    10
 -2.4592906825958749E-01 a      1571     1    14     2    11
 -4.6523965864349204E-01 a      1572     1    14     2    12
 -1.4054615410744561E-01 a      1573     1    14     2    13
  5.6672145114957617E-01 a      1574     1    14     2    14
  4.5846167415345895E-01 a      1575     1    14     2    15
  1.0901448807080119E+00 a      1576     1    14     2    16
 -7.4823504266786600E-01 a      1577     1    14     2    17
  7.1280327722309966E-02 a      1578     1    14     2    18
 -4.4679279363968921E-01 a      1579     1    14     2    19
 -1.8362638747550633E-01 a      1580     1    14     2    20
 -2.9151069917530741E-02 a      1581     1    15     2     1
 -6.0856444034108603E-01 a      1582     1    15     2     2
  1.1074660168424035E-01 a      1583     1    15     2     3
  1.4084671045568606E-01 a      1584     1    15     2     4
 -4.4852065544548247E-01 a      1585     1    15     2     5
  1.1942257694813944E-01 a      1586     1    15     2     6
 -6.8818472346942372E-01 a      1587     1    15     2     7
  4.2693023316447404E-01 a      1588     1    15     2     8
 -1.4784711814518106E-01 a      1589     1    15     2     9
 -3.9298579536492340E-01 a      1590     1    15     2    10
 -2.7884886837743844E-01 a      1591     1    15     2    11
 -9.0401038372364151E-01 a      1592     1    15     2    12
  5.7989101438398860E-01 a      1593     1    15     2    13
 -1.0967536690415240E+00 a      1594     1    15     2    14
 -1.2110009853439399E+00 a      1595     1    15     2    15
  2.1811863776759512E-02 a      1596     1    15     2    16
  9.7619982345093714E-01 a      1597     1    15     2    17
 -8.9025392203357367E-02 a      1598     1    15     2    18
 -3.7539767221137998E-02 a      1599     1    15     2    19
  4.4787750119876357E-01 a      1600     1    15     2    20
  5.3810826345019114E-01 a      1601     1    16     2     1
 -9.0916934667657467E-01 a      1602     1    16     2     2
 -2.5141531525591416E-02 a      1603     1    16     2     3
 -3.2756727629269594E-01 a      1604     1    16     2     4
 -2.9950340763826128E-01 a      1605     1    16     2     5
 -7.9053372717469983E-02 a      1606     1    16     2     6
  1.1280955280406360E+00 a      1607     1    16     2     7
  2.9525843727247664E-01 a      1608     1    16     2     8
  3.2094758255158423E-01 a      1609     1    16     2     9
  8.2770049324535133E-01 a      1610     1    16     2    10
  5.3158213194457382E-01 a      1611     1    16     2    11
  1.1510822225116225E-01 a      1612     1    16     2    12
  1.1781976312438971E+00 a      1613     1    16     2    13
 -7.1486929934645793E-01 a      1614     1    16     2    14
 -4.5596514022045376E-01 a      1615     1    16     2    15
  4.1458297354810721E-02 a      1616     1    16     2    16
 -2.8028780336381950E-02 a      1617     1    16     2    17
  4.3245804822467782E-01 a      1618     1    16     2    18
  1.6948915647037344E-01 a      1619     1    16     2    19
 -4.8462973232439843E-01 a      1620     1    16     2    20
 -8.7420654517195606E-01 a      1621     1    17     2     1
  1.3021740413744645E+00 a      1622     1    17     2     2
 -3.4301393898752253E-02 a      1623     1    17     2     3
  1.6342865177295982E+00 a      1624     1    17     2     4
 -1.4846830320889043E-01 a      1625     1    17     2     5
  7.0447755816944879E-01 a      1626     1    17     2     6
  2.2165485836134277E-01 a      1627     1    17     2     7
