################################################################################
# Neural network connection values (weights and biases).
################################################################################
# Col  Name       Description
################################################################################
# 1    connection Neural network connection value.
# 2    t          Connection type (a = weight, b = bias).
# 3    index      Index enumerating weights.
# 4    l_s        Starting point layer (end point layer for biases).
# 5    n_s        Starting point neuron in starting layer (end point neuron for biases).
# 6    l_e        End point layer.
# 7    n_e        End point neuron in end layer.
################################################################################
#                      1 2         3     4     5     6     7
#             connection t     index   l_s   n_s   l_e   n_e
############################################################
 -3.2385764008167955E-01 a         1     0     1     1     1
  9.5089329259387206E-02 a         2     0     1     1     2
 -6.0157195097245053E-01 a         3     0     1     1     3
  1.8096221206778801E-01 a         4     0     1     1     4
 -5.9870693704081790E-01 a         5     0     1     1     5
  9.6285884108634909E-02 a         6     0     1     1     6
  3.5781631576755285E-01 a         7     0     1     1     7
  2.0188926367387858E-01 a         8     0     1     1     8
  2.2649134616828132E-02 a         9     0     1     1     9
 -3.4623341687281081E-02 a        10     0     1     1    10
 -1.0037423135265031E-01 a        11     0     1     1    11
 -1.5884884704341160E-02 a        12     0     1     1    12
  1.4113619521773146E-01 a        13     0     1     1    13
  8.7378808234857136E-02 a        14     0     1     1    14
 -2.7454919786493170E-01 a        15     0     1     1    15
  3.8445586648598473E-01 a        16     0     1     1    16
  2.7533801962308879E-01 a        17     0     1     1    17
 -2.5617893288767596E-01 a        18     0     1     1    18
  3.5386171432348817E-01 a        19     0     1     1    19
  4.5574158465506207E-02 a        20     0     1     1    20
  3.4090302516454779E-01 a        21     0     2     1     1
 -4.5404106171773034E-01 a        22     0     2     1     2
 -3.4560673247720983E-02 a        23     0     2     1     3
  3.6159760768145066E-01 a        24     0     2     1     4
  1.4381294466443201E-01 a        25     0     2     1     5
 -3.4373059683198959E-01 a        26     0     2     1     6
  1.2635238302131294E-01 a        27     0     2     1     7
  3.4273414979209466E-01 a        28     0     2     1     8
 -1.0872744003908032E-01 a        29     0     2     1     9
 -1.6399177404880078E-01 a        30     0     2     1    10
 -5.7434883122705693E-01 a        31     0     2     1    11
  1.3795535114255261E-01 a        32     0     2     1    12
 -3.9033827422782430E-01 a        33     0     2     1    13
 -2.0570415670528053E-01 a        34     0     2     1    14
  4.0090266266763092E-01 a        35     0     2     1    15
  8.7256153013603330E-02 a        36     0     2     1    16
 -4.3450761900348675E-02 a        37     0     2     1    17
  4.1128835119944324E-01 a        38     0     2     1    18
  3.8105480667629960E-01 a        39     0     2     1    19
 -1.6336458667094814E-01 a        40     0     2     1    20
  3.6237303205705740E-01 a        41     0     3     1     1
 -2.0840286595923305E+00 a        42     0     3     1     2
  1.1179695883977707E+00 a        43     0     3     1     3
  2.5945493387374335E-01 a        44     0     3     1     4
  6.0106694809644967E-01 a        45     0     3     1     5
 -2.8753442842226803E-02 a        46     0     3     1     6
 -1.9005579676736935E-02 a        47     0     3     1     7
  1.0427463678332516E+00 a        48     0     3     1     8
  9.3165140843225847E-01 a        49     0     3     1     9
  5.0537557986601013E-02 a        50     0     3     1    10
 -1.1930691136910112E+00 a        51     0     3     1    11
  2.8354433782014854E-01 a        52     0     3     1    12
 -3.9820303909184163E-01 a        53     0     3     1    13
  1.2098572516859061E+00 a        54     0     3     1    14
  2.4682685306800495E-01 a        55     0     3     1    15
 -2.2589763394634993E-01 a        56     0     3     1    16
  2.0482724811363656E-01 a        57     0     3     1    17
  1.4185010294641869E+00 a        58     0     3     1    18
 -1.3680721001920612E-01 a        59     0     3     1    19
 -2.7211150297002529E-01 a        60     0     3     1    20
  9.2425052292081963E-02 a        61     0     4     1     1
  4.7379514387176976E-02 a        62     0     4     1     2
 -7.0134625817126006E-01 a        63     0     4     1     3
  3.2895805237424380E-01 a        64     0     4     1     4
 -4.9469451455813068E-01 a        65     0     4     1     5
 -3.0805419757729680E-01 a        66     0     4     1     6
  2.7172224299138947E-01 a        67     0     4     1     7
  2.9360753659352995E-01 a        68     0     4     1     8
 -2.0640967141275735E-01 a        69     0     4     1     9
 -2.4339534594622456E-01 a        70     0     4     1    10
 -4.9410909320209717E-01 a        71     0     4     1    11
 -9.2351807326453844E-03 a        72     0     4     1    12
 -1.7381423778865798E-01 a        73     0     4     1    13
 -2.0377361482377032E-01 a        74     0     4     1    14
  2.5626521603402386E-01 a        75     0     4     1    15
  2.8466000889725007E-01 a        76     0     4     1    16
  1.7029879242713913E-01 a        77     0     4     1    17
 -3.8104709561973427E-02 a        78     0     4     1    18
  6.3100627211245475E-01 a        79     0     4     1    19
 -1.5496673276351960E-01 a        80     0     4     1    20
  4.4389916023004056E-01 a        81     0     5     1     1
 -2.6196411763197763E-01 a        82     0     5     1     2
  1.6888059826166191E-01 a        83     0     5     1     3
  3.2728364946314586E-01 a        84     0     5     1     4
  4.6200705916775753E-01 a        85     0     5     1     5
 -4.6105598960098892E-01 a        86     0     5     1     6
 -2.7565472199380547E-01 a        87     0     5     1     7
  2.1260263074783883E-01 a        88     0     5     1     8
 -2.1973634751442889E-01 a        89     0     5     1     9
 -2.3303364011044331E-01 a        90     0     5     1    10
 -5.5861787069262758E-01 a        91     0     5     1    11
  1.7072181588223034E-01 a        92     0     5     1    12
 -4.1652837284754568E-01 a        93     0     5     1    13
 -2.3972854436150176E-01 a        94     0     5     1    14
  7.3428952144583726E-01 a        95     0     5     1    15
 -2.5538763292951672E-01 a        96     0     5     1    16
 -1.8036197062535383E-01 a        97     0     5     1    17
  5.2429082300688934E-01 a        98     0     5     1    18
  2.1403403031238016E-01 a        99     0     5     1    19
 -3.0583032776547514E-01 a       100     0     5     1    20
 -7.0678961218911984E-01 a       101     0     6     1     1
  1.1787931710402746E+00 a       102     0     6     1     2
 -1.3818488991212328E+00 a       103     0     6     1     3
  1.2806948587190603E-01 a       104     0     6     1     4
 -1.0599268192363003E+00 a       105     0     6     1     5
  8.4461653411282381E-02 a       106     0     6     1     6
  4.6565699863858162E-01 a       107     0     6     1     7
 -3.3011477406808670E-01 a       108     0     6     1     8
 -6.5355844614027292E-01 a       109     0     6     1     9
  1.8134234625693391E-01 a       110     0     6     1    10
  1.0705822168725589E+00 a       111     0     6     1    11
 -3.0294282928982348E-02 a       112     0     6     1    12
  5.2345769796774455E-01 a       113     0     6     1    13
 -6.0278376221674113E-01 a       114     0     6     1    14
 -3.7332638555777342E-01 a       115     0     6     1    15
  3.6253067052938942E-01 a       116     0     6     1    16
  1.2645420507530283E-01 a       117     0     6     1    17
 -1.2077264061623965E+00 a       118     0     6     1    18
 -1.3456065356707367E-01 a       119     0     6     1    19
  5.0481186425505353E-01 a       120     0     6     1    20
  3.6040595064181485E-01 a       121     0     7     1     1
  2.5561690595812231E-01 a       122     0     7     1     2
 -6.5659192706411806E-01 a       123     0     7     1     3
  2.4350796615356624E-01 a       124     0     7     1     4
 -7.4425703774636565E-01 a       125     0     7     1     5
 -2.0923330799808001E-01 a       126     0     7     1     6
  4.9702590567842664E-01 a       127     0     7     1     7
  3.8965348654583634E-02 a       128     0     7     1     8
 -2.8036701833867839E-01 a       129     0     7     1     9
  1.9565920537655174E-01 a       130     0     7     1    10
 -2.3315193825389144E-01 a       131     0     7     1    11
 -3.6181555469134735E-02 a       132     0     7     1    12
  1.2868630175001600E-01 a       133     0     7     1    13
  1.8502778680503240E-01 a       134     0     7     1    14
 -1.4451807353320961E-01 a       135     0     7     1    15
  2.9266177986366859E-01 a       136     0     7     1    16
  2.7165354349763471E-01 a       137     0     7     1    17
 -1.6723128429298795E-01 a       138     0     7     1    18
  2.5808717218190935E-01 a       139     0     7     1    19
  1.3151454716122737E-01 a       140     0     7     1    20
  4.0097409938074130E-01 a       141     0     8     1     1
  2.1658805527858296E-01 a       142     0     8     1     2
 -8.6475865673385699E-01 a       143     0     8     1     3
  4.6921356420606702E-01 a       144     0     8     1     4
 -7.5615565459796752E-01 a       145     0     8     1     5
 -5.0223414956856516E-01 a       146     0     8     1     6
  4.3632365563815184E-01 a       147     0     8     1     7
  9.3290871098634348E-02 a       148     0     8     1     8
 -2.5441161070143359E-01 a       149     0     8     1     9
  1.9945904239852166E-02 a       150     0     8     1    10
 -2.8818173979819406E-01 a       151     0     8     1    11
 -1.8586585495365857E-01 a       152     0     8     1    12
 -1.5978793569828056E-01 a       153     0     8     1    13
 -3.2504343253300688E-01 a       154     0     8     1    14
  4.9031887473905210E-02 a       155     0     8     1    15
  4.1853138250844968E-01 a       156     0     8     1    16
  4.1226967840569374E-02 a       157     0     8     1    17
  2.9762205133483266E-02 a       158     0     8     1    18
  2.7705639424905482E-01 a       159     0     8     1    19
 -9.9554755999051350E-02 a       160     0     8     1    20
  3.1043631439655950E-01 a       161     0     9     1     1
  1.7982932855355949E-01 a       162     0     9     1     2
 -1.1146668921037990E+00 a       163     0     9     1     3
  4.0179710896132748E-01 a       164     0     9     1     4
 -7.5698245544212006E-01 a       165     0     9     1     5
 -4.8324860338877951E-01 a       166     0     9     1     6
  5.0796461989882058E-01 a       167     0     9     1     7
  2.0698701439696965E-01 a       168     0     9     1     8
 -2.1830739975555757E-01 a       169     0     9     1     9
 -1.9900576062773490E-01 a       170     0     9     1    10
 -5.1428514369821254E-01 a       171     0     9     1    11
 -2.7850594197606254E-01 a       172     0     9     1    12
 -2.1955317601339588E-01 a       173     0     9     1    13
 -5.7776899917397295E-01 a       174     0     9     1    14
  1.4461740043155924E-01 a       175     0     9     1    15
  4.8521454592252988E-01 a       176     0     9     1    16
  1.6940822161988677E-02 a       177     0     9     1    17
 -8.5229254564979109E-02 a       178     0     9     1    18
  7.2555133071219458E-01 a       179     0     9     1    19
 -1.8829941008697390E-01 a       180     0     9     1    20
  3.3129570254670943E-01 a       181     0    10     1     1
 -3.4075396262303947E-01 a       182     0    10     1     2
 -2.4230460899335196E-01 a       183     0    10     1     3
  7.0082946591416284E-01 a       184     0    10     1     4
 -5.4575554480791232E-02 a       185     0    10     1     5
 -4.2584102743291607E-01 a       186     0    10     1     6
  8.0874106510990765E-02 a       187     0    10     1     7
  5.0284665499248127E-01 a       188     0    10     1     8
 -4.3405017127810197E-01 a       189     0    10     1     9
 -3.6956418365228416E-01 a       190     0    10     1    10
 -2.4018271132505678E-01 a       191     0    10     1    11
  2.9039565015598606E-01 a       192     0    10     1    12
 -4.2374823214204321E-01 a       193     0    10     1    13
 -3.2828162777246800E-01 a       194     0    10     1    14
  6.5251063084679972E-01 a       195     0    10     1    15
 -1.0547078586006453E-01 a       196     0    10     1    16
  7.4064530144646437E-02 a       197     0    10     1    17
  3.7267398196397172E-01 a       198     0    10     1    18
  4.5533760100385379E-01 a       199     0    10     1    19
 -1.7481046646422287E-03 a       200     0    10     1    20
  7.3962094601996042E-02 a       201     0    11     1     1
 -4.1129289847019507E-01 a       202     0    11     1     2
  2.8780132827831439E-01 a       203     0    11     1     3
  2.0501438316573509E-01 a       204     0    11     1     4
  4.2499402705074413E-01 a       205     0    11     1     5
 -1.4186436030859612E-01 a       206     0    11     1     6
 -2.6720133532042506E-01 a       207     0    11     1     7
  3.9164903145161545E-01 a       208     0    11     1     8
 -8.3551214792627060E-02 a       209     0    11     1     9
 -4.7892948751372033E-01 a       210     0    11     1    10
 -1.7052122770575570E-01 a       211     0    11     1    11
  2.6260903592157514E-01 a       212     0    11     1    12
 -1.8429219324275323E-01 a       213     0    11     1    13
 -4.3826908235699354E-02 a       214     0    11     1    14
  6.6625592543267054E-01 a       215     0    11     1    15
 -4.0776105863418555E-01 a       216     0    11     1    16
 -1.7647360177128445E-02 a       217     0    11     1    17
  3.4796526563057895E-01 a       218     0    11     1    18
  2.2870464612087113E-01 a       219     0    11     1    19
 -1.0592865643504926E-01 a       220     0    11     1    20
 -8.4442808668592093E-02 a       221     0    12     1     1
 -2.6896103253777076E-01 a       222     0    12     1     2
  6.4641272436857311E-01 a       223     0    12     1     3
 -3.1452574914160834E-02 a       224     0    12     1     4
  5.2882996251735204E-01 a       225     0    12     1     5
  8.6935538982362850E-02 a       226     0    12     1     6
 -4.6962885996830145E-01 a       227     0    12     1     7
  1.9696439482151565E-01 a       228     0    12     1     8
 -9.7497246388579720E-02 a       229     0    12     1     9
 -2.3741609355474333E-01 a       230     0    12     1    10
 -1.0125592928906978E-01 a       231     0    12     1    11
  3.8615711404777731E-01 a       232     0    12     1    12
  3.6326632185632490E-03 a       233     0    12     1    13
  4.1906312156530356E-01 a       234     0    12     1    14
  5.0078298588214643E-01 a       235     0    12     1    15
 -5.0691838811276690E-01 a       236     0    12     1    16
  1.1583848665391770E-01 a       237     0    12     1    17
  2.1226800551683367E-01 a       238     0    12     1    18
 -2.6650408518363464E-02 a       239     0    12     1    19
 -2.9073983279140181E-02 a       240     0    12     1    20
  6.6212506533387793E-03 a       241     0    13     1     1
 -1.6071296329305226E-01 a       242     0    13     1     2
  5.7317897844252730E-01 a       243     0    13     1     3
  3.7085411751590268E-02 a       244     0    13     1     4
  5.0639398871813690E-01 a       245     0    13     1     5
  1.0825563224077557E-02 a       246     0    13     1     6
 -4.4285577712825619E-01 a       247     0    13     1     7
  4.7500424821175544E-02 a       248     0    13     1     8
 -6.3959374194290222E-02 a       249     0    13     1     9
 -3.9233113698064336E-02 a       250     0    13     1    10
 -6.3126657454264925E-03 a       251     0    13     1    11
  2.6101183726619159E-01 a       252     0    13     1    12
 -6.1110562819787731E-02 a       253     0    13     1    13
  2.2516404255493741E-01 a       254     0    13     1    14
  3.6731550956721726E-01 a       255     0    13     1    15
 -4.1190069636720678E-01 a       256     0    13     1    16
 -5.4188694521902121E-02 a       257     0    13     1    17
  2.9571811976560547E-01 a       258     0    13     1    18
 -2.9079401879604660E-01 a       259     0    13     1    19
 -1.0360089242607395E-01 a       260     0    13     1    20
  2.4506242563587555E-01 a       261     0    14     1     1
 -7.0764791704810426E-01 a       262     0    14     1     2
  1.6845908110841049E-01 a       263     0    14     1     3
  2.5482460452368977E-01 a       264     0    14     1     4
 -2.2859537511828634E-02 a       265     0    14     1     5
  2.2480722779789918E-02 a       266     0    14     1     6
 -9.6671291963497594E-03 a       267     0    14     1     7
  4.7366710001732232E-02 a       268     0    14     1     8
 -2.4429596074284224E-01 a       269     0    14     1     9
 -2.7178686475946584E-01 a       270     0    14     1    10
 -8.5705773438317062E-02 a       271     0    14     1    11
  1.0352225830352933E-01 a       272     0    14     1    12
 -4.8437143042872249E-01 a       273     0    14     1    13
  1.6069249181334910E-01 a       274     0    14     1    14
 -1.1084260831766284E-01 a       275     0    14     1    15
  1.5149551642405290E-01 a       276     0    14     1    16
  4.5671930260281318E-01 a       277     0    14     1    17
  2.3565918287391047E-02 a       278     0    14     1    18
  5.7234203449097842E-01 a       279     0    14     1    19
  3.1575589104469975E-01 a       280     0    14     1    20
 -2.0496304457090253E+00 a       281     0    15     1     1
  3.3885462499651271E+00 a       282     0    15     1     2
  4.3593185386401984E-01 a       283     0    15     1     3
 -2.6768356966264240E-01 a       284     0    15     1     4
  1.4103496870154140E+00 a       285     0    15     1     5
 -2.9198643070327353E+00 a       286     0    15     1     6
  7.8063503095629316E-01 a       287     0    15     1     7
  3.1224946734930498E-01 a       288     0    15     1     8
  1.6400516354174399E+00 a       289     0    15     1     9
  5.8083080714656043E-01 a       290     0    15     1    10
 -5.9747785364514394E-01 a       291     0    15     1    11
  7.7078943151728951E-01 a       292     0    15     1    12
  3.1381567968643416E+00 a       293     0    15     1    13
  5.8955272840177464E-01 a       294     0    15     1    14
  1.3584100162538761E+00 a       295     0    15     1    15
  1.1359080927055243E+00 a       296     0    15     1    16
 -5.0143457729461161E-01 a       297     0    15     1    17
 -6.4566492471857106E-01 a       298     0    15     1    18
 -9.2477428437416831E-01 a       299     0    15     1    19
 -1.1462026785430619E+00 a       300     0    15     1    20
 -5.3477843959597871E-01 a       301     0    16     1     1
  1.5130479839586255E+00 a       302     0    16     1     2
 -1.3638398771295965E+00 a       303     0    16     1     3
 -3.5738636190047463E-01 a       304     0    16     1     4
 -1.7178663016976015E+00 a       305     0    16     1     5
  2.1212077233193996E+00 a       306     0    16     1     6
 -1.3930933549956701E+00 a       307     0    16     1     7
  3.7988688811729099E-01 a       308     0    16     1     8
  4.8910169017454058E-01 a       309     0    16     1     9
  1.7857861200519773E+00 a       310     0    16     1    10
  1.3938579380751756E-01 a       311     0    16     1    11
 -1.5701098783467442E+00 a       312     0    16     1    12
  1.2821067244533666E+00 a       313     0    16     1    13
 -2.7809655852586666E+00 a       314     0    16     1    14
 -1.5423961301612414E+00 a       315     0    16     1    15
 -8.3997834211670341E-01 a       316     0    16     1    16
 -3.0446651025627036E-01 a       317     0    16     1    17
 -6.9477811205032969E-01 a       318     0    16     1    18
 -4.5922270234499035E-01 a       319     0    16     1    19
 -5.1722093674898306E-01 a       320     0    16     1    20
  5.2209819300260907E-01 a       321     0    17     1     1
  1.9021539488608161E+00 a       322     0    17     1     2
 -2.1149270474793341E-01 a       323     0    17     1     3
  4.2878687390764564E-01 a       324     0    17     1     4
 -1.4536733085023228E+00 a       325     0    17     1     5
  1.1572950107755728E+00 a       326     0    17     1     6
 -1.7753000267707153E+00 a       327     0    17     1     7
  1.1384952710425345E+00 a       328     0    17     1     8
  5.1831719375874837E-02 a       329     0    17     1     9
  2.1316439734749539E+00 a       330     0    17     1    10
  8.5900603348712778E-01 a       331     0    17     1    11
 -7.4861718321596959E-01 a       332     0    17     1    12
  1.2812551685750102E+00 a       333     0    17     1    13
 -1.7186735355371709E+00 a       334     0    17     1    14
 -1.5109812772940368E+00 a       335     0    17     1    15
 -7.8506181134079767E-01 a       336     0    17     1    16
  6.8619555461245352E-01 a       337     0    17     1    17
  4.9128973142351778E-01 a       338     0    17     1    18
 -1.9014130061319070E+00 a       339     0    17     1    19
 -5.5473267689535155E-01 a       340     0    17     1    20
  1.6830569386908156E+00 a       341     0    18     1     1
  6.8687619063666683E-01 a       342     0    18     1     2
 -5.2726846492789067E-02 a       343     0    18     1     3
  7.6573010659383189E-01 a       344     0    18     1     4
 -5.6402456573034399E-01 a       345     0    18     1     5
  5.7468328961760529E-01 a       346     0    18     1     6
 -8.8062524854759472E-01 a       347     0    18     1     7
  3.1655469982232148E-01 a       348     0    18     1     8
 -5.8257804608304842E-01 a       349     0    18     1     9
  5.1441037689847557E-01 a       350     0    18     1    10
  4.9899056547275217E-01 a       351     0    18     1    11
 -5.1886802027326195E-01 a       352     0    18     1    12
 -6.0649762803998850E-02 a       353     0    18     1    13
 -3.5814300990626841E-01 a       354     0    18     1    14
 -1.1991220818131241E+00 a       355     0    18     1    15
 -3.6994431825013829E-01 a       356     0    18     1    16
  1.2327025372973917E+00 a       357     0    18     1    17
  9.2360105572718199E-01 a       358     0    18     1    18
 -1.8307817824136459E+00 a       359     0    18     1    19
  2.8497582524295839E-01 a       360     0    18     1    20
  1.8102220336659203E+00 a       361     0    19     1     1
 -5.2415519229481522E-01 a       362     0    19     1     2
  8.1004328277289517E-01 a       363     0    19     1     3
  7.2697399870199075E-01 a       364     0    19     1     4
  5.2127094112042327E-01 a       365     0    19     1     5
  2.6703954087086118E-01 a       366     0    19     1     6
 -1.0011686617217026E+00 a       367     0    19     1     7
 -1.9322025209732313E-01 a       368     0    19     1     8
 -2.3423152849134582E-01 a       369     0    19     1     9
 -4.4943334343354228E-02 a       370     0    19     1    10
 -1.1659543586173599E-01 a       371     0    19     1    11
 -5.4374807556552518E-01 a       372     0    19     1    12
 -3.1557433781710648E-01 a       373     0    19     1    13
  4.4636364713972104E-01 a       374     0    19     1    14
 -7.6989862563639333E-01 a       375     0    19     1    15
 -5.9932469868599979E-02 a       376     0    19     1    16
  7.1526346794422491E-01 a       377     0    19     1    17
  7.6006546951507148E-01 a       378     0    19     1    18
  3.8632501962345756E-01 a       379     0    19     1    19
  2.5035702488505746E-01 a       380     0    19     1    20
  9.0988837038311399E-01 a       381     0    20     1     1
 -8.7735656609402712E-01 a       382     0    20     1     2
  8.7653313276519296E-01 a       383     0    20     1     3
  6.8029880263612141E-01 a       384     0    20     1     4
  6.0533699131177998E-01 a       385     0    20     1     5
  4.4227856538056082E-01 a       386     0    20     1     6
 -8.9084097603910850E-01 a       387     0    20     1     7
 -1.2745222069612575E-01 a       388     0    20     1     8
 -3.6746777573886236E-01 a       389     0    20     1     9
  1.1714568403374019E-01 a       390     0    20     1    10
 -3.2674357758912453E-01 a       391     0    20     1    11
 -3.7880972915868993E-01 a       392     0    20     1    12
 -1.2582553820310624E-01 a       393     0    20     1    13
  8.6367341800629216E-01 a       394     0    20     1    14
 -5.8216453295317105E-01 a       395     0    20     1    15
  2.7900424654912870E-01 a       396     0    20     1    16
  4.8100012391836006E-01 a       397     0    20     1    17
  2.5317664189478450E-01 a       398     0    20     1    18
  1.2904302171261035E+00 a       399     0    20     1    19
  1.6870223218113720E-01 a       400     0    20     1    20
  2.0183282739055605E-01 a       401     0    21     1     1
  5.8994683538541690E-02 a       402     0    21     1     2
 -1.0093599195990910E-01 a       403     0    21     1     3
  6.1602530982785408E-01 a       404     0    21     1     4
  2.5860534309764976E-01 a       405     0    21     1     5
  3.7661811013087054E-01 a       406     0    21     1     6
  1.9587313369407694E-02 a       407     0    21     1     7
  4.6589690475864309E-02 a       408     0    21     1     8
  4.5291601095855266E-01 a       409     0    21     1     9
  1.6009652982240391E-01 a       410     0    21     1    10
 -1.8472435590670094E-01 a       411     0    21     1    11
 -3.3983793689909991E-01 a       412     0    21     1    12
  5.2342791706962322E-01 a       413     0    21     1    13
 -9.8245663230994074E-01 a       414     0    21     1    14
 -3.4506499351809822E-01 a       415     0    21     1    15
  1.9984002333525125E-01 a       416     0    21     1    16
 -4.3441711581641962E-01 a       417     0    21     1    17
 -7.2575051622249989E-02 a       418     0    21     1    18
  4.4392893138976935E-01 a       419     0    21     1    19
 -2.5947631843995806E-02 a       420     0    21     1    20
  1.3059107030564227E-01 a       421     0    22     1     1
  1.6746188446709692E-01 a       422     0    22     1     2
  2.0466038375004164E-01 a       423     0    22     1     3
 -1.8244926867851563E+00 a       424     0    22     1     4
 -6.3134687872179784E-01 a       425     0    22     1     5
 -1.9157015168190443E+00 a       426     0    22     1     6
  1.1576879336428583E+00 a       427     0    22     1     7
 -2.9675474004870476E-02 a       428     0    22     1     8
 -5.3249602388659445E-01 a       429     0    22     1     9
 -5.3299094219930443E-01 a       430     0    22     1    10
  8.0385053394281286E-02 a       431     0    22     1    11
  2.1823982195511463E-01 a       432     0    22     1    12
 -5.2286699230837785E-01 a       433     0    22     1    13
  1.3946864266013854E+00 a       434     0    22     1    14
  4.9004560580287654E-01 a       435     0    22     1    15
  3.1458876811599523E-01 a       436     0    22     1    16
  7.9934608377012650E-01 a       437     0    22     1    17
 -1.2103559028783321E-01 a       438     0    22     1    18
 -5.9073678803084395E-01 a       439     0    22     1    19
  1.2923552901362229E-01 a       440     0    22     1    20
  6.6641232885848367E-01 a       441     0    23     1     1
 -3.9394246834165609E+00 a       442     0    23     1     2
 -2.1046118175835954E-01 a       443     0    23     1     3
  1.1513533266168423E+00 a       444     0    23     1     4
 -1.3648605271649288E+00 a       445     0    23     1     5
  5.4977984228195496E+00 a       446     0    23     1     6
 -3.0238210232236513E+00 a       447     0    23     1     7
 -3.9803354197134255E-01 a       448     0    23     1     8
 -1.2178457983036322E+00 a       449     0    23     1     9
  6.4911680055775822E-01 a       450     0    23     1    10
  7.5238541304456585E-01 a       451     0    23     1    11
 -9.8590175093826238E-01 a       452     0    23     1    12
 -2.6275414192765756E+00 a       453     0    23     1    13
 -1.2786821606677115E-01 a       454     0    23     1    14
 -1.7924926818308125E+00 a       455     0    23     1    15
 -1.9212826670133261E+00 a       456     0    23     1    16
 -4.5711927062181706E-01 a       457     0    23     1    17
  7.4728230124188277E-01 a       458     0    23     1    18
  1.2792448557866476E+00 a       459     0    23     1    19
  3.8689733861932041E-01 a       460     0    23     1    20
  1.8122985049173546E+00 a       461     0    24     1     1
 -3.0904792271268233E-01 a       462     0    24     1     2
 -1.3531267043328957E-01 a       463     0    24     1     3
  7.4363400469704211E-01 a       464     0    24     1     4
  1.3360786782540601E+00 a       465     0    24     1     5
 -2.3046206550303237E+00 a       466     0    24     1     6
  1.5979962351867834E+00 a       467     0    24     1     7
  4.1334311194371136E-02 a       468     0    24     1     8
 -4.3393235383114076E-01 a       469     0    24     1     9
 -1.5635169946388181E+00 a       470     0    24     1    10
 -4.0440521449022687E-02 a       471     0    24     1    11
  4.2064253155322695E-01 a       472     0    24     1    12
 -6.8164701725669763E-01 a       473     0    24     1    13
 -7.9177404399469764E-01 a       474     0    24     1    14
  8.6430269233327828E-01 a       475     0    24     1    15
  6.1831435761960840E-01 a       476     0    24     1    16
  6.5962533022162748E-02 a       477     0    24     1    17
  9.1122924263984362E-01 a       478     0    24     1    18
  1.9089849044821022E-01 a       479     0    24     1    19
  9.2663548536740115E-01 a       480     0    24     1    20
  4.9370926494963735E-01 a       481     0    25     1     1
 -1.6842610335060613E+00 a       482     0    25     1     2
  1.2092129315303333E+00 a       483     0    25     1     3
 -1.5227196712760235E-01 a       484     0    25     1     4
  1.4230305191134367E+00 a       485     0    25     1     5
 -1.6399587537366791E+00 a       486     0    25     1     6
  1.8358691338200233E+00 a       487     0    25     1     7
 -7.6752871533788958E-01 a       488     0    25     1     8
 -7.5890835996005690E-01 a       489     0    25     1     9
 -1.9870861473366770E+00 a       490     0    25     1    10
 -7.3773549579418385E-01 a       491     0    25     1    11
  1.5983478476403861E+00 a       492     0    25     1    12
 -1.6552604702483749E+00 a       493     0    25     1    13
  3.2407096848167143E+00 a       494     0    25     1    14
  1.5573524752325898E+00 a       495     0    25     1    15
  9.4502507019621684E-01 a       496     0    25     1    16
  3.0916245624621269E-01 a       497     0    25     1    17
 -2.1655458019130561E-01 a       498     0    25     1    18
  9.6644573683458634E-01 a       499     0    25     1    19
  6.1991075082849978E-01 a       500     0    25     1    20
 -1.2171492617823869E+00 a       501     0    26     1     1
 -1.2128717543048610E+00 a       502     0    26     1     2
  7.1207716310451352E-01 a       503     0    26     1     3
 -1.9303082763740959E-03 a       504     0    26     1     4
  1.6694615895745837E+00 a       505     0    26     1     5
 -3.8974670633481745E-01 a       506     0    26     1     6
  2.9032923470328664E-01 a       507     0    26     1     7
 -8.3472663567471550E-01 a       508     0    26     1     8
  3.3379721769064130E-01 a       509     0    26     1     9
 -1.1225163892524488E+00 a       510     0    26     1    10
 -1.1244191028465964E+00 a       511     0    26     1    11
  8.8136587784061438E-01 a       512     0    26     1    12
 -4.9235995916057307E-01 a       513     0    26     1    13
  1.3946610536492028E+00 a       514     0    26     1    14
  1.7902350903893800E+00 a       515     0    26     1    15
  2.3948222204652872E-01 a       516     0    26     1    16
 -1.4448653665994664E+00 a       517     0    26     1    17
 -5.8295388974480800E-01 a       518     0    26     1    18
  2.0111500512504099E+00 a       519     0    26     1    19
 -5.9154327154553010E-01 a       520     0    26     1    20
 -1.5224723146355696E+00 a       521     0    27     1     1
  5.5044384249874637E-02 a       522     0    27     1     2
 -1.5435593920861171E-01 a       523     0    27     1     3
 -5.0363664863591262E-01 a       524     0    27     1     4
  3.6925245775790587E-02 a       525     0    27     1     5
 -3.1995005694138695E-01 a       526     0    27     1     6
  6.0445780525315773E-01 a       527     0    27     1     7
 -3.1165780452870079E-02 a       528     0    27     1     8
  3.1831973498540739E-01 a       529     0    27     1     9
 -3.7843691666042949E-02 a       530     0    27     1    10
 -4.2995586392310259E-01 a       531     0    27     1    11
  7.0014686207989829E-01 a       532     0    27     1    12
  1.8326975870889267E-01 a       533     0    27     1    13
 -9.6299692703606582E-02 a       534     0    27     1    14
  1.1005901412492070E+00 a       535     0    27     1    15
 -2.4478442767711397E-02 a       536     0    27     1    16
 -8.9125859508618199E-01 a       537     0    27     1    17
 -9.4615684301030500E-01 a       538     0    27     1    18
  8.3413457802909075E-01 a       539     0    27     1    19
 -4.5049336752792957E-01 a       540     0    27     1    20
 -7.6453883142758838E-01 a       541     0    28     1     1
  4.3525975001758072E-01 a       542     0    28     1     2
 -7.3628333188392237E-01 a       543     0    28     1     3
 -5.1100990306733107E-01 a       544     0    28     1     4
 -6.8393530479941611E-01 a       545     0    28     1     5
 -4.9727146920305326E-01 a       546     0    28     1     6
  8.0235717781690907E-01 a       547     0    28     1     7
  3.9233729958117397E-01 a       548     0    28     1     8
  2.3387519603774670E-01 a       549     0    28     1     9
  1.0095399912797451E-01 a       550     0    28     1    10
 -1.6825126232756955E-02 a       551     0    28     1    11
  3.4030608978340832E-01 a       552     0    28     1    12
  9.6823862901913874E-02 a       553     0    28     1    13
 -8.6385811588769656E-01 a       554     0    28     1    14
  7.6450950111446725E-01 a       555     0    28     1    15
 -1.1652758761151141E-01 a       556     0    28     1    16
 -5.4788446553108139E-01 a       557     0    28     1    17
 -4.4006254135788986E-01 a       558     0    28     1    18
 -4.9001421128518585E-01 a       559     0    28     1    19
 -3.4365214303985520E-01 a       560     0    28     1    20
  1.8526126328305623E-01 a       561     0    29     1     1
  5.9893584198945959E-01 a       562     0    29     1     2
 -8.5020232418412167E-01 a       563     0    29     1     3
  5.8918932882172537E-02 a       564     0    29     1     4
 -9.7160101502981810E-01 a       565     0    29     1     5
 -7.7221470084857979E-01 a       566     0    29     1     6
  5.9561194297612996E-01 a       567     0    29     1     7
  6.0998089412468759E-01 a       568     0    29     1     8
  1.1068493168011761E-02 a       569     0    29     1     9
  3.9478237442230629E-01 a       570     0    29     1    10
  3.1852650424549454E-02 a       571     0    29     1    11
  7.8469202448391770E-02 a       572     0    29     1    12
  2.5430199184688224E-01 a       573     0    29     1    13
 -9.2697962677036083E-01 a       574     0    29     1    14
  5.6845903192873348E-01 a       575     0    29     1    15
 -5.8268367611773779E-02 a       576     0    29     1    16
 -4.0975260190081197E-01 a       577     0    29     1    17
  8.0969783012223920E-02 a       578     0    29     1    18
  5.7603748776864847E-02 a       579     0    29     1    19
 -1.7103488589332275E-01 a       580     0    29     1    20
  6.2780046039936110E-01 a       581     0    30     1     1
 -1.2330775131991099E-02 a       582     0    30     1     2
 -4.3118616606765747E-01 a       583     0    30     1     3
  4.3581304887767042E-01 a       584     0    30     1     4
 -6.0382132092392504E-01 a       585     0    30     1     5
 -5.0711840821305532E-01 a       586     0    30     1     6
  3.5675226278839461E-01 a       587     0    30     1     7
  4.8150180308113871E-01 a       588     0    30     1     8
 -3.2583073701987791E-01 a       589     0    30     1     9
  1.9119517463644786E-01 a       590     0    30     1    10
 -1.3061117380579015E-01 a       591     0    30     1    11
 -4.8753816463791969E-02 a       592     0    30     1    12
  1.2929960264281129E-01 a       593     0    30     1    13
 -1.0381266077115249E-01 a       594     0    30     1    14
  1.6485116706773781E-01 a       595     0    30     1    15
  1.7928652072212412E-01 a       596     0    30     1    16
  4.6895361998565158E-02 a       597     0    30     1    17
  2.1121032107258017E-01 a       598     0    30     1    18
  7.3566075869030956E-01 a       599     0    30     1    19
  9.6048054893212609E-02 a       600     0    30     1    20
 -4.6965210398346791E-01 a       601     0    31     1     1
  8.4035984646627493E-01 a       602     0    31     1     2
  3.0587220042811625E+00 a       603     0    31     1     3
 -1.8796307798120242E+00 a       604     0    31     1     4
  1.7565667823377249E+00 a       605     0    31     1     5
  2.7803963112142043E+00 a       606     0    31     1     6
  4.0377075502932430E-01 a       607     0    31     1     7
 -5.6403703039315598E+00 a       608     0    31     1     8
 -2.6186913816423529E+00 a       609     0    31     1     9
 -1.9921583781757704E+00 a       610     0    31     1    10
 -3.5587927267573058E+00 a       611     0    31     1    11
 -2.6991015431109493E+00 a       612     0    31     1    12
 -2.4707670923709606E+00 a       613     0    31     1    13
 -3.5633525689656129E+00 a       614     0    31     1    14
 -2.5325897762758118E+00 a       615     0    31     1    15
 -1.1098431338132893E+00 a       616     0    31     1    16
 -1.2139085122288762E+00 a       617     0    31     1    17
 -2.1077576761295256E+00 a       618     0    31     1    18
  2.6016275592032549E+00 a       619     0    31     1    19
  1.3149536293674906E+00 a       620     0    31     1    20
  4.1452280490723421E+00 a       621     0    32     1     1
 -2.2379495874858129E+00 a       622     0    32     1     2
 -2.8864468568666517E+00 a       623     0    32     1     3
 -4.5965556189696466E+00 a       624     0    32     1     4
  1.4027601359490938E+00 a       625     0    32     1     5
 -3.1256371175571136E+00 a       626     0    32     1     6
  2.7288474501368438E+00 a       627     0    32     1     7
  7.8296550595970480E+00 a       628     0    32     1     8
 -4.5143782978752496E+00 a       629     0    32     1     9
  7.2152935679515903E-02 a       630     0    32     1    10
  1.4382399421269880E+00 a       631     0    32     1    11
  4.8233127046901041E+00 a       632     0    32     1    12
  1.9058591739235062E+00 a       633     0    32     1    13
 -7.4591705891079496E-01 a       634     0    32     1    14
  5.9535212889190294E+00 a       635     0    32     1    15
 -2.9385039226089500E+00 a       636     0    32     1    16
 -6.2118910399140224E-03 a       637     0    32     1    17
  3.2592647441755864E+00 a       638     0    32     1    18
  6.2298806099167173E-02 a       639     0    32     1    19
 -5.0934213903970893E-01 a       640     0    32     1    20
  5.8700462330019088E+00 a       641     0    33     1     1
 -2.8058618037726637E+00 a       642     0    33     1     2
 -5.2557113543101597E+00 a       643     0    33     1     3
 -1.1776532010124505E+00 a       644     0    33     1     4
  1.6790103270181440E+00 a       645     0    33     1     5
  1.0439306273172917E+00 a       646     0    33     1     6
 -1.4145716123430605E+00 a       647     0    33     1     7
  3.2657945226029090E+00 a       648     0    33     1     8
  5.1476027894056375E-01 a       649     0    33     1     9
  1.0585830723227807E-01 a       650     0    33     1    10
  6.7628978010397613E+00 a       651     0    33     1    11
  2.2563056081462878E+00 a       652     0    33     1    12
 -1.8346527994509219E+00 a       653     0    33     1    13
  8.7899470442157734E-01 a       654     0    33     1    14
  3.6957414479426429E+00 a       655     0    33     1    15
  1.4717588285362426E+00 a       656     0    33     1    16
  4.3185323301261915E+00 a       657     0    33     1    17
  1.1314135638961177E-01 a       658     0    33     1    18
  6.8878147909992773E+00 a       659     0    33     1    19
 -6.3187045087769871E+00 a       660     0    33     1    20
 -4.4811421134735913E-01 a       661     0    34     1     1
  7.4863602575310861E-01 a       662     0    34     1     2
  1.7054244583245446E+00 a       663     0    34     1     3
  2.1329643141106769E+00 a       664     0    34     1     4
 -2.2578019015466991E-01 a       665     0    34     1     5
 -1.8160590151693086E+00 a       666     0    34     1     6
  2.2982833736698431E+00 a       667     0    34     1     7
 -8.4543238385795716E-01 a       668     0    34     1     8
 -1.2122575364644665E+00 a       669     0    34     1     9
 -2.5742919941500291E+00 a       670     0    34     1    10
 -1.0982413280643981E+00 a       671     0    34     1    11
  1.9077837225388989E+00 a       672     0    34     1    12
  7.0955026030349355E-01 a       673     0    34     1    13
 -2.4239567700477056E+00 a       674     0    34     1    14
 -3.5527574855619810E+00 a       675     0    34     1    15
  2.2415740187378747E-01 a       676     0    34     1    16
 -2.4723767002118828E+00 a       677     0    34     1    17
  1.4418470815948188E+00 a       678     0    34     1    18
 -4.4776156775307102E-01 a       679     0    34     1    19
  7.8915054139939445E-01 a       680     0    34     1    20
 -1.1660990504349122E+00 a       681     0    35     1     1
  7.2483372897908593E-01 a       682     0    35     1     2
 -6.1176464622929483E-01 a       683     0    35     1     3
  1.6127986088348476E+00 a       684     0    35     1     4
  9.4729977840365062E-02 a       685     0    35     1     5
  1.9304769794391228E+00 a       686     0    35     1     6
  3.5822457780731043E-01 a       687     0    35     1     7
  3.1445056037024005E-01 a       688     0    35     1     8
  6.0232306291097903E-01 a       689     0    35     1     9
 -7.7300416760454693E-01 a       690     0    35     1    10
  1.1825054377601418E+00 a       691     0    35     1    11
  2.9541438986148150E-01 a       692     0    35     1    12
  1.9695796586674272E+00 a       693     0    35     1    13
  1.1291095567389193E+00 a       694     0    35     1    14
 -6.5289640997443754E-01 a       695     0    35     1    15
 -4.6021466257272312E-02 a       696     0    35     1    16
 -1.4703321425209653E-01 a       697     0    35     1    17
 -4.5743207577628647E-02 a       698     0    35     1    18
 -1.1079939147665170E+00 a       699     0    35     1    19
 -5.8702479057747425E-01 a       700     0    35     1    20
  1.2911024846381343E+00 a       701     0    36     1     1
 -8.2445928035528271E-01 a       702     0    36     1     2
 -9.8315448064372024E-01 a       703     0    36     1     3
 -9.3334036450293689E-01 a       704     0    36     1     4
 -3.9007918287175003E-01 a       705     0    36     1     5
 -1.5568133946950291E+00 a       706     0    36     1     6
  1.8831647097203679E+00 a       707     0    36     1     7
  1.1439769038656906E+00 a       708     0    36     1     8
  6.6455249598145183E-01 a       709     0    36     1     9
 -3.2015243188244019E-01 a       710     0    36     1    10
 -3.8195633755777418E+00 a       711     0    36     1    11
 -1.1696627566479696E+00 a       712     0    36     1    12
 -1.7035510242522185E+00 a       713     0    36     1    13
  4.8011605768423969E-02 a       714     0    36     1    14
  8.0118790511826021E-01 a       715     0    36     1    15
  4.7161327316994439E-01 a       716     0    36     1    16
  2.7050417745080885E-01 a       717     0    36     1    17
  1.5098839608189858E+00 a       718     0    36     1    18
  9.7283297044854677E-01 a       719     0    36     1    19
 -1.0175572034667398E-01 a       720     0    36     1    20
  2.6423580321702606E-01 a       721     0    37     1     1
 -8.8167447647431918E-01 a       722     0    37     1     2
 -4.0708199004277429E-01 a       723     0    37     1     3
  2.7665889033143349E+00 a       724     0    37     1     4
 -3.7227550577729757E-01 a       725     0    37     1     5
 -5.9811424763031487E-02 a       726     0    37     1     6
  3.6433700197544555E-01 a       727     0    37     1     7
  1.0379564793339494E-01 a       728     0    37     1     8
  6.0774078893675636E-02 a       729     0    37     1     9
 -1.5370696955484250E-01 a       730     0    37     1    10
  1.2461045765407313E+00 a       731     0    37     1    11
  7.1042651164188220E-01 a       732     0    37     1    12
  4.6404398121108198E-01 a       733     0    37     1    13
  8.6041886984153126E-01 a       734     0    37     1    14
 -1.9525455600478567E-01 a       735     0    37     1    15
 -6.6990432388641455E-02 a       736     0    37     1    16
 -5.1232063680917449E-02 a       737     0    37     1    17
  1.0897526063556273E+00 a       738     0    37     1    18
 -1.1872797590987873E-01 a       739     0    37     1    19
  5.7276083422973145E-01 a       740     0    37     1    20
  8.5827878977517258E-02 a       741     0    38     1     1
  1.8982158730252402E-01 a       742     0    38     1     2
  6.0811774146615405E-01 a       743     0    38     1     3
  6.2554625549949228E-01 a       744     0    38     1     4
  1.6629138944781571E-02 a       745     0    38     1     5
 -1.2120524610779866E+00 a       746     0    38     1     6
 -2.0534285894109483E+00 a       747     0    38     1     7
 -2.1877663569555308E-01 a       748     0    38     1     8
 -5.6842792043849266E-01 a       749     0    38     1     9
  1.3861994963262054E+00 a       750     0    38     1    10
  1.0561113996334526E+00 a       751     0    38     1    11
  2.9865168839780804E-01 a       752     0    38     1    12
 -8.7523620835449045E-01 a       753     0    38     1    13
 -7.5718464409286079E-01 a       754     0    38     1    14
  1.0213505700868377E+00 a       755     0    38     1    15
 -5.7189440638420375E-01 a       756     0    38     1    16
  3.4455012019678238E-01 a       757     0    38     1    17
  2.6884732105166659E-01 a       758     0    38     1    18
  9.2276665536226798E-01 a       759     0    38     1    19
  1.0918187964537138E+00 a       760     0    38     1    20
  1.9267557932362808E-01 a       761     0    39     1     1
 -4.3772496922593873E-01 a       762     0    39     1     2
 -6.0448051644624995E-02 a       763     0    39     1     3
 -7.7524427088632553E-01 a       764     0    39     1     4
 -5.6341973977304449E-01 a       765     0    39     1     5
  1.7530825100896663E-01 a       766     0    39     1     6
  9.6093659795069342E-01 a       767     0    39     1     7
  7.8741970759390351E-02 a       768     0    39     1     8
 -1.7539879863298514E-02 a       769     0    39     1     9
 -5.4160786149270268E-01 a       770     0    39     1    10
  5.4750894386724192E-01 a       771     0    39     1    11
  3.3999014414427070E-01 a       772     0    39     1    12
 -2.3364568559195939E-01 a       773     0    39     1    13
  3.5417793622721724E-02 a       774     0    39     1    14
 -1.8645964344649801E-01 a       775     0    39     1    15
 -3.6827628825459863E-01 a       776     0    39     1    16
  3.0237067832318154E-01 a       777     0    39     1    17
 -5.1359576612658824E-02 a       778     0    39     1    18
 -2.7424276717885543E-01 a       779     0    39     1    19
  1.6865022901349008E-01 a       780     0    39     1    20
 -7.0074680106088243E+00 a       781     0    40     1     1
 -4.4756861183990360E+00 a       782     0    40     1     2
  1.5652141737116192E+00 a       783     0    40     1     3
  2.3019371258143422E+00 a       784     0    40     1     4
 -1.7928401374932472E+00 a       785     0    40     1     5
 -4.4584790961369123E+00 a       786     0    40     1     6
  2.7138441536269031E-01 a       787     0    40     1     7
 -1.0268497391327940E+00 a       788     0    40     1     8
  2.3141626588917363E-01 a       789     0    40     1     9
  6.0114492414297260E-01 a       790     0    40     1    10
 -1.6882161245129501E-01 a       791     0    40     1    11
  7.9600405684510489E-01 a       792     0    40     1    12
  2.8178002460094067E+00 a       793     0    40     1    13
 -4.8272821660872067E-01 a       794     0    40     1    14
  2.7616827996101856E+00 a       795     0    40     1    15
  4.3785143150081446E-01 a       796     0    40     1    16
  2.7288667076727822E+00 a       797     0    40     1    17
 -7.5071213464750119E-01 a       798     0    40     1    18
 -1.0033379689326334E-01 a       799     0    40     1    19
  2.1814426370996238E+00 a       800     0    40     1    20
  1.1604085844670671E+00 a       801     0    41     1     1
  2.7773739569428226E+00 a       802     0    41     1     2
 -9.3981840447696952E-01 a       803     0    41     1     3
 -2.8340112133944642E+00 a       804     0    41     1     4
 -2.0333406315026817E-01 a       805     0    41     1     5
  3.7996332474586064E-01 a       806     0    41     1     6
  1.1470917883545466E+00 a       807     0    41     1     7
  3.7854871498774956E+00 a       808     0    41     1     8
  1.5624447056082835E+00 a       809     0    41     1     9
  2.4976630726058189E+00 a       810     0    41     1    10
 -1.6766889654032107E+00 a       811     0    41     1    11
 -1.0768298233447127E+00 a       812     0    41     1    12
 -7.9038507021618826E-02 a       813     0    41     1    13
 -4.6919149045940434E-01 a       814     0    41     1    14
  1.3891360692522716E+00 a       815     0    41     1    15
 -2.3098016652994380E+00 a       816     0    41     1    16
  2.2024680668150665E-01 a       817     0    41     1    17
 -2.4108111145493525E+00 a       818     0    41     1    18
  8.2834681647417052E-01 a       819     0    41     1    19
 -8.7666164591954776E-01 a       820     0    41     1    20
  1.6624956630645369E+00 a       821     0    42     1     1
  1.9462885765128533E-02 a       822     0    42     1     2
 -9.6060703066809050E-01 a       823     0    42     1     3
 -2.2831750747941459E+00 a       824     0    42     1     4
  9.6543528154792863E-02 a       825     0    42     1     5
  2.2913820925987021E+00 a       826     0    42     1     6
  4.1230789138762436E+00 a       827     0    42     1     7
 -7.0442046594721197E-01 a       828     0    42     1     8
 -4.8556540604314363E-01 a       829     0    42     1     9
  1.1013146051874365E-01 a       830     0    42     1    10
 -4.3300206070918168E-01 a       831     0    42     1    11
 -3.6398502682401856E-01 a       832     0    42     1    12
  2.3485977205910076E+00 a       833     0    42     1    13
  1.4216030263023768E-01 a       834     0    42     1    14
 -1.0210845137311813E+00 a       835     0    42     1    15
  6.5453869919892294E-01 a       836     0    42     1    16
 -1.0474593278963409E+00 a       837     0    42     1    17
 -1.6879581746427661E+00 a       838     0    42     1    18
 -1.7976175380779749E+00 a       839     0    42     1    19
 -7.4435910699762919E-01 a       840     0    42     1    20
 -1.1095673540991131E+00 a       841     0    43     1     1
 -1.3335472225492988E+00 a       842     0    43     1     2
 -5.3906293459363019E-01 a       843     0    43     1     3
  9.7393906375899786E-01 a       844     0    43     1     4
 -1.4823082037726965E+00 a       845     0    43     1     5
 -3.7180910969058087E-03 a       846     0    43     1     6
  1.1808725552530377E+00 a       847     0    43     1     7
  6.7005314970632751E-02 a       848     0    43     1     8
 -1.2822694678348092E+00 a       849     0    43     1     9
  4.1444286024975147E-01 a       850     0    43     1    10
  1.8323193972542540E+00 a       851     0    43     1    11
  2.7358386588513472E-01 a       852     0    43     1    12
 -6.8453393747176883E-01 a       853     0    43     1    13
  2.1624229141631806E+00 a       854     0    43     1    14
 -2.0552700271559332E+00 a       855     0    43     1    15
  1.7531289809258908E+00 a       856     0    43     1    16
 -7.3541859276599530E-01 a       857     0    43     1    17
  7.5799287184841257E-01 a       858     0    43     1    18
  9.7604040920613011E-01 a       859     0    43     1    19
  1.6296943976092571E-01 a       860     0    43     1    20
  8.9655053190314318E-02 a       861     0    44     1     1
  2.3277190189487648E-01 a       862     0    44     1     2
  2.2643569047188666E-01 a       863     0    44     1     3
  1.3629434508184992E+00 a       864     0    44     1     4
  1.1052459264457204E+00 a       865     0    44     1     5
 -5.2321127202499285E-01 a       866     0    44     1     6
 -7.9851647050035846E-01 a       867     0    44     1     7
 -3.2646047617620674E-02 a       868     0    44     1     8
  8.3449785714638389E-02 a       869     0    44     1     9
  3.6614861720467251E-01 a       870     0    44     1    10
 -8.0578392391221498E-01 a       871     0    44     1    11
 -5.4710737352934558E-01 a       872     0    44     1    12
  5.0827540395522830E-01 a       873     0    44     1    13
  6.0746460622287342E-02 a       874     0    44     1    14
  2.4270750746491454E-01 a       875     0    44     1    15
  6.2871687279806343E-01 a       876     0    44     1    16
 -4.5476180904120406E-01 a       877     0    44     1    17
  2.6084421668386115E-01 a       878     0    44     1    18
 -1.1941170769637589E-01 a       879     0    44     1    19
 -4.9589914361593684E-02 a       880     0    44     1    20
  9.1463237338088066E-01 a       881     0    45     1     1
 -2.9040226424322418E-01 a       882     0    45     1     2
  1.7742882876711377E-01 a       883     0    45     1     3
  5.9591897150394613E-01 a       884     0    45     1     4
  3.4494408240037716E-01 a       885     0    45     1     5
 -6.5278270732653731E-01 a       886     0    45     1     6
 -3.0309066790017519E-01 a       887     0    45     1     7
 -2.9648099795049965E-01 a       888     0    45     1     8
  4.5376678308141682E-01 a       889     0    45     1     9
 -3.9998767407886499E-01 a       890     0    45     1    10
 -2.1911848241098586E-01 a       891     0    45     1    11
  7.9755178046925945E-02 a       892     0    45     1    12
 -4.5749680597367876E-01 a       893     0    45     1    13
 -3.2595346017003680E-02 a       894     0    45     1    14
  2.3689608927798692E-01 a       895     0    45     1    15
 -4.8321789335435045E-01 a       896     0    45     1    16
 -6.6061106761624555E-01 a       897     0    45     1    17
  2.3517938211761574E-01 a       898     0    45     1    18
  3.9330840121932409E-01 a       899     0    45     1    19
  7.3830755010105206E-02 a       900     0    45     1    20
 -6.8275572295377118E-01 a       901     0    46     1     1
  6.1303794723586247E+00 a       902     0    46     1     2
  1.8304706120678413E+00 a       903     0    46     1     3
 -1.2759416420242338E+00 a       904     0    46     1     4
 -1.9956225056303642E-01 a       905     0    46     1     5
  4.9352556380904783E-01 a       906     0    46     1     6
  5.7798750200710214E-01 a       907     0    46     1     7
  1.4348896547082077E+00 a       908     0    46     1     8
  1.6324033845916914E+00 a       909     0    46     1     9
  1.0373351886723219E+00 a       910     0    46     1    10
 -2.2926782104093180E+00 a       911     0    46     1    11
  1.5568178425462966E+00 a       912     0    46     1    12
 -2.8932631912354818E+00 a       913     0    46     1    13
  7.7174262327757004E-01 a       914     0    46     1    14
 -2.5289529007321625E+00 a       915     0    46     1    15
 -4.4895154482062019E+00 a       916     0    46     1    16
 -3.4751217466505326E+00 a       917     0    46     1    17
  4.7523071924788542E+00 a       918     0    46     1    18
 -2.9145428879683619E+00 a       919     0    46     1    19
 -3.4889798083391627E-02 a       920     0    46     1    20
  1.9446072956907012E-01 a       921     0    47     1     1
 -3.3993623496964598E+00 a       922     0    47     1     2
 -3.9435812200078552E-01 a       923     0    47     1     3
  1.9385352684687553E+00 a       924     0    47     1     4
 -1.5797415175239691E+00 a       925     0    47     1     5
  6.1950806094577426E-01 a       926     0    47     1     6
 -3.0592815632369850E+00 a       927     0    47     1     7
 -5.8576705253155872E+00 a       928     0    47     1     8
 -2.1627290959460921E+00 a       929     0    47     1     9
 -3.9220008707959919E+00 a       930     0    47     1    10
 -2.1618837490477292E+00 a       931     0    47     1    11
  8.9115169705448627E-01 a       932     0    47     1    12
  5.0539562364798600E+00 a       933     0    47     1    13
  1.2997938305688247E-01 a       934     0    47     1    14
  3.2455489378499252E+00 a       935     0    47     1    15
  3.5415150525470716E+00 a       936     0    47     1    16
 -1.6328406689756227E+00 a       937     0    47     1    17
 -1.3945332966529913E+00 a       938     0    47     1    18
 -5.1480887062072056E-01 a       939     0    47     1    19
  2.5718414773635856E+00 a       940     0    47     1    20
 -1.5638484577797371E+00 a       941     0    48     1     1
 -1.7517349741872243E-01 a       942     0    48     1     2
  2.8513050492580988E-02 a       943     0    48     1     3
  5.2251235611508340E-01 a       944     0    48     1     4
  2.2770992563034290E-01 a       945     0    48     1     5
 -1.2569198889851485E+00 a       946     0    48     1     6
 -4.0332941101758797E+00 a       947     0    48     1     7
  8.2403693890786261E-03 a       948     0    48     1     8
  4.2068786535075260E+00 a       949     0    48     1     9
 -1.7013897395372062E+00 a       950     0    48     1    10
 -1.1364497739126145E+00 a       951     0    48     1    11
 -1.4961632514237547E-01 a       952     0    48     1    12
 -1.0836597996354012E+00 a       953     0    48     1    13
  1.5991670064918531E+00 a       954     0    48     1    14
 -9.7554325702047295E-01 a       955     0    48     1    15
 -1.3547475230244821E+00 a       956     0    48     1    16
  1.6481142028114577E+00 a       957     0    48     1    17
 -3.7203689635217335E-01 a       958     0    48     1    18
  2.1359135383706254E+00 a       959     0    48     1    19
  7.9973243200584709E-01 a       960     0    48     1    20
 -1.2617291972335285E+00 a       961     0    49     1     1
 -1.2292734487917731E+00 a       962     0    49     1     2
  1.3522119334787834E+00 a       963     0    49     1     3
  3.2434978990090069E-01 a       964     0    49     1     4
  2.4114349402787298E+00 a       965     0    49     1     5
 -1.0350491613518910E-01 a       966     0    49     1     6
  2.0445936484171536E+00 a       967     0    49     1     7
  3.8606872216729924E+00 a       968     0    49     1     8
  2.6743591570753114E+00 a       969     0    49     1     9
  6.0290481369519777E-01 a       970     0    49     1    10
  3.6211930224714983E-01 a       971     0    49     1    11
 -3.2513551155895319E-02 a       972     0    49     1    12
 -3.1870800585573655E+00 a       973     0    49     1    13
 -7.5262920078485596E-01 a       974     0    49     1    14
  4.8326826556960736E+00 a       975     0    49     1    15
 -3.1834459725661501E+00 a       976     0    49     1    16
  6.8588787048847610E+00 a       977     0    49     1    17
  1.6608900144965835E+00 a       978     0    49     1    18
 -6.1474648972776782E+00 a       979     0    49     1    19
 -2.3331404563015892E+00 a       980     0    49     1    20
 -6.2283929383373082E-01 a       981     0    50     1     1
  2.0067889751064405E-01 a       982     0    50     1     2
  6.2652697155554227E-01 a       983     0    50     1     3
 -2.2250492548995968E+00 a       984     0    50     1     4
 -1.6628791312209377E+00 a       985     0    50     1     5
  8.4025435211856347E-01 a       986     0    50     1     6
 -5.8885305173101576E-01 a       987     0    50     1     7
  3.9040172488400460E-01 a       988     0    50     1     8
  2.7650784808387209E-02 a       989     0    50     1     9
  1.1051438607415415E-01 a       990     0    50     1    10
  2.0798876555444865E+00 a       991     0    50     1    11
  1.6092790775318759E+00 a       992     0    50     1    12
 -1.7229685126718457E+00 a       993     0    50     1    13
 -2.3473533605698027E-01 a       994     0    50     1    14
  4.9132035413751246E-01 a       995     0    50     1    15
 -1.9462155654595634E+00 a       996     0    50     1    16
  3.7959477244833267E-01 a       997     0    50     1    17
  3.3098109439915885E-01 a       998     0    50     1    18
  1.1124104086225224E+00 a       999     0    50     1    19
 -7.0015386983622774E-01 a      1000     0    50     1    20
 -9.6428702886837492E-01 a      1001     0    51     1     1
  3.0234162487929217E-01 a      1002     0    51     1     2
 -5.1862613842979244E-01 a      1003     0    51     1     3
 -3.2518813916961964E-01 a      1004     0    51     1     4
 -3.5751721172821510E-01 a      1005     0    51     1     5
 -7.3201582837006382E-02 a      1006     0    51     1     6
  1.0453929377296551E+00 a      1007     0    51     1     7
  9.3071911689726283E-01 a      1008     0    51     1     8
 -2.0284288201763152E+00 a      1009     0    51     1     9
  1.2379645048977514E+00 a      1010     0    51     1    10
  2.5886560771136463E-01 a      1011     0    51     1    11
 -4.6164259353263037E-01 a      1012     0    51     1    12
 -1.3996923587523563E-01 a      1013     0    51     1    13
 -6.5412488181277495E-01 a      1014     0    51     1    14
 -9.1910804706933291E-01 a      1015     0    51     1    15
  1.1406771170426058E+00 a      1016     0    51     1    16
  3.0657069081921601E-01 a      1017     0    51     1    17
 -3.9106765234262469E-01 a      1018     0    51     1    18
  5.4016621692156175E-01 a      1019     0    51     1    19
 -2.7659093847505339E-01 a      1020     0    51     1    20
  6.1145529942649963E+00 a      1021     0    52     1     1
  2.3806854065515393E+00 a      1022     0    52     1     2
  1.0387016275630165E+00 a      1023     0    52     1     3
 -1.2014563595196746E+00 a      1024     0    52     1     4
  3.6242931077115563E+00 a      1025     0    52     1     5
  4.6826279622063485E+00 a      1026     0    52     1     6
 -6.3802265449830049E+00 a      1027     0    52     1     7
  3.8743850686838610E-01 a      1028     0    52     1     8
 -2.0780158072030326E+00 a      1029     0    52     1     9
 -6.6462196319667877E-01 a      1030     0    52     1    10
  5.1994115915814056E+00 a      1031     0    52     1    11
  2.2524900806348608E-01 a      1032     0    52     1    12
 -2.9837984994006264E+00 a      1033     0    52     1    13
 -8.4030909525867492E-01 a      1034     0    52     1    14
 -4.2241014932704752E+00 a      1035     0    52     1    15
  2.8179415948336959E+00 a      1036     0    52     1    16
 -1.9661096265809499E+00 a      1037     0    52     1    17
 -5.2978680364544251E-01 a      1038     0    52     1    18
  1.3405051295103338E+00 a      1039     0    52     1    19
 -3.1149257848059761E+00 a      1040     0    52     1    20
 -1.2008861930710417E+00 a      1041     0    53     1     1
 -1.9586169836651794E+00 a      1042     0    53     1     2
  6.6783045208615888E-01 a      1043     0    53     1     3
  1.1745252881317576E+00 a      1044     0    53     1     4
 -4.9813387242114695E+00 a      1045     0    53     1     5
 -2.4818954452998456E+00 a      1046     0    53     1     6
  7.2958286771787817E+00 a      1047     0    53     1     7
 -3.7827606773502787E+00 a      1048     0    53     1     8
 -1.4986288176575352E-01 a      1049     0    53     1     9
  1.9905077764451919E+00 a      1050     0    53     1    10
  9.1571647447307961E-02 a      1051     0    53     1    11
 -1.4174088620708230E+00 a      1052     0    53     1    12
  5.9147500021397743E+00 a      1053     0    53     1    13
  5.0384257476159746E+00 a      1054     0    53     1    14
  1.0553807229250948E+01 a      1055     0    53     1    15
  4.0272708739742091E+00 a      1056     0    53     1    16
  4.3144122564220408E+00 a      1057     0    53     1    17
  3.4735625048510665E+00 a      1058     0    53     1    18
  2.2014532526557313E+00 a      1059     0    53     1    19
 -6.4657688653542988E-01 a      1060     0    53     1    20
 -2.7436893783756231E+00 a      1061     0    54     1     1
  4.2828789524628599E+00 a      1062     0    54     1     2
  5.7906191163672394E-01 a      1063     0    54     1     3
  2.8099313838439959E+00 a      1064     0    54     1     4
  5.7246918639330486E+00 a      1065     0    54     1     5
 -2.9110966794043631E+00 a      1066     0    54     1     6
  4.8665162524141228E-02 a      1067     0    54     1     7
  5.9566237503336783E+00 a      1068     0    54     1     8
 -5.9851221488566575E-01 a      1069     0    54     1     9
 -1.1033169466378032E-01 a      1070     0    54     1    10
 -6.6106071396995292E-01 a      1071     0    54     1    11
 -2.2630400662763708E+00 a      1072     0    54     1    12
 -4.2534844588334630E+00 a      1073     0    54     1    13
  2.5853570917203333E-01 a      1074     0    54     1    14
 -1.0459423939528536E+01 a      1075     0    54     1    15
 -6.8551452886672060E+00 a      1076     0    54     1    16
 -2.3130689755075666E+00 a      1077     0    54     1    17
 -3.7633255244144790E+00 a      1078     0    54     1    18
 -2.4899795421731867E+00 a      1079     0    54     1    19
 -3.2011159954907593E+00 a      1080     0    54     1    20
  3.7046430316743759E+00 a      1081     0    55     1     1
  3.2928884465343851E+00 a      1082     0    55     1     2
 -1.6505489604901706E+00 a      1083     0    55     1     3
  2.6932967426064822E+00 a      1084     0    55     1     4
 -4.7612816436404977E+00 a      1085     0    55     1     5
  3.2833094538949772E+00 a      1086     0    55     1     6
 -7.1137613814517922E+00 a      1087     0    55     1     7
 -3.8481294820510157E+00 a      1088     0    55     1     8
  1.0356550844585626E+00 a      1089     0    55     1     9
 -2.4187308316660530E+00 a      1090     0    55     1    10
  3.5337106182932678E+00 a      1091     0    55     1    11
  2.3878661064583877E+00 a      1092     0    55     1    12
  2.6526452810677004E+00 a      1093     0    55     1    13
 -1.6698687389174620E+00 a      1094     0    55     1    14
 -2.7958606621975788E+00 a      1095     0    55     1    15
  5.8858489549024560E+00 a      1096     0    55     1    16
 -9.1754860147236563E+00 a      1097     0    55     1    17
 -3.6837062738121022E+00 a      1098     0    55     1    18
 -2.4066757467467728E+00 a      1099     0    55     1    19
  4.5596831823625337E+00 a      1100     0    55     1    20
 -5.3825761063642022E-04 a      1101     0    56     1     1
 -1.4869953953858936E-01 a      1102     0    56     1     2
 -9.4838089198692177E-01 a      1103     0    56     1     3
  2.9124928460807733E+00 a      1104     0    56     1     4
  6.6451140573624945E-01 a      1105     0    56     1     5
 -1.0317287856201576E+00 a      1106     0    56     1     6
  1.4651776125452274E+00 a      1107     0    56     1     7
 -4.8001417193789214E-01 a      1108     0    56     1     8
 -1.9769806846670135E+00 a      1109     0    56     1     9
 -3.8505556195469609E-01 a      1110     0    56     1    10
 -2.1953254920958658E+00 a      1111     0    56     1    11
 -8.4926863930167495E-01 a      1112     0    56     1    12
  2.8627595084740491E+00 a      1113     0    56     1    13
  5.4601042996742799E-01 a      1114     0    56     1    14
 -9.8958883705117895E-01 a      1115     0    56     1    15
  2.1131398573143749E+00 a      1116     0    56     1    16
  2.6257518570215566E-01 a      1117     0    56     1    17
 -3.4423613935826219E-01 a      1118     0    56     1    18
 -1.8342511019983223E+00 a      1119     0    56     1    19
  4.8557157572575332E-01 a      1120     0    56     1    20
  6.7506723549947523E-01 a      1121     0    57     1     1
 -2.7968010147221400E-02 a      1122     0    57     1     2
  5.6101149645356752E-01 a      1123     0    57     1     3
 -5.1991041580180719E-01 a      1124     0    57     1     4
 -2.9769997964992662E-01 a      1125     0    57     1     5
  2.6011844489078972E-01 a      1126     0    57     1     6
 -3.3386501353378182E+00 a      1127     0    57     1     7
  3.9650216456797307E+00 a      1128     0    57     1     8
  2.3838222737625259E+00 a      1129     0    57     1     9
 -1.2775908716556534E+00 a      1130     0    57     1    10
 -2.9077703598530286E-01 a      1131     0    57     1    11
  1.7039730635542388E-01 a      1132     0    57     1    12
 -3.1447791787360675E+00 a      1133     0    57     1    13
 -3.8553081278558268E+00 a      1134     0    57     1    14
 -6.6830833623094259E+00 a      1135     0    57     1    15
 -1.3456015792773213E+00 a      1136     0    57     1    16
 -2.8995633124662357E+00 a      1137     0    57     1    17
 -4.1526983559550725E+00 a      1138     0    57     1    18
 -3.1795408804938163E+00 a      1139     0    57     1    19
  3.7442580099987133E+00 a      1140     0    57     1    20
  2.1747659255024743E-01 a      1141     0    58     1     1
 -2.5066867301174471E+00 a      1142     0    58     1     2
  2.1428350833575189E+00 a      1143     0    58     1     3
 -1.5643743809527235E+00 a      1144     0    58     1     4
  6.0756412281073080E-01 a      1145     0    58     1     5
  2.4432102004300416E+00 a      1146     0    58     1     6
 -1.3009875352730058E+00 a      1147     0    58     1     7
 -1.8845229113096074E+00 a      1148     0    58     1     8
  7.5329085375031291E-01 a      1149     0    58     1     9
 -1.7074317204958460E+00 a      1150     0    58     1    10
 -2.4935154416547686E-01 a      1151     0    58     1    11
  1.0515152763215549E+00 a      1152     0    58     1    12
  3.2321493489388944E+00 a      1153     0    58     1    13
 -7.3067192091847721E-01 a      1154     0    58     1    14
  4.2887421206097533E+00 a      1155     0    58     1    15
  5.2856743565335300E+00 a      1156     0    58     1    16
  2.4371822007032140E+00 a      1157     0    58     1    17
  1.1864838686321839E+00 a      1158     0    58     1    18
  2.4167587374314228E+00 a      1159     0    58     1    19
  1.8787503685652969E+00 a      1160     0    58     1    20
 -2.9520235449417505E+00 a      1161     0    59     1     1
  5.4434320402761013E-02 a      1162     0    59     1     2
  4.5983009576317568E-01 a      1163     0    59     1     3
 -1.3866197518077796E+00 a      1164     0    59     1     4
  3.4301461138837036E-01 a      1165     0    59     1     5
 -5.5851041789738043E-01 a      1166     0    59     1     6
 -1.0670111660954236E+00 a      1167     0    59     1     7
 -1.4201141519410669E+00 a      1168     0    59     1     8
 -3.9639593097012487E+00 a      1169     0    59     1     9
  1.3672851598834221E-01 a      1170     0    59     1    10
 -2.9024488648206709E-01 a      1171     0    59     1    11
  6.1550407753380199E-01 a      1172     0    59     1    12
  2.6228709539705197E+00 a      1173     0    59     1    13
 -4.5977419724271795E-01 a      1174     0    59     1    14
 -3.6335512583176816E-01 a      1175     0    59     1    15
 -8.9302862425705884E-02 a      1176     0    59     1    16
 -4.1889084131770993E-01 a      1177     0    59     1    17
  2.3162135934130039E+00 a      1178     0    59     1    18
  1.2540890802455034E+00 a      1179     0    59     1    19
 -5.6122516721148130E-01 a      1180     0    59     1    20
 -6.5432255765367717E+00 a      1181     0    60     1     1
  2.4598967515825696E+00 a      1182     0    60     1     2
  5.6677195947260968E+00 a      1183     0    60     1     3
  3.2179435988007286E+00 a      1184     0    60     1     4
 -2.3433283753532956E+00 a      1185     0    60     1     5
 -4.6622327707839419E+00 a      1186     0    60     1     6
  6.0749860036911780E+00 a      1187     0    60     1     7
 -3.1864639187756976E+00 a      1188     0    60     1     8
  1.1200585379307337E+00 a      1189     0    60     1     9
  3.6197856666117225E+00 a      1190     0    60     1    10
 -5.2888182553325480E+00 a      1191     0    60     1    11
 -8.3276652516724656E+00 a      1192     0    60     1    12
 -1.0892503268500855E+00 a      1193     0    60     1    13
  2.5742605182125020E+00 a      1194     0    60     1    14
 -2.3757376068099347E+00 a      1195     0    60     1    15
 -1.8390291066123303E+00 a      1196     0    60     1    16
  5.7708615184486119E-02 a      1197     0    60     1    17
  3.2090916297192579E-01 a      1198     0    60     1    18
  3.6443785351932361E+00 a      1199     0    60     1    19
  3.1395721732874649E-01 a      1200     0    60     1    20
  7.9601542150400473E-01 a      1201     0    61     1     1
 -4.6988650318894293E-02 a      1202     0    61     1     2
 -1.1342055883984634E+00 a      1203     0    61     1     3
 -1.9171356378601574E+00 a      1204     0    61     1     4
  2.7413145600027367E-01 a      1205     0    61     1     5
  1.5130166719153981E+00 a      1206     0    61     1     6
  5.2579485986760255E-01 a      1207     0    61     1     7
  6.3509456801231892E-02 a      1208     0    61     1     8
  2.1821947793391181E+00 a      1209     0    61     1     9
  2.0098326791397308E-01 a      1210     0    61     1    10
 -6.0876511456588378E-01 a      1211     0    61     1    11
 -1.2711783033801902E+00 a      1212     0    61     1    12
 -1.9368208713378849E+00 a      1213     0    61     1    13
 -4.6568276579998186E-01 a      1214     0    61     1    14
  4.6408588895869585E-01 a      1215     0    61     1    15
 -1.1397196172406762E-01 a      1216     0    61     1    16
 -3.1628772986476422E-01 a      1217     0    61     1    17
 -1.4707005180223578E+00 a      1218     0    61     1    18
  5.3124429230081827E-01 a      1219     0    61     1    19
  7.5448619776973247E-01 a      1220     0    61     1    20
  3.8528896399268753E-01 a      1221     0    62     1     1
 -1.1406243660808397E+00 a      1222     0    62     1     2
 -2.6292987682393281E+00 a      1223     0    62     1     3
  5.2034507023375642E-01 a      1224     0    62     1     4
 -8.4269132860607587E-01 a      1225     0    62     1     5
  9.1996783917091784E-01 a      1226     0    62     1     6
 -1.5813911420781486E+00 a      1227     0    62     1     7
 -8.8818339091888121E-01 a      1228     0    62     1     8
  2.4904177111469621E+00 a      1229     0    62     1     9
 -7.1817503926807269E-01 a      1230     0    62     1    10
  7.3000316175370283E-01 a      1231     0    62     1    11
 -2.1129763768911519E-01 a      1232     0    62     1    12
 -3.4198045407884519E+00 a      1233     0    62     1    13
  7.5491960064637464E-01 a      1234     0    62     1    14
  4.0799033687723316E+00 a      1235     0    62     1    15
 -1.4965110541156723E+00 a      1236     0    62     1    16
  2.2782419477297484E+00 a      1237     0    62     1    17
 -4.7354229048186265E-02 a      1238     0    62     1    18
 -1.9023737951216027E+00 a      1239     0    62     1    19
  1.0775848281543277E+00 a      1240     0    62     1    20
  2.9726960525771404E+00 a      1241     0    63     1     1
  7.7151853453216590E-01 a      1242     0    63     1     2
 -1.8880854461032786E+00 a      1243     0    63     1     3
 -3.9749021152153598E-02 a      1244     0    63     1     4
  2.8827403877066131E+00 a      1245     0    63     1     5
  2.6522841795289445E+00 a      1246     0    63     1     6
  4.0338601065698609E-01 a      1247     0    63     1     7
 -1.3789078080147723E+00 a      1248     0    63     1     8
  1.0184830693618438E-01 a      1249     0    63     1     9
 -6.2096500829961314E-02 a      1250     0    63     1    10
  6.6445919354104186E+00 a      1251     0    63     1    11
 -6.2932541786444318E-01 a      1252     0    63     1    12
 -2.9003592786805532E+00 a      1253     0    63     1    13
 -1.4710003484763672E+00 a      1254     0    63     1    14
 -6.8375693431238904E-01 a      1255     0    63     1    15
 -9.8662979747027368E-02 a      1256     0    63     1    16
  1.5007551024865429E+00 a      1257     0    63     1    17
 -5.0675754942048057E+00 a      1258     0    63     1    18
 -2.5582612821174808E+00 a      1259     0    63     1    19
 -3.4570854361380881E+00 a      1260     0    63     1    20
 -2.1525025848841368E+00 a      1261     0    64     1     1
 -2.2598019923755581E+00 a      1262     0    64     1     2
 -1.3452414331457550E+00 a      1263     0    64     1     3
 -1.0544334337567560E+00 a      1264     0    64     1     4
 -8.3115268469689563E-01 a      1265     0    64     1     5
 -2.9046400734153865E-01 a      1266     0    64     1     6
 -7.0212353116636839E-01 a      1267     0    64     1     7
 -1.2229111001749284E+00 a      1268     0    64     1     8
  1.0306928302692910E+00 a      1269     0    64     1     9
  4.0434185278092709E+00 a      1270     0    64     1    10
 -4.4795051871501537E+00 a      1271     0    64     1    11
  1.0685348177183969E+00 a      1272     0    64     1    12
  2.0368573946804855E+00 a      1273     0    64     1    13
  6.6378332005377705E-01 a      1274     0    64     1    14
 -1.5758764251079971E+00 a      1275     0    64     1    15
  5.5011101162391218E-01 a      1276     0    64     1    16
 -2.7521101731492520E-01 a      1277     0    64     1    17
  7.4521366758302072E+00 a      1278     0    64     1    18
  9.9839256805020971E-01 a      1279     0    64     1    19
  1.7548593582058425E+00 a      1280     0    64     1    20
  5.3035818617611441E-01 b      1281     1     1
 -1.5661556279895258E-01 b      1282     1     2
 -4.9627919654049529E-01 b      1283     1     3
  5.9274802667260174E-01 b      1284     1     4
  8.0014451789142252E-02 b      1285     1     5
 -2.2433629061771743E-01 b      1286     1     6
 -6.3732363082284402E-02 b      1287     1     7
  5.6556445410859602E-01 b      1288     1     8
 -3.7803972573086914E-01 b      1289     1     9
 -5.7518933091245568E-03 b      1290     1    10
 -4.8130876913256765E-01 b      1291     1    11
 -8.4974401421933118E-02 b      1292     1    12
 -7.9527733650613286E-01 b      1293     1    13
 -5.2873558912926188E-01 b      1294     1    14
  4.0162407093036240E-01 b      1295     1    15
 -1.0200173895088802E-02 b      1296     1    16
  1.7960737003472584E-02 b      1297     1    17
  2.1754618834326939E-01 b      1298     1    18
  7.1495342361199132E-01 b      1299     1    19
  2.0219025203684693E-01 b      1300     1    20
  7.3026930879419027E-01 a      1301     1     1     2     1
 -7.2986529267887490E-01 a      1302     1     1     2     2
 -2.1487808417499454E-01 a      1303     1     1     2     3
 -7.7448606417105903E-01 a      1304     1     1     2     4
 -8.8186419807925487E-01 a      1305     1     1     2     5
 -1.2908211907911027E+00 a      1306     1     1     2     6
 -3.3212044191864870E-01 a      1307     1     1     2     7
 -1.1964107446232870E-01 a      1308     1     1     2     8
  7.4017012088397038E-01 a      1309     1     1     2     9
  1.3918911315496010E+00 a      1310     1     1     2    10
 -5.0218642516831569E-01 a      1311     1     1     2    11
  1.1302283228191037E+00 a      1312     1     1     2    12
 -6.0849687608509262E-01 a      1313     1     1     2    13
  1.4322899578503900E+00 a      1314     1     1     2    14
 -5.8345647368153342E-01 a      1315     1     1     2    15
  2.3921830424535107E-01 a      1316     1     1     2    16
  2.3737729350680198E-01 a      1317     1     1     2    17
  1.2655334615596008E+00 a      1318     1     1     2    18
 -1.1955306683715237E-01 a      1319     1     1     2    19
  1.8086646766975836E+00 a      1320     1     1     2    20
 -2.0361543724628667E-01 a      1321     1     2     2     1
 -7.5338561164124540E-01 a      1322     1     2     2     2
 -1.0080770668499439E+00 a      1323     1     2     2     3
 -3.4958637738197573E-01 a      1324     1     2     2     4
 -5.1502259794414196E-02 a      1325     1     2     2     5
  1.0061509380696962E+00 a      1326     1     2     2     6
  6.4190497143294600E-01 a      1327     1     2     2     7
  2.5800167801771109E-04 a      1328     1     2     2     8
  4.8390860867657576E-01 a      1329     1     2     2     9
  1.0454751329321478E-01 a      1330     1     2     2    10
 -1.8655768060632711E+00 a      1331     1     2     2    11
 -1.5096945733263798E+00 a      1332     1     2     2    12
  7.0027782110299341E-01 a      1333     1     2     2    13
 -1.4138345854910783E-01 a      1334     1     2     2    14
 -3.6969719287803660E-01 a      1335     1     2     2    15
  2.7267226908370534E+00 a      1336     1     2     2    16
  1.2688756360734493E-01 a      1337     1     2     2    17
  2.0438993530896268E-01 a      1338     1     2     2    18
 -4.2070568460384622E-01 a      1339     1     2     2    19
  9.1960239056653692E-01 a      1340     1     2     2    20
 -1.0256127223769917E+00 a      1341     1     3     2     1
  5.0525424829454368E-01 a      1342     1     3     2     2
  6.8870278160216281E-01 a      1343     1     3     2     3
 -4.0010727356234885E-02 a      1344     1     3     2     4
  6.1313186095495339E-02 a      1345     1     3     2     5
  4.9258908001359319E-01 a      1346     1     3     2     6
 -1.5088874502902307E+00 a      1347     1     3     2     7
  1.7233198513351229E+00 a      1348     1     3     2     8
 -8.2494405648160032E-02 a      1349     1     3     2     9
 -1.1287738320100986E+00 a      1350     1     3     2    10
 -4.1898127220203536E-02 a      1351     1     3     2    11
 -3.8286805335170127E-01 a      1352     1     3     2    12
  4.2265764431251338E-02 a      1353     1     3     2    13
 -1.5574300972964004E+00 a      1354     1     3     2    14
 -1.9168888128629682E-02 a      1355     1     3     2    15
  1.0507035493172872E+00 a      1356     1     3     2    16
  2.9962237929052865E-01 a      1357     1     3     2    17
 -1.4185838455057440E-01 a      1358     1     3     2    18
  6.5999294272436837E-01 a      1359     1     3     2    19
 -1.2107458210991575E+00 a      1360     1     3     2    20
  1.8936808621779957E-01 a      1361     1     4     2     1
  6.6509235894690016E-02 a      1362     1     4     2     2
 -3.3357918970711398E-01 a      1363     1     4     2     3
 -8.3889158997307839E-02 a      1364     1     4     2     4
 -6.1555046769265043E-02 a      1365     1     4     2     5
  2.6846623911464434E-01 a      1366     1     4     2     6
 -1.4618679998506370E+00 a      1367     1     4     2     7
  6.4490422312303819E-01 a      1368     1     4     2     8
 -1.0200918184993100E+00 a      1369     1     4     2     9
 -2.7017321712417650E+00 a      1370     1     4     2    10
 -1.0255186075528355E+00 a      1371     1     4     2    11
  6.8724885324952523E-01 a      1372     1     4     2    12
 -6.1572394418187279E-02 a      1373     1     4     2    13
  6.5803070742946568E-01 a      1374     1     4     2    14
 -1.2680593881738078E+00 a      1375     1     4     2    15
  9.8830194419807227E-02 a      1376     1     4     2    16
  1.8470181392294702E+00 a      1377     1     4     2    17
 -1.4831794296016412E+00 a      1378     1     4     2    18
  4.2691862968586201E-02 a      1379     1     4     2    19
 -1.5620477837275055E+00 a      1380     1     4     2    20
  1.2498350258324114E+00 a      1381     1     5     2     1
 -1.9348973676502496E-01 a      1382     1     5     2     2
  9.4028472257358198E-01 a      1383     1     5     2     3
  2.9505484424815515E-01 a      1384     1     5     2     4
  7.5983312746510312E-01 a      1385     1     5     2     5
  1.1717246729755637E+00 a      1386     1     5     2     6
  1.0611957433898542E+00 a      1387     1     5     2     7
 -2.9886758095082771E-02 a      1388     1     5     2     8
 -1.1061436312250086E+00 a      1389     1     5     2     9
 -1.8471303941995754E-02 a      1390     1     5     2    10
 -6.5536243834873803E-02 a      1391     1     5     2    11
  2.7082162863410385E-02 a      1392     1     5     2    12
 -6.7971519108206990E-01 a      1393     1     5     2    13
 -1.0627118565668521E+00 a      1394     1     5     2    14
  1.6518046206417334E+00 a      1395     1     5     2    15
 -2.9996034260856669E-01 a      1396     1     5     2    16
 -1.8333032517572496E+00 a      1397     1     5     2    17
 -1.4830913850926175E+00 a      1398     1     5     2    18
  5.3111144153471812E-01 a      1399     1     5     2    19
 -6.2600901646160709E-02 a      1400     1     5     2    20
 -5.7074898681170133E-02 a      1401     1     6     2     1
 -2.3243918769604563E-02 a      1402     1     6     2     2
 -6.3524235083350145E-01 a      1403     1     6     2     3
 -1.1221071411861784E-01 a      1404     1     6     2     4
 -2.9853256773468623E-01 a      1405     1     6     2     5
 -1.0827745631556802E+00 a      1406     1     6     2     6
  7.1567703074983402E-01 a      1407     1     6     2     7
  1.1193844048795141E+00 a      1408     1     6     2     8
  2.7894986481855788E-02 a      1409     1     6     2     9
  1.6350003488905436E+00 a      1410     1     6     2    10
  7.5512473039812478E-01 a      1411     1     6     2    11
  1.3814152191005302E+00 a      1412     1     6     2    12
  3.3791138797952358E-01 a      1413     1     6     2    13
  8.0352910523426385E-02 a      1414     1     6     2    14
  8.9011268201497307E-01 a      1415     1     6     2    15
  1.1019149995778961E+00 a      1416     1     6     2    16
  8.6650069023032940E-03 a      1417     1     6     2    17
  4.1357207418295100E-01 a      1418     1     6     2    18
  6.4544033581061888E-01 a      1419     1     6     2    19
  9.6053617211780218E-01 a      1420     1     6     2    20
 -2.1158737975440098E-01 a      1421     1     7     2     1
 -4.8118538189962484E-01 a      1422     1     7     2     2
  8.4032453886729752E-01 a      1423     1     7     2     3
  1.4408435340165099E-01 a      1424     1     7     2     4
  7.2182235582359111E-01 a      1425     1     7     2     5
  2.1333082093320073E+00 a      1426     1     7     2     6
  3.1139237220688532E-01 a      1427     1     7     2     7
  2.6665867488811185E-01 a      1428     1     7     2     8
 -8.9433633128355561E-02 a      1429     1     7     2     9
  1.8638087837858632E+00 a      1430     1     7     2    10
  1.5954717373684939E+00 a      1431     1     7     2    11
  3.5563229834652788E-01 a      1432     1     7     2    12
 -1.6631044695382396E-01 a      1433     1     7     2    13
 -9.2157529273913219E-01 a      1434     1     7     2    14
  6.1685783253572701E-01 a      1435     1     7     2    15
 -5.4531418833200884E-01 a      1436     1     7     2    16
 -4.2712225234341566E-01 a      1437     1     7     2    17
  3.5483763626934645E-01 a      1438     1     7     2    18
  3.8700963034846875E-01 a      1439     1     7     2    19
  4.8645863876297013E-01 a      1440     1     7     2    20
 -5.6870978406454074E-02 a      1441     1     8     2     1
 -2.4418481570846016E+00 a      1442     1     8     2     2
  1.0785307041709926E+00 a      1443     1     8     2     3
  5.5297087793711297E-01 a      1444     1     8     2     4
  1.1502926639332700E+00 a      1445     1     8     2     5
 -2.9632121639660353E-01 a      1446     1     8     2     6
  1.9439862329221260E+00 a      1447     1     8     2     7
 -1.8447130509285101E+00 a      1448     1     8     2     8
 -1.2946880598400295E-01 a      1449     1     8     2     9
  2.2310427724261763E+00 a      1450     1     8     2    10
  2.0705149335556397E-01 a      1451     1     8     2    11
  1.5701421881371560E+00 a      1452     1     8     2    12
 -1.4444738277607836E+00 a      1453     1     8     2    13
 -2.1499113559322669E-01 a      1454     1     8     2    14
  2.1881828239024710E+00 a      1455     1     8     2    15
  1.1261588455517377E-02 a      1456     1     8     2    16
 -2.4321975113639218E+00 a      1457     1     8     2    17
  3.8368882884236782E-01 a      1458     1     8     2    18
 -4.9892286453547124E-01 a      1459     1     8     2    19
  2.9065738848153502E+00 a      1460     1     8     2    20
 -4.5594072219450854E-01 a      1461     1     9     2     1
 -2.7582437407311821E-02 a      1462     1     9     2     2
 -9.0901054034594142E-01 a      1463     1     9     2     3
  3.7310573454022840E-02 a      1464     1     9     2     4
 -6.1624383123013837E-03 a      1465     1     9     2     5
  8.7133118421726041E-01 a      1466     1     9     2     6
  8.2184413828019420E-01 a      1467     1     9     2     7
 -7.7395464064116304E-01 a      1468     1     9     2     8
  6.4384864957111165E-01 a      1469     1     9     2     9
  6.8154016292333930E-01 a      1470     1     9     2    10
 -1.3292790598144557E+00 a      1471     1     9     2    11
 -1.4345898352387726E-02 a      1472     1     9     2    12
 -1.4533475793872492E+00 a      1473     1     9     2    13
  5.8988717701378635E-01 a      1474     1     9     2    14
 -9.6730680544883083E-02 a      1475     1     9     2    15
  1.0490946463987434E+00 a      1476     1     9     2    16
  8.8459206988053962E-01 a      1477     1     9     2    17
 -1.1196654941250623E+00 a      1478     1     9     2    18
 -1.1415321191715692E-01 a      1479     1     9     2    19
  3.3018062166726297E-01 a      1480     1     9     2    20
 -1.6119766913487116E-01 a      1481     1    10     2     1
 -1.8657209175888256E-01 a      1482     1    10     2     2
 -4.2114500314652908E-01 a      1483     1    10     2     3
  4.4633964410378230E-02 a      1484     1    10     2     4
  5.0270806046877392E-01 a      1485     1    10     2     5
  1.3594484480851277E+00 a      1486     1    10     2     6
  6.8617894770837062E-01 a      1487     1    10     2     7
 -1.8902179945487381E+00 a      1488     1    10     2     8
  9.5939019151955385E-01 a      1489     1    10     2     9
  7.5022068496259231E-01 a      1490     1    10     2    10
 -9.8998916729975783E-01 a      1491     1    10     2    11
 -1.0886641302463045E-01 a      1492     1    10     2    12
  6.8903953477314484E-01 a      1493     1    10     2    13
  2.7671059511660323E-01 a      1494     1    10     2    14
  3.3953811569661907E-01 a      1495     1    10     2    15
  6.5488610914524137E-01 a      1496     1    10     2    16
 -3.1548967936660816E-01 a      1497     1    10     2    17
 -5.6570905894386880E-01 a      1498     1    10     2    18
  4.2067080660516143E-01 a      1499     1    10     2    19
  8.5328264105092533E-01 a      1500     1    10     2    20
  1.0712116969264887E+00 a      1501     1    11     2     1
 -3.0576293906142299E-01 a      1502     1    11     2     2
  1.2125461878359873E+00 a      1503     1    11     2     3
 -8.8853673880144368E-01 a      1504     1    11     2     4
 -6.8265082015126932E-01 a      1505     1    11     2     5
  2.8114974888332929E-02 a      1506     1    11     2     6
  7.4987682005335865E-01 a      1507     1    11     2     7
  2.7900494640116635E-01 a      1508     1    11     2     8
 -9.7232929953587488E-01 a      1509     1    11     2     9
  7.5508216536828843E-01 a      1510     1    11     2    10
  1.2360947041489918E+00 a      1511     1    11     2    11
  1.3911004580593134E+00 a      1512     1    11     2    12
 -1.1241485704308540E+00 a      1513     1    11     2    13
 -1.6231923166612303E-01 a      1514     1    11     2    14
  9.0491071326959804E-01 a      1515     1    11     2    15
 -1.1982578988612516E+00 a      1516     1    11     2    16
  1.5209731961608103E-01 a      1517     1    11     2    17
  1.9254594377361539E-01 a      1518     1    11     2    18
  8.3762295941987253E-02 a      1519     1    11     2    19
  4.5306954906689345E-01 a      1520     1    11     2    20
 -4.8395480595675272E-01 a      1521     1    12     2     1
  3.9706033309113420E-01 a      1522     1    12     2     2
  5.9323354927709193E-01 a      1523     1    12     2     3
  2.2153438002725534E-01 a      1524     1    12     2     4
 -3.1447801520231422E-01 a      1525     1    12     2     5
 -9.5283531994480108E-01 a      1526     1    12     2     6
 -2.5047700752137464E-01 a      1527     1    12     2     7
 -1.1746684490948771E+00 a      1528     1    12     2     8
  2.4165057650229368E-01 a      1529     1    12     2     9
  1.8910921528869675E+00 a      1530     1    12     2    10
  6.9360268705752370E-01 a      1531     1    12     2    11
 -9.8318797666646440E-01 a      1532     1    12     2    12
 -1.5328416716443871E-01 a      1533     1    12     2    13
 -3.1255032871239208E-01 a      1534     1    12     2    14
 -3.0083900647227674E-01 a      1535     1    12     2    15
 -4.3235953180075426E-01 a      1536     1    12     2    16
 -5.1098616986297918E-01 a      1537     1    12     2    17
  8.7827676284745315E-01 a      1538     1    12     2    18
 -4.9551102655887136E-02 a      1539     1    12     2    19
  1.0552691258306384E+00 a      1540     1    12     2    20
 -1.5292930962456641E-01 a      1541     1    13     2     1
  9.9334599807822654E-01 a      1542     1    13     2     2
  9.9612835211408579E-01 a      1543     1    13     2     3
 -3.9807200847847546E-01 a      1544     1    13     2     4
 -1.5219505872866146E+00 a      1545     1    13     2     5
 -7.9075925107144396E-02 a      1546     1    13     2     6
 -2.5371064973846367E+00 a      1547     1    13     2     7
  2.4213510208373630E+00 a      1548     1    13     2     8
  1.0714184081127185E+00 a      1549     1    13     2     9
 -1.4395777101298690E+00 a      1550     1    13     2    10
  3.7302615479288819E+00 a      1551     1    13     2    11
 -3.6616349513239105E-01 a      1552     1    13     2    12
  2.8132616896316642E-02 a      1553     1    13     2    13
  9.8485204196018838E-01 a      1554     1    13     2    14
 -8.4583536553992467E-01 a      1555     1    13     2    15
 -2.6632867379372360E+00 a      1556     1    13     2    16
  1.4767208260152079E-01 a      1557     1    13     2    17
  4.8345952380228735E-01 a      1558     1    13     2    18
 -1.1216078687291016E+00 a      1559     1    13     2    19
 -8.6161774698416138E-01 a      1560     1    13     2    20
  5.5384564765622979E-01 a      1561     1    14     2     1
 -7.7001032906990485E-01 a      1562     1    14     2     2
  4.4007118621367447E-01 a      1563     1    14     2     3
 -6.2625486901477656E-01 a      1564     1    14     2     4
 -3.9925672747699026E-01 a      1565     1    14     2     5
  1.7328953467516719E-01 a      1566     1    14     2     6
  1.0229025925446871E+00 a      1567     1    14     2     7
  2.7599878214515686E-04 a      1568     1    14     2     8
 -1.1847760424407887E-01 a      1569     1    14     2     9
  1.0599889152361781E-01 a      1570     1    14     2    10
 -7.6596362907759896E-02 a      1571     1    14     2    11
 -2.6256427762728340E-01 a      1572     1    14     2    12
 -6.0645536219192953E-01 a      1573     1    14     2    13
  2.1812092654614795E-01 a      1574     1    14     2    14
 -1.8249147794184498E-01 a      1575     1    14     2    15
  2.2980480988068802E-01 a      1576     1    14     2    16
 -8.1006969754039948E-01 a      1577     1    14     2    17
  4.9027871742560591E-01 a      1578     1    14     2    18
 -4.4097324242140112E-01 a      1579     1    14     2    19
  4.3732330209526965E-01 a      1580     1    14     2    20
 -3.6020373020415514E-01 a      1581     1    15     2     1
  6.9416960057633137E-01 a      1582     1    15     2     2
  2.4168176393605640E+00 a      1583     1    15     2     3
  4.7404892300989689E-02 a      1584     1    15     2     4
 -1.4474764097906512E+00 a      1585     1    15     2     5
  2.6020899043627715E-01 a      1586     1    15     2     6
  8.6278404272100995E-01 a      1587     1    15     2     7
  8.2489026087992412E-01 a      1588     1    15     2     8
  1.7927000346427957E+00 a      1589     1    15     2     9
  1.2176961127435948E+00 a      1590     1    15     2    10
  4.4577546065726885E+00 a      1591     1    15     2    11
  4.4594558972983489E-01 a      1592     1    15     2    12
 -2.1647273642376708E+00 a      1593     1    15     2    13
  1.7134270662777351E-01 a      1594     1    15     2    14
  2.3674331387342359E-01 a      1595     1    15     2    15
 -1.8545906485787742E+00 a      1596     1    15     2    16
 -5.0975919474198139E-01 a      1597     1    15     2    17
  1.4063030301065804E+00 a      1598     1    15     2    18
 -1.2334385660246049E-01 a      1599     1    15     2    19
  3.4778031496876899E-01 a      1600     1    15     2    20
 -1.4663826106115276E-02 a      1601     1    16     2     1
  1.6504353390337332E+00 a      1602     1    16     2     2
 -2.8853878481590706E-01 a      1603     1    16     2     3
 -6.0817238315184929E-01 a      1604     1    16     2     4
 -1.1875390733482218E+00 a      1605     1    16     2     5
 -5.9146639762187192E-01 a      1606     1    16     2     6
  3.3948501873127528E-02 a      1607     1    16     2     7
  1.1075210964937765E+00 a      1608     1    16     2     8
 -1.5991509741494978E-01 a      1609     1    16     2     9
 -3.9918709490035398E-01 a      1610     1    16     2    10
 -1.9467235367663724E+00 a      1611     1    16     2    11
  1.5075160597075352E-01 a      1612     1    16     2    12
 -8.4450452685468969E-02 a      1613     1    16     2    13
  7.5981923162211806E-02 a      1614     1    16     2    14
 -2.8122041203530707E-01 a      1615     1    16     2    15
  1.6455308773291042E+00 a      1616     1    16     2    16
  1.8888769097812672E-01 a      1617     1    16     2    17
  8.1062813323034277E-01 a      1618     1    16     2    18
 -1.1252022128740531E+00 a      1619     1    16     2    19
 -7.1422018313055113E-01 a      1620     1    16     2    20
  1.2200126018128681E+00 a      1621     1    17     2     1
 -7.2768896267084715E-02 a      1622     1    17     2     2
  3.0418145402835690E+00 a      1623     1    17     2     3
  5.3480449723843226E-01 a      1624     1    17     2     4
  4.5902872462147237E-01 a      1625     1    17     2     5
  1.4590051437202201E+00 a      1626     1    17     2     6
 -2.3439998293978748E-01 a      1627     1    17     2     7
