################################################################################
# Neural network connection values (weights and biases).
################################################################################
# Col  Name       Description
################################################################################
# 1    connection Neural network connection value.
# 2    t          Connection type (a = weight, b = bias).
# 3    index      Index enumerating weights.
# 4    l_s        Starting point layer (end point layer for biases).
# 5    n_s        Starting point neuron in starting layer (end point neuron for biases).
# 6    l_e        End point layer.
# 7    n_e        End point neuron in end layer.
################################################################################
#                      1 2         3     4     5     6     7
#             connection t     index   l_s   n_s   l_e   n_e
############################################################
 -2.6677563297337320E-01 a         1     0     1     1     1
  2.5091188666608349E-01 a         2     0     1     1     2
  1.5429292727945360E-01 a         3     0     1     1     3
  8.2068179593778517E-02 a         4     0     1     1     4
  1.3716978401975974E-01 a         5     0     1     1     5
  8.2169054604951844E-02 a         6     0     1     1     6
  1.3849452573911036E-01 a         7     0     1     1     7
  2.8429381643610838E-02 a         8     0     1     1     8
 -1.0181945009956737E-01 a         9     0     1     1     9
 -5.1391222718353657E-01 a        10     0     1     1    10
 -1.7072276293818401E-02 a        11     0     1     1    11
  1.2815018127640085E-01 a        12     0     1     1    12
  1.6059108634916258E-01 a        13     0     1     1    13
 -4.2127812380954771E-01 a        14     0     1     1    14
 -1.4649436085434370E-02 a        15     0     1     1    15
  2.3219919086157340E-01 a        16     0     1     1    16
 -9.4971506153737673E-02 a        17     0     1     1    17
 -6.4624938980580762E-02 a        18     0     1     1    18
  3.2087239233747955E-01 a        19     0     1     1    19
 -8.0560029416663778E-02 a        20     0     1     1    20
 -9.4665854268806984E-02 a        21     0     2     1     1
  5.1165552672616921E-01 a        22     0     2     1     2
  2.2760003897056758E-01 a        23     0     2     1     3
 -1.6639576959000457E-01 a        24     0     2     1     4
 -8.8668267698781278E-02 a        25     0     2     1     5
  1.0353168527378598E-01 a        26     0     2     1     6
  3.1491146415600824E-01 a        27     0     2     1     7
 -1.7905250870161993E-01 a        28     0     2     1     8
  7.4679027801041672E-02 a        29     0     2     1     9
 -6.7253527838469129E-01 a        30     0     2     1    10
 -2.8312112835009384E-01 a        31     0     2     1    11
  5.0435100727996185E-01 a        32     0     2     1    12
  4.8840943020792282E-03 a        33     0     2     1    13
 -5.1452680413906127E-01 a        34     0     2     1    14
 -3.7838346875403051E-02 a        35     0     2     1    15
  1.5970443725656747E-01 a        36     0     2     1    16
 -3.7102105682820109E-02 a        37     0     2     1    17
 -3.2585990231173367E-01 a        38     0     2     1    18
  2.1166157441143563E-01 a        39     0     2     1    19
 -2.3723743305190961E-02 a        40     0     2     1    20
 -5.9373979547730249E-01 a        41     0     3     1     1
 -7.0112501932716076E-01 a        42     0     3     1     2
  6.8303831097991974E-01 a        43     0     3     1     3
  1.9208636312864763E-01 a        44     0     3     1     4
 -1.4623793568919222E-01 a        45     0     3     1     5
 -4.9557054971868214E-01 a        46     0     3     1     6
  3.4798536359261234E-01 a        47     0     3     1     7
  6.2338091341460133E-01 a        48     0     3     1     8
 -5.5223324154884801E-01 a        49     0     3     1     9
 -8.3316890593251225E-01 a        50     0     3     1    10
  1.0413134670990400E+00 a        51     0     3     1    11
  4.9616160223098960E-01 a        52     0     3     1    12
  4.6504426272341148E-01 a        53     0     3     1    13
 -7.6447873547525946E-01 a        54     0     3     1    14
  2.8528338076751966E-02 a        55     0     3     1    15
  1.6044331107686641E-01 a        56     0     3     1    16
  7.7987693040936834E-01 a        57     0     3     1    17
  8.5577322901142261E-01 a        58     0     3     1    18
  1.2077863477508477E+00 a        59     0     3     1    19
 -1.6275079552322988E-01 a        60     0     3     1    20
  8.5702788337825471E-03 a        61     0     4     1     1
 -1.5968846260175909E-01 a        62     0     4     1     2
 -1.6260979248342999E-01 a        63     0     4     1     3
  2.6359372160129729E-01 a        64     0     4     1     4
 -1.4341841791385820E-01 a        65     0     4     1     5
 -7.4690425184456089E-03 a        66     0     4     1     6
 -1.5892170450758536E-01 a        67     0     4     1     7
  3.0083133525991990E-01 a        68     0     4     1     8
 -2.0633411323432410E-01 a        69     0     4     1     9
  1.1825439272621958E-01 a        70     0     4     1    10
  1.9066367607004567E-01 a        71     0     4     1    11
 -2.1345856957720424E-01 a        72     0     4     1    12
 -1.1019790181078250E-01 a        73     0     4     1    13
  1.1625596947928318E-01 a        74     0     4     1    14
  3.0173812498619379E-01 a        75     0     4     1    15
 -2.1324434875637996E-01 a        76     0     4     1    16
  1.3001586130634377E-01 a        77     0     4     1    17
  1.7323418451387955E-02 a        78     0     4     1    18
  1.3519636154236925E-01 a        79     0     4     1    19
  7.6538104509789040E-02 a        80     0     4     1    20
  6.4923923052254019E-03 a        81     0     5     1     1
 -1.6555044416375042E-01 a        82     0     5     1     2
 -8.4032582433054137E-01 a        83     0     5     1     3
 -1.6952166073773947E-01 a        84     0     5     1     4
 -2.9383907919830787E-01 a        85     0     5     1     5
 -2.4609193943122176E-02 a        86     0     5     1     6
 -7.4005755481287475E-02 a        87     0     5     1     7
 -9.8390580266850797E-02 a        88     0     5     1     8
  1.9037571727637934E-01 a        89     0     5     1     9
 -3.5633842434422258E-01 a        90     0     5     1    10
 -3.6725346951404073E-02 a        91     0     5     1    11
  6.3272772620754883E-02 a        92     0     5     1    12
 -1.9529960593805046E-01 a        93     0     5     1    13
 -3.9144443416260333E-01 a        94     0     5     1    14
  8.4650181342745168E-01 a        95     0     5     1    15
 -1.0690470337350626E-01 a        96     0     5     1    16
  8.7778592793341104E-02 a        97     0     5     1    17
 -4.0160781222006961E-02 a        98     0     5     1    18
  3.5819278750793007E-02 a        99     0     5     1    19
 -4.4824000725828983E-01 a       100     0     5     1    20
 -9.3720706174072702E-02 a       101     0     6     1     1
  4.0434228918482952E-02 a       102     0     6     1     2
 -3.3047055935331038E-01 a       103     0     6     1     3
  3.5644651402702447E-02 a       104     0     6     1     4
 -2.3522039236119741E-01 a       105     0     6     1     5
  1.0119850200124718E-01 a       106     0     6     1     6
 -6.7306657303810552E-02 a       107     0     6     1     7
  1.3772177093574742E-01 a       108     0     6     1     8
 -6.1905247657497706E-02 a       109     0     6     1     9
 -3.1505786851349343E-01 a       110     0     6     1    10
 -3.2897713897314600E-02 a       111     0     6     1    11
  8.4947595537047255E-02 a       112     0     6     1    12
 -9.8167755413059873E-02 a       113     0     6     1    13
 -4.1500992576747281E-01 a       114     0     6     1    14
  4.1869616607538851E-01 a       115     0     6     1    15
 -2.0870228352385059E-01 a       116     0     6     1    16
  1.4247532965537754E-01 a       117     0     6     1    17
 -2.9210603341037111E-01 a       118     0     6     1    18
  3.4252746554765201E-01 a       119     0     6     1    19
 -1.3727124886565142E-01 a       120     0     6     1    20
 -1.8178181734139581E-01 a       121     0     7     1     1
 -3.9928930882445701E-01 a       122     0     7     1     2
 -4.8912373894654820E-01 a       123     0     7     1     3
  2.3200172076676465E-01 a       124     0     7     1     4
 -1.8463796940017052E-01 a       125     0     7     1     5
 -2.4510992817695329E-01 a       126     0     7     1     6
  3.2725506486084288E-01 a       127     0     7     1     7
 -6.2447127362979846E-02 a       128     0     7     1     8
 -1.9291712333685825E-02 a       129     0     7     1     9
 -4.1441645468766963E-01 a       130     0     7     1    10
 -1.2568905640078018E-01 a       131     0     7     1    11
  3.8052325125356828E-01 a       132     0     7     1    12
 -1.9890464165063571E-01 a       133     0     7     1    13
 -1.2333729226242409E+00 a       134     0     7     1    14
 -2.6935724595916422E-01 a       135     0     7     1    15
  2.7818747933347099E-01 a       136     0     7     1    16
 -1.6109503912186837E-02 a       137     0     7     1    17
 -7.5793679244275103E-01 a       138     0     7     1    18
  2.4849379129571503E-01 a       139     0     7     1    19
 -9.2486237614986450E-02 a       140     0     7     1    20
  4.3450247801887515E-01 a       141     0     8     1     1
  3.2354199676677098E-01 a       142     0     8     1     2
 -2.4183078463110790E-02 a       143     0     8     1     3
  6.5254645239757048E-01 a       144     0     8     1     4
  2.7705180027444809E-01 a       145     0     8     1     5
 -1.1086006277645864E-01 a       146     0     8     1     6
  1.4056085189575440E-01 a       147     0     8     1     7
 -1.0087329178344040E-01 a       148     0     8     1     8
 -3.6751174371026452E-03 a       149     0     8     1     9
 -4.3109117303090660E-01 a       150     0     8     1    10
 -7.5944619603597774E-01 a       151     0     8     1    11
 -4.7922562970994183E-02 a       152     0     8     1    12
  1.5443525032943647E-01 a       153     0     8     1    13
 -1.0803282359653577E+00 a       154     0     8     1    14
 -2.0314686864580009E-01 a       155     0     8     1    15
  2.0254999915366709E-02 a       156     0     8     1    16
 -2.3008379379984048E-01 a       157     0     8     1    17
 -8.5316645470239916E-01 a       158     0     8     1    18
  2.0907172896390321E-03 a       159     0     8     1    19
  5.9006361320832597E-02 a       160     0     8     1    20
  5.5882122987498239E-01 a       161     0     9     1     1
  3.8175884794896742E-01 a       162     0     9     1     2
  2.3738003511835637E-02 a       163     0     9     1     3
  6.1172065510590357E-01 a       164     0     9     1     4
  5.1558876772814059E-02 a       165     0     9     1     5
 -1.4233933782318883E-01 a       166     0     9     1     6
  2.9513331604506645E-03 a       167     0     9     1     7
 -1.0103845431895142E-01 a       168     0     9     1     8
  5.5134469961485875E-02 a       169     0     9     1     9
 -4.8264869801977284E-01 a       170     0     9     1    10
 -9.0745013356630144E-01 a       171     0     9     1    11
 -1.3987455882038988E-01 a       172     0     9     1    12
  2.4257630947686937E-01 a       173     0     9     1    13
 -7.3146026154051336E-01 a       174     0     9     1    14
  4.2401172256883041E-01 a       175     0     9     1    15
 -4.9854842679875722E-02 a       176     0     9     1    16
  6.3890661452709940E-02 a       177     0     9     1    17
 -5.3191116271244154E-01 a       178     0     9     1    18
 -1.0147071021084363E-01 a       179     0     9     1    19
 -1.5416400424568144E-01 a       180     0     9     1    20
  3.1954260906334231E-01 a       181     0    10     1     1
 -8.3586938722636922E-02 a       182     0    10     1     2
 -3.4240222342186433E-01 a       183     0    10     1     3
  3.7573111444281682E-01 a       184     0    10     1     4
 -2.7350935979465085E-01 a       185     0    10     1     5
 -1.0167690126736076E-01 a       186     0    10     1     6
 -1.0155840559031373E-01 a       187     0    10     1     7
 -1.1336186183010107E-01 a       188     0    10     1     8
  9.5162529624363099E-02 a       189     0    10     1     9
 -6.5724578680704193E-01 a       190     0    10     1    10
 -3.4493450456236907E-01 a       191     0    10     1    11
 -3.2771109108781005E-02 a       192     0    10     1    12
  2.0965082614687458E-01 a       193     0    10     1    13
 -3.7376783947958409E-01 a       194     0    10     1    14
  1.2549955752144655E+00 a       195     0    10     1    15
  1.3377607533829103E-01 a       196     0    10     1    16
  2.7242357259048033E-01 a       197     0    10     1    17
  3.5910259107632647E-01 a       198     0    10     1    18
 -2.1048509251066702E-01 a       199     0    10     1    19
 -3.6461178738799166E-01 a       200     0    10     1    20
 -2.4565542850123440E-01 a       201     0    11     1     1
 -5.9018430841835168E-01 a       202     0    11     1     2
 -5.8347013589575414E-01 a       203     0    11     1     3
  5.0581271855622845E-01 a       204     0    11     1     4
 -3.8429483057789482E-02 a       205     0    11     1     5
  1.0641773852418443E-01 a       206     0    11     1     6
  8.9490426401105350E-01 a       207     0    11     1     7
 -4.9119043050823874E-01 a       208     0    11     1     8
 -3.8298689814050801E-01 a       209     0    11     1     9
  6.6779856960159631E-02 a       210     0    11     1    10
  1.1330396997178158E-01 a       211     0    11     1    11
  1.9741469553401100E-01 a       212     0    11     1    12
  9.1453736739946292E-02 a       213     0    11     1    13
 -4.0179909585136442E-01 a       214     0    11     1    14
  3.2586668880738373E-01 a       215     0    11     1    15
  5.5983613991733872E-01 a       216     0    11     1    16
  7.4109078945040641E-01 a       217     0    11     1    17
 -6.7690238155659155E-01 a       218     0    11     1    18
 -6.5087134012471171E-01 a       219     0    11     1    19
 -2.6314308788992775E-02 a       220     0    11     1    20
 -1.4864726683921592E-01 a       221     0    12     1     1
 -2.2292253528637337E-01 a       222     0    12     1     2
 -5.6684473946499814E-01 a       223     0    12     1     3
 -4.0056953640236909E-01 a       224     0    12     1     4
 -2.2932022515533021E-01 a       225     0    12     1     5
  3.3071193631474499E-01 a       226     0    12     1     6
  9.6762503139641987E-01 a       227     0    12     1     7
 -4.5889880806864930E-01 a       228     0    12     1     8
 -2.7919391570047569E-01 a       229     0    12     1     9
 -6.7882194055419165E-01 a       230     0    12     1    10
 -3.8388322301245215E-01 a       231     0    12     1    11
 -3.8277896148997070E-02 a       232     0    12     1    12
  1.7574865066084897E-02 a       233     0    12     1    13
 -8.5425003557216572E-01 a       234     0    12     1    14
  2.7450818731851213E-02 a       235     0    12     1    15
  2.3124938589311753E-01 a       236     0    12     1    16
  4.2844329832031491E-01 a       237     0    12     1    17
 -9.3617738696100394E-01 a       238     0    12     1    18
 -3.0639898918977587E-01 a       239     0    12     1    19
 -8.6084923894616056E-02 a       240     0    12     1    20
  4.0310141932154886E-01 a       241     0    13     1     1
  1.1304873844056078E+00 a       242     0    13     1     2
  1.3710355964983054E-01 a       243     0    13     1     3
 -7.2252760177804586E-03 a       244     0    13     1     4
  9.0769817114876650E-01 a       245     0    13     1     5
  1.3183299709156573E-01 a       246     0    13     1     6
 -1.0705051718406804E-01 a       247     0    13     1     7
  1.5014404935080194E-01 a       248     0    13     1     8
 -1.7790737191254546E-01 a       249     0    13     1     9
 -4.5725080181031513E-01 a       250     0    13     1    10
 -3.0694099929208996E-01 a       251     0    13     1    11
 -7.0426254831151958E-01 a       252     0    13     1    12
  2.5692000553869598E-01 a       253     0    13     1    13
 -1.4950827537224765E-01 a       254     0    13     1    14
  1.7446839600619827E-02 a       255     0    13     1    15
 -3.7043083340907035E-01 a       256     0    13     1    16
 -1.9830726827638634E-01 a       257     0    13     1    17
 -4.7564634998061306E-01 a       258     0    13     1    18
 -3.0538770979569810E-02 a       259     0    13     1    19
  4.8252327381095583E-01 a       260     0    13     1    20
 -4.7716922488595426E-01 a       261     0    14     1     1
  4.0716332788300919E-01 a       262     0    14     1     2
 -2.4901788728694405E-01 a       263     0    14     1     3
  7.7582504069566738E-02 a       264     0    14     1     4
  7.3811336639394964E-01 a       265     0    14     1     5
 -1.7295479819512316E-01 a       266     0    14     1     6
 -3.2313469703099157E-01 a       267     0    14     1     7
  5.9331607332086322E-01 a       268     0    14     1     8
 -2.0486099301310332E-01 a       269     0    14     1     9
 -2.0129345653220670E-01 a       270     0    14     1    10
  2.9717060413220286E-01 a       271     0    14     1    11
 -4.7729943725429347E-01 a       272     0    14     1    12
  6.6911150262994296E-02 a       273     0    14     1    13
  1.2595686757026994E-01 a       274     0    14     1    14
 -5.3846743769842192E-02 a       275     0    14     1    15
 -1.2862208754622040E-01 a       276     0    14     1    16
  2.6147899244905537E-01 a       277     0    14     1    17
 -5.2663553704691758E-02 a       278     0    14     1    18
  6.0335154963016990E-01 a       279     0    14     1    19
 -1.4345108615151672E-01 a       280     0    14     1    20
 -1.1134590621588296E+00 a       281     0    15     1     1
 -3.0320237275522033E-01 a       282     0    15     1     2
 -3.3243056073364102E-01 a       283     0    15     1     3
 -2.2202313488782061E-01 a       284     0    15     1     4
  2.4156688827028350E-01 a       285     0    15     1     5
 -2.0214422394157774E-01 a       286     0    15     1     6
 -9.5083089108469854E-02 a       287     0    15     1     7
  4.7571750013517639E-01 a       288     0    15     1     8
 -3.0572684535268019E-01 a       289     0    15     1     9
 -3.8781049975917342E-01 a       290     0    15     1    10
  7.3002560615324219E-01 a       291     0    15     1    11
  1.4999386171419102E-01 a       292     0    15     1    12
  6.1130125803961703E-02 a       293     0    15     1    13
 -9.0736487752631198E-02 a       294     0    15     1    14
 -2.8971158759241450E-01 a       295     0    15     1    15
  2.5890013051136385E-01 a       296     0    15     1    16
  4.5894473418883952E-01 a       297     0    15     1    17
  2.7421644627404373E-01 a       298     0    15     1    18
  8.8759147902578928E-01 a       299     0    15     1    19
 -1.9857914089084605E-01 a       300     0    15     1    20
 -1.1114981843773639E+00 a       301     0    16     1     1
 -8.2469368193139075E-02 a       302     0    16     1     2
 -1.6436836418642861E-01 a       303     0    16     1     3
 -1.8433095694293444E-01 a       304     0    16     1     4
  3.7303276088173282E-01 a       305     0    16     1     5
  5.3272343075993822E-02 a       306     0    16     1     6
 -6.0816766922878039E-02 a       307     0    16     1     7
  4.1302715316301764E-01 a       308     0    16     1     8
 -2.3729174601384775E-01 a       309     0    16     1     9
 -1.2544481596015416E-02 a       310     0    16     1    10
  6.9967809015556059E-01 a       311     0    16     1    11
  1.8962149497866929E-01 a       312     0    16     1    12
  2.8580899240336341E-02 a       313     0    16     1    13
 -4.1113242320648496E-01 a       314     0    16     1    14
 -9.3304444151523724E-01 a       315     0    16     1    15
  9.7053296157289790E-02 a       316     0    16     1    16
  4.4472997626229860E-02 a       317     0    16     1    17
 -4.1361175123776867E-01 a       318     0    16     1    18
  9.7544386858904542E-01 a       319     0    16     1    19
  2.0406763240052590E-02 a       320     0    16     1    20
 -5.7590009215085380E-01 a       321     0    17     1     1
  3.3394371310078957E-01 a       322     0    17     1     2
  8.0041109501163443E-01 a       323     0    17     1     3
  2.3617894062446412E-01 a       324     0    17     1     4
  3.7922324377258565E-01 a       325     0    17     1     5
  1.6423126324666928E-01 a       326     0    17     1     6
 -2.6062892172636021E-02 a       327     0    17     1     7
  3.8018684454251400E-01 a       328     0    17     1     8
 -3.2877517412345847E-01 a       329     0    17     1     9
 -6.4432472214026121E-02 a       330     0    17     1    10
  4.4531053076868896E-03 a       331     0    17     1    11
  1.0055100660162042E-01 a       332     0    17     1    12
  3.5404178762569899E-01 a       333     0    17     1    13
 -4.0332944847962104E-01 a       334     0    17     1    14
 -1.1348034164453904E+00 a       335     0    17     1    15
  3.0688214675088366E-02 a       336     0    17     1    16
  4.5223175153024757E-02 a       337     0    17     1    17
 -6.0435803855993409E-01 a       338     0    17     1    18
  7.9756661098423576E-01 a       339     0    17     1    19
  2.6410525161421300E-01 a       340     0    17     1    20
 -3.7399327878888033E-01 a       341     0    18     1     1
  1.9309240137256339E-01 a       342     0    18     1     2
  6.3552724487730916E-01 a       343     0    18     1     3
  4.0614347819204111E-01 a       344     0    18     1     4
  2.9477770972903738E-01 a       345     0    18     1     5
  5.8552374417325755E-02 a       346     0    18     1     6
  2.2385696725801242E-02 a       347     0    18     1     7
  2.2783460382469384E-01 a       348     0    18     1     8
 -2.9619389595992290E-01 a       349     0    18     1     9
 -2.8697728574446130E-01 a       350     0    18     1    10
  6.1684881555224287E-02 a       351     0    18     1    11
  9.1860693987394128E-03 a       352     0    18     1    12
  4.2205757320448178E-01 a       353     0    18     1    13
 -2.4957100354596196E-01 a       354     0    18     1    14
 -3.9836030353797403E-01 a       355     0    18     1    15
  2.9762418719583400E-01 a       356     0    18     1    16
  2.6112224826123201E-02 a       357     0    18     1    17
 -8.3002892140396686E-03 a       358     0    18     1    18
  4.2134511805011221E-01 a       359     0    18     1    19
  1.3965310062955383E-01 a       360     0    18     1    20
  2.8862939180223796E-01 a       361     0    19     1     1
  6.3318832738811304E-01 a       362     0    19     1     2
  5.5126721420335456E-01 a       363     0    19     1     3
  3.0955972310863394E-01 a       364     0    19     1     4
 -4.7319388034313731E-01 a       365     0    19     1     5
 -4.1904110038086051E-01 a       366     0    19     1     6
 -1.2080160080729616E-01 a       367     0    19     1     7
 -5.8096475182467910E-01 a       368     0    19     1     8
 -2.4834993585147758E-01 a       369     0    19     1     9
 -8.5041311398112676E-02 a       370     0    19     1    10
 -2.1477415582544684E-01 a       371     0    19     1    11
 -1.7918183980786134E-01 a       372     0    19     1    12
  1.2648734012946985E+00 a       373     0    19     1    13
 -1.9407889694945715E-01 a       374     0    19     1    14
 -4.6137311286970772E-01 a       375     0    19     1    15
 -6.9026421117963332E-01 a       376     0    19     1    16
 -2.9760897330385017E-01 a       377     0    19     1    17
 -3.8831181325848840E-01 a       378     0    19     1    18
  4.6853666306402031E-02 a       379     0    19     1    19
  4.9999358973258468E-01 a       380     0    19     1    20
 -9.5616436699719545E-03 a       381     0    20     1     1
 -1.3911293377601625E-01 a       382     0    20     1     2
  6.4921171647948395E-01 a       383     0    20     1     3
  8.1994688382787367E-02 a       384     0    20     1     4
  1.8709440972938249E-01 a       385     0    20     1     5
  7.8756523476789264E-01 a       386     0    20     1     6
  6.1505548317764425E-01 a       387     0    20     1     7
 -1.5923687758592726E+00 a       388     0    20     1     8
  3.5356677172738654E-01 a       389     0    20     1     9
  4.6337844303982668E-02 a       390     0    20     1    10
  2.4771568513644232E-01 a       391     0    20     1    11
  1.1385449869837019E+00 a       392     0    20     1    12
 -4.4022370719700854E-01 a       393     0    20     1    13
 -5.8633453863434881E-01 a       394     0    20     1    14
  8.5608448039044382E-01 a       395     0    20     1    15
  1.3302245131924337E+00 a       396     0    20     1    16
 -5.9926905632050151E-02 a       397     0    20     1    17
 -5.9707066526003305E-01 a       398     0    20     1    18
 -1.5659073009991258E+00 a       399     0    20     1    19
  1.6270684341156308E-01 a       400     0    20     1    20
  1.1256203618920886E+00 a       401     0    21     1     1
 -6.5551916777665364E-02 a       402     0    21     1     2
  6.7408799390495899E-01 a       403     0    21     1     3
  5.1021814698991796E-01 a       404     0    21     1     4
 -8.0044447529528706E-01 a       405     0    21     1     5
  2.8723963299718558E-01 a       406     0    21     1     6
 -3.9242486816874633E-01 a       407     0    21     1     7
 -1.2351044775854549E+00 a       408     0    21     1     8
  1.2694414418082905E-01 a       409     0    21     1     9
 -2.2269514779942418E-01 a       410     0    21     1    10
  7.1874532925073911E-02 a       411     0    21     1    11
  1.6870284085455126E-01 a       412     0    21     1    12
  1.0752447793276383E+00 a       413     0    21     1    13
 -9.3247101540990518E-01 a       414     0    21     1    14
  1.1041355467513356E-01 a       415     0    21     1    15
 -1.7953266301322071E-01 a       416     0    21     1    16
 -6.2833685683492013E-02 a       417     0    21     1    17
 -5.4255887611807674E-01 a       418     0    21     1    18
  2.9204786046022137E-02 a       419     0    21     1    19
  1.7141025147780979E+00 a       420     0    21     1    20
  1.0831777688953538E-01 a       421     0    22     1     1
  6.1508287593202382E-01 a       422     0    22     1     2
 -3.5940415184772168E-01 a       423     0    22     1     3
  7.9186914672322986E-02 a       424     0    22     1     4
 -6.5569548143720358E-01 a       425     0    22     1     5
 -7.9262599567576641E-01 a       426     0    22     1     6
 -6.7395861491767761E-01 a       427     0    22     1     7
  1.2466148468632825E+00 a       428     0    22     1     8
 -5.9449579707060018E-01 a       429     0    22     1     9
 -1.4729643470655304E-01 a       430     0    22     1    10
  3.1946752511843196E-01 a       431     0    22     1    11
 -1.2409655878964965E+00 a       432     0    22     1    12
  9.5689240584183555E-01 a       433     0    22     1    13
  1.4776823600452704E-01 a       434     0    22     1    14
 -6.6645629074294066E-01 a       435     0    22     1    15
 -1.7966978702991463E+00 a       436     0    22     1    16
  2.2711942842329819E-02 a       437     0    22     1    17
  4.9528655896905686E-02 a       438     0    22     1    18
  1.2491996364647628E+00 a       439     0    22     1    19
  2.4996424589354929E-02 a       440     0    22     1    20
  5.0306939659702032E-01 a       441     0    23     1     1
  6.3577901081217736E-01 a       442     0    23     1     2
  3.8772233136789669E-01 a       443     0    23     1     3
 -2.7019267803496366E-01 a       444     0    23     1     4
  1.4438770282440258E-01 a       445     0    23     1     5
  2.3646419924092515E-01 a       446     0    23     1     6
 -8.8471864585706184E-01 a       447     0    23     1     7
  6.9287541329992852E-01 a       448     0    23     1     8
  1.4045630924355046E-01 a       449     0    23     1     9
 -1.8967373173870064E-01 a       450     0    23     1    10
  1.0287318971856227E-01 a       451     0    23     1    11
 -3.9863051575782382E-01 a       452     0    23     1    12
 -1.8958978876853524E-01 a       453     0    23     1    13
 -1.5534393538380561E-01 a       454     0    23     1    14
 -1.4812710668022455E-01 a       455     0    23     1    15
 -8.9931815408491766E-01 a       456     0    23     1    16
 -3.2039767869597152E-01 a       457     0    23     1    17
 -6.0468861150699736E-02 a       458     0    23     1    18
  5.1822445502192438E-01 a       459     0    23     1    19
  1.5315886488020228E-01 a       460     0    23     1    20
  6.1973805839882057E-01 a       461     0    24     1     1
  8.6931499738968010E-01 a       462     0    24     1     2
  7.6645722954791951E-01 a       463     0    24     1     3
  2.0664222100264398E-01 a       464     0    24     1     4
  7.8899459056021426E-01 a       465     0    24     1     5
 -1.2045023230530283E-01 a       466     0    24     1     6
 -1.3214521969461988E+00 a       467     0    24     1     7
  8.2505041589996198E-01 a       468     0    24     1     8
  2.5528694077439629E-01 a       469     0    24     1     9
 -1.2143470818975537E-01 a       470     0    24     1    10
  5.9525739600465088E-01 a       471     0    24     1    11
 -4.5629656016596620E-01 a       472     0    24     1    12
  7.9046214016584501E-03 a       473     0    24     1    13
  2.6470604585729318E-01 a       474     0    24     1    14
 -1.0203155121461226E-01 a       475     0    24     1    15
 -5.9309157031862225E-01 a       476     0    24     1    16
 -7.1449094032915872E-01 a       477     0    24     1    17
  8.0248445174185001E-01 a       478     0    24     1    18
  4.8097926633367810E-01 a       479     0    24     1    19
  1.4877338528468304E-01 a       480     0    24     1    20
 -2.0473420331624814E-01 a       481     0    25     1     1
 -6.4708757347326284E-01 a       482     0    25     1     2
 -2.2083881816481848E-01 a       483     0    25     1     3
  3.2946786593925886E-01 a       484     0    25     1     4
  5.3808858443327369E-02 a       485     0    25     1     5
 -1.9739625806847577E-01 a       486     0    25     1     6
 -5.8248219556529524E-01 a       487     0    25     1     7
  4.6466735649037710E-01 a       488     0    25     1     8
  3.0293322580683740E-01 a       489     0    25     1     9
  9.1061941229999596E-02 a       490     0    25     1    10
  7.7324320182464923E-01 a       491     0    25     1    11
  1.8567877015465906E-01 a       492     0    25     1    12
 -4.6783679235401210E-01 a       493     0    25     1    13
 -3.2937352291691868E-01 a       494     0    25     1    14
  1.0573663374201490E-01 a       495     0    25     1    15
  1.7153808939817553E-01 a       496     0    25     1    16
  1.1556966551808466E-01 a       497     0    25     1    17
  2.4169816645797385E-01 a       498     0    25     1    18
  3.4509884213511433E-01 a       499     0    25     1    19
 -3.1439491579566720E-01 a       500     0    25     1    20
 -3.6621995866188972E-01 a       501     0    26     1     1
 -9.5916809894563670E-01 a       502     0    26     1     2
 -7.7930856724425102E-01 a       503     0    26     1     3
  1.9048420100144642E-01 a       504     0    26     1     4
 -1.9254544981381308E-01 a       505     0    26     1     5
 -3.3654163881518812E-01 a       506     0    26     1     6
  3.6151714478182084E-01 a       507     0    26     1     7
  4.9058350232520975E-02 a       508     0    26     1     8
  2.5190830819383819E-01 a       509     0    26     1     9
  2.4655388998552874E-01 a       510     0    26     1    10
 -1.2058410078554317E-01 a       511     0    26     1    11
  1.9209310804688362E-01 a       512     0    26     1    12
  1.2746347766959756E-01 a       513     0    26     1    13
 -4.4466349382998782E-01 a       514     0    26     1    14
  2.1589782637115446E-01 a       515     0    26     1    15
  6.0294299140914653E-01 a       516     0    26     1    16
  8.7783125987317301E-01 a       517     0    26     1    17
  5.2262355408852734E-01 a       518     0    26     1    18
  3.7416152292102600E-01 a       519     0    26     1    19
  5.9398241399004847E-01 a       520     0    26     1    20
 -8.1437644790432950E-01 a       521     0    27     1     1
  1.0921972668615136E+00 a       522     0    27     1     2
  3.9326902699598859E-01 a       523     0    27     1     3
 -4.8578300674949954E-01 a       524     0    27     1     4
 -1.8060348059422493E-01 a       525     0    27     1     5
 -9.3274378459985485E-01 a       526     0    27     1     6
  5.1689334273666043E-01 a       527     0    27     1     7
  1.6201471418073760E-01 a       528     0    27     1     8
 -2.3318256724126743E-01 a       529     0    27     1     9
  5.5082089718281135E-01 a       530     0    27     1    10
  3.6725378295307254E-01 a       531     0    27     1    11
  5.5103866121218026E-01 a       532     0    27     1    12
 -4.1692087643407383E-01 a       533     0    27     1    13
  4.5646157161716094E-01 a       534     0    27     1    14
 -3.8376848704623245E-01 a       535     0    27     1    15
 -7.8716674962781535E-02 a       536     0    27     1    16
 -3.6743873283209538E-01 a       537     0    27     1    17
 -9.7901083034391756E-01 a       538     0    27     1    18
 -2.5693622648160253E-01 a       539     0    27     1    19
 -1.7030455964595488E+00 a       540     0    27     1    20
 -1.7150669948407710E-01 a       541     0    28     1     1
 -7.9297412609607665E-01 a       542     0    28     1     2
 -7.0034146808662145E-01 a       543     0    28     1     3
 -8.6931809213764685E-02 a       544     0    28     1     4
  1.2402703931943204E+00 a       545     0    28     1     5
  8.5392919696202774E-01 a       546     0    28     1     6
 -4.2091165772589406E-01 a       547     0    28     1     7
  1.3602881723453244E+00 a       548     0    28     1     8
  5.8439431113711926E-01 a       549     0    28     1     9
  3.9902988259064243E-02 a       550     0    28     1    10
 -2.0722354203000642E-02 a       551     0    28     1    11
 -4.2809653655177210E-01 a       552     0    28     1    12
 -1.7311866784887968E+00 a       553     0    28     1    13
  6.4137273208271017E-01 a       554     0    28     1    14
  6.7450059805402818E-01 a       555     0    28     1    15
  2.7906153821571666E-01 a       556     0    28     1    16
  4.1180198880311430E-01 a       557     0    28     1    17
  1.1384491919846527E+00 a       558     0    28     1    18
 -2.7228641244620294E-01 a       559     0    28     1    19
 -1.0663103989494863E-01 a       560     0    28     1    20
 -2.2265233962341446E-01 a       561     0    29     1     1
 -2.1722523815584988E-01 a       562     0    29     1     2
 -3.0559913857490817E-01 a       563     0    29     1     3
  3.0635917713078903E-01 a       564     0    29     1     4
  7.6680235745236092E-01 a       565     0    29     1     5
  5.8745425602409196E-01 a       566     0    29     1     6
  5.5048116937204454E-02 a       567     0    29     1     7
  2.6205454147151624E-01 a       568     0    29     1     8
 -2.8672217065576693E-02 a       569     0    29     1     9
 -4.2075786732923871E-02 a       570     0    29     1    10
 -5.6441517443904676E-01 a       571     0    29     1    11
 -2.6756465220822323E-01 a       572     0    29     1    12
 -1.0685416696493191E+00 a       573     0    29     1    13
  1.0032156872316797E-01 a       574     0    29     1    14
 -5.1796576041043894E-02 a       575     0    29     1    15
  1.7500267048681586E-01 a       576     0    29     1    16
  2.4391277794889962E-01 a       577     0    29     1    17
  8.2415515577167225E-02 a       578     0    29     1    18
 -2.1772113541868590E-01 a       579     0    29     1    19
 -7.5479418326744013E-02 a       580     0    29     1    20
 -2.0256308237956041E-02 a       581     0    30     1     1
 -4.0933154591448362E-01 a       582     0    30     1     2
  1.1141377643455685E+00 a       583     0    30     1     3
 -1.0620135731716400E-01 a       584     0    30     1     4
 -5.3410467448983323E-01 a       585     0    30     1     5
 -3.5615165947166301E-02 a       586     0    30     1     6
 -8.3987015458713982E-02 a       587     0    30     1     7
 -1.7779819699592927E+00 a       588     0    30     1     8
 -9.9935855553552194E-02 a       589     0    30     1     9
  4.7690795625514026E-01 a       590     0    30     1    10
  7.9987786102133265E-02 a       591     0    30     1    11
  2.3034710021710830E-01 a       592     0    30     1    12
 -3.1261460456591075E-02 a       593     0    30     1    13
  3.4622478275217455E-01 a       594     0    30     1    14
  8.9641467876227093E-02 a       595     0    30     1    15
  4.0323440754639561E-01 a       596     0    30     1    16
  4.1142269125394293E-01 a       597     0    30     1    17
 -5.2687867797953303E-01 a       598     0    30     1    18
 -6.9357716607870290E-01 a       599     0    30     1    19
  4.2958464762151710E-01 a       600     0    30     1    20
 -4.4120341888869746E-01 a       601     0    31     1     1
 -2.4533797466367877E-01 a       602     0    31     1     2
 -2.2087104835891277E-01 a       603     0    31     1     3
  5.9012430025227136E-01 a       604     0    31     1     4
 -1.2417180724727965E+00 a       605     0    31     1     5
 -4.8181243156531228E-01 a       606     0    31     1     6
 -8.7892076640182698E-02 a       607     0    31     1     7
  1.5619369641159004E+00 a       608     0    31     1     8
 -6.9570479548648434E-01 a       609     0    31     1     9
 -1.2818116621710534E+00 a       610     0    31     1    10
  3.9798523462342866E-01 a       611     0    31     1    11
  7.2633881005343193E-01 a       612     0    31     1    12
  6.3388663881615370E-01 a       613     0    31     1    13
  3.2352413834844806E-01 a       614     0    31     1    14
 -1.4724376850390559E+00 a       615     0    31     1    15
 -1.1308488049713534E+00 a       616     0    31     1    16
 -5.6965716198816407E-01 a       617     0    31     1    17
 -9.8132991383138635E-01 a       618     0    31     1    18
  1.8883440779752492E+00 a       619     0    31     1    19
  1.2517651295550830E-01 a       620     0    31     1    20
 -6.3389002877831191E-01 a       621     0    32     1     1
 -1.1929934790244773E-01 a       622     0    32     1     2
 -2.3516944218553291E+00 a       623     0    32     1     3
 -1.0009171547690092E+00 a       624     0    32     1     4
  2.5493126355497706E+00 a       625     0    32     1     5
 -7.6089429109518059E-01 a       626     0    32     1     6
  8.3570879187433811E-01 a       627     0    32     1     7
  1.8641238342559601E+00 a       628     0    32     1     8
  1.1183680061927193E+00 a       629     0    32     1     9
 -1.5571211276445833E+00 a       630     0    32     1    10
 -1.0462056968350142E-01 a       631     0    32     1    11
 -2.0495554181812135E+00 a       632     0    32     1    12
 -3.2701474770850936E-01 a       633     0    32     1    13
  5.1205878271396632E-01 a       634     0    32     1    14
  3.2922472483190857E-01 a       635     0    32     1    15
  9.2359112168183788E-01 a       636     0    32     1    16
 -1.3118696479984784E-01 a       637     0    32     1    17
  1.9065712479484973E+00 a       638     0    32     1    18
 -1.0191765043190462E+00 a       639     0    32     1    19
 -1.7610695782031123E+00 a       640     0    32     1    20
  4.5444808365481509E-02 a       641     0    33     1     1
  4.9132382958640780E-01 a       642     0    33     1     2
 -8.9633923841016294E-01 a       643     0    33     1     3
 -3.1555479401497100E-01 a       644     0    33     1     4
  1.6363611886876109E-01 a       645     0    33     1     5
  7.1312689387448586E-02 a       646     0    33     1     6
  6.8395436714511190E-02 a       647     0    33     1     7
  1.0472677490098836E-03 a       648     0    33     1     8
  3.1901527196601487E-01 a       649     0    33     1     9
  1.0592914669947938E-01 a       650     0    33     1    10
  3.9705093607199859E-01 a       651     0    33     1    11
  3.7573103297858684E-01 a       652     0    33     1    12
 -3.0449977895260161E-01 a       653     0    33     1    13
  3.2354895253629051E-01 a       654     0    33     1    14
  2.5362490404352134E-01 a       655     0    33     1    15
  5.1803613282751543E-02 a       656     0    33     1    16
 -6.1974751624894231E-01 a       657     0    33     1    17
 -1.8252661490300229E-01 a       658     0    33     1    18
  1.2945816793718998E-01 a       659     0    33     1    19
 -2.3833568934209801E-01 a       660     0    33     1    20
  2.3724847026009206E+00 a       661     0    34     1     1
  1.9333310505290754E-01 a       662     0    34     1     2
  2.0485848742908828E+00 a       663     0    34     1     3
 -3.5566198270999677E-01 a       664     0    34     1     4
  1.8279691227489845E+00 a       665     0    34     1     5
  1.6822619523389595E+00 a       666     0    34     1     6
  5.7089682757311588E-01 a       667     0    34     1     7
 -4.0864832415565072E-01 a       668     0    34     1     8
  5.2454760608525906E-02 a       669     0    34     1     9
  6.0763270898336208E-01 a       670     0    34     1    10
  6.4843399057615092E-01 a       671     0    34     1    11
  1.8722152318853214E+00 a       672     0    34     1    12
 -2.4695000747404925E+00 a       673     0    34     1    13
 -8.9161775589026526E-01 a       674     0    34     1    14
  7.7095776079141654E-01 a       675     0    34     1    15
 -1.9109778754643814E+00 a       676     0    34     1    16
  1.6950404195043139E-01 a       677     0    34     1    17
  1.1363194259357705E+00 a       678     0    34     1    18
  9.8294664084062441E-02 a       679     0    34     1    19
  1.2589509557797612E-01 a       680     0    34     1    20
 -7.5099497124027681E-01 a       681     0    35     1     1
  5.7161629761229715E-01 a       682     0    35     1     2
 -2.7979448878684920E-01 a       683     0    35     1     3
  7.3059404789934990E-01 a       684     0    35     1     4
  1.6146591994047979E+00 a       685     0    35     1     5
 -1.6073818553347703E+00 a       686     0    35     1     6
  1.8213311684037509E-01 a       687     0    35     1     7
 -6.4651893241987446E-01 a       688     0    35     1     8
 -7.9980686308036353E-01 a       689     0    35     1     9
  1.4916929595597186E-01 a       690     0    35     1    10
 -6.7633888604963488E-01 a       691     0    35     1    11
 -1.9856995581880397E+00 a       692     0    35     1    12
  5.0519039751986672E-01 a       693     0    35     1    13
 -1.2337128033275169E+00 a       694     0    35     1    14
 -4.7355569477919052E-01 a       695     0    35     1    15
  9.6266384471646305E-01 a       696     0    35     1    16
  3.2172021160580927E-01 a       697     0    35     1    17
 -1.9355335762126016E+00 a       698     0    35     1    18
  1.0257301154854270E+00 a       699     0    35     1    19
  7.1945648145580765E-01 a       700     0    35     1    20
  2.2404268398582095E+00 a       701     0    36     1     1
  4.1542947198996394E-01 a       702     0    36     1     2
  2.9350750633699660E+00 a       703     0    36     1     3
  1.5285305592191079E+00 a       704     0    36     1     4
 -1.3349103465211594E+00 a       705     0    36     1     5
  2.5097535047882424E-01 a       706     0    36     1     6
 -1.1697486635424643E+00 a       707     0    36     1     7
  3.0938312327992330E+00 a       708     0    36     1     8
 -1.5296484035608078E+00 a       709     0    36     1     9
  1.9425131701948282E+00 a       710     0    36     1    10
 -2.5753823023329816E+00 a       711     0    36     1    11
  5.7813504477739464E-01 a       712     0    36     1    12
 -9.5975559542288402E-01 a       713     0    36     1    13
 -1.1955652698384565E+00 a       714     0    36     1    14
 -6.5641955776901262E-01 a       715     0    36     1    15
 -3.7668787495086304E+00 a       716     0    36     1    16
 -5.1832122594756069E-01 a       717     0    36     1    17
 -2.3178889457929190E+00 a       718     0    36     1    18
  2.9910882860976247E+00 a       719     0    36     1    19
  1.6186780056555901E+00 a       720     0    36     1    20
 -2.3051585514729469E+00 a       721     0    37     1     1
  1.3425143129930714E+00 a       722     0    37     1     2
 -8.3754028612496556E-01 a       723     0    37     1     3
 -4.8531504690261915E+00 a       724     0    37     1     4
  1.1980693062619001E+00 a       725     0    37     1     5
  2.3468274349378193E+00 a       726     0    37     1     6
 -2.4637763520714504E+00 a       727     0    37     1     7
 -1.1154934656879485E+00 a       728     0    37     1     8
 -3.2296644383668758E+00 a       729     0    37     1     9
  3.2456069797150815E+00 a       730     0    37     1    10
  6.9532106308978525E-01 a       731     0    37     1    11
 -2.6841616764222020E-01 a       732     0    37     1    12
  2.6349345139743052E+00 a       733     0    37     1    13
  7.2737252255190343E-01 a       734     0    37     1    14
 -1.4952264161659279E+00 a       735     0    37     1    15
  5.9364083767631701E+00 a       736     0    37     1    16
  3.8198571943634048E+00 a       737     0    37     1    17
 -7.8217573740719998E-02 a       738     0    37     1    18
 -2.2568016295433360E+00 a       739     0    37     1    19
  6.3482530860006303E-01 a       740     0    37     1    20
 -3.2463995423749248E-01 a       741     0    38     1     1
  1.4308278444327141E-01 a       742     0    38     1     2
  2.1944421602579416E-02 a       743     0    38     1     3
 -1.0018634888960011E-01 a       744     0    38     1     4
  6.2494968619608948E-01 a       745     0    38     1     5
 -3.2697223601091369E-01 a       746     0    38     1     6
 -4.2861147144839878E-02 a       747     0    38     1     7
  7.7711132698997631E-01 a       748     0    38     1     8
 -4.1497977203213472E-02 a       749     0    38     1     9
  2.8400904598243515E-01 a       750     0    38     1    10
 -1.0757100463526748E+00 a       751     0    38     1    11
  1.2127809493406780E-01 a       752     0    38     1    12
 -4.2042138231093074E-01 a       753     0    38     1    13
  1.3298042757720538E-01 a       754     0    38     1    14
 -1.0224917965473990E+00 a       755     0    38     1    15
 -3.4966426239060483E-01 a       756     0    38     1    16
 -7.5707447748649723E-02 a       757     0    38     1    17
 -6.3811904489341409E-01 a       758     0    38     1    18
  3.7986012880746617E-01 a       759     0    38     1    19
  1.6508181917485124E-01 a       760     0    38     1    20
 -8.1503280142402401E-01 a       761     0    39     1     1
 -1.6443577592439780E+00 a       762     0    39     1     2
  5.8879084778619817E-01 a       763     0    39     1     3
  6.2202921398710542E-01 a       764     0    39     1     4
 -2.0716900851726960E-01 a       765     0    39     1     5
  2.3172818051302679E-01 a       766     0    39     1     6
  6.3366788793232942E-01 a       767     0    39     1     7
 -7.4697427263397675E-01 a       768     0    39     1     8
 -2.1972741414312075E-01 a       769     0    39     1     9
 -1.0554863456429114E-02 a       770     0    39     1    10
  1.6157426626231267E-01 a       771     0    39     1    11
 -2.5323407717300767E-01 a       772     0    39     1    12
  2.6823568977410683E-01 a       773     0    39     1    13
 -1.3205008210764151E+00 a       774     0    39     1    14
  1.2555710180303632E+00 a       775     0    39     1    15
  3.7052461513240259E-01 a       776     0    39     1    16
  9.7356319016819703E-01 a       777     0    39     1    17
  1.0326281499535541E+00 a       778     0    39     1    18
 -1.5509792214282356E+00 a       779     0    39     1    19
  1.3828636380791752E+00 a       780     0    39     1    20
 -2.4795261082463571E+00 a       781     0    40     1     1
  1.2373877084782090E+00 a       782     0    40     1     2
 -5.7910693351686482E-01 a       783     0    40     1     3
  1.4163172964747770E+00 a       784     0    40     1     4
 -3.9926538906795437E+00 a       785     0    40     1     5
 -1.1310403252155710E+00 a       786     0    40     1     6
 -2.4068544026656342E+00 a       787     0    40     1     7
 -2.1422262957059939E+00 a       788     0    40     1     8
  2.0913230687171729E+00 a       789     0    40     1     9
  6.9278956630686872E-01 a       790     0    40     1    10
 -3.3111995303592973E-01 a       791     0    40     1    11
 -8.0497262781681078E-01 a       792     0    40     1    12
  1.7278937896728177E+00 a       793     0    40     1    13
 -1.5313028872809209E+00 a       794     0    40     1    14
 -1.8616788796554262E+00 a       795     0    40     1    15
  7.8116703283062761E-01 a       796     0    40     1    16
  1.0756743256163239E+00 a       797     0    40     1    17
  1.3645805598602967E+00 a       798     0    40     1    18
 -3.5618710830576017E+00 a       799     0    40     1    19
  8.4041832090056978E-01 a       800     0    40     1    20
  3.5352299692716751E+00 a       801     0    41     1     1
 -7.8263057996723928E+00 a       802     0    41     1     2
  2.2059251283799886E+00 a       803     0    41     1     3
  2.7571425520591291E+00 a       804     0    41     1     4
  2.6757690411248221E+00 a       805     0    41     1     5
 -4.2561060164093281E+00 a       806     0    41     1     6
  1.0030762598539418E+01 a       807     0    41     1     7
 -3.3550166592355866E+00 a       808     0    41     1     8
  6.3688844715177391E+00 a       809     0    41     1     9
 -1.0588435748444001E+00 a       810     0    41     1    10
  8.0535405960288700E-02 a       811     0    41     1    11
  1.1828291165072167E+00 a       812     0    41     1    12
 -1.4237131920361856E+00 a       813     0    41     1    13
  2.6124318221682832E+00 a       814     0    41     1    14
  4.1024662759505715E+00 a       815     0    41     1    15
 -6.8904681168976829E+00 a       816     0    41     1    16
 -3.8836311074420529E+00 a       817     0    41     1    17
  3.2623951081050917E-01 a       818     0    41     1    18
  3.5279803397605463E+00 a       819     0    41     1    19
 -4.0360841193568670E-01 a       820     0    41     1    20
 -2.5410118084176783E+00 a       821     0    42     1     1
  4.8266221321429139E+00 a       822     0    42     1     2
 -2.3766246764665206E+00 a       823     0    42     1     3
  4.5071497300748051E+00 a       824     0    42     1     4
 -2.3751296298663234E+00 a       825     0    42     1     5
  4.5190178856286822E-01 a       826     0    42     1     6
 -3.3409424808620747E+00 a       827     0    42     1     7
  3.4653288164635461E+00 a       828     0    42     1     8
  2.9708415699281514E+00 a       829     0    42     1     9
 -1.3471536086899407E+00 a       830     0    42     1    10
  2.4583783442146636E+00 a       831     0    42     1    11
 -1.3376479377878043E+00 a       832     0    42     1    12
 -2.0249276213734397E+00 a       833     0    42     1    13
 -1.7695757125384484E-01 a       834     0    42     1    14
 -7.3518676001697179E+00 a       835     0    42     1    15
  3.2520873938312662E+00 a       836     0    42     1    16
  1.7346934774318821E+00 a       837     0    42     1    17
 -1.5021294737432231E-02 a       838     0    42     1    18
  1.6895161340615255E+00 a       839     0    42     1    19
 -5.0126504985588483E-01 a       840     0    42     1    20
 -5.6093892594964756E-01 a       841     0    43     1     1
 -9.2440013258719034E-01 a       842     0    43     1     2
  1.8530262465385525E+00 a       843     0    43     1     3
 -2.1928267624754234E+00 a       844     0    43     1     4
 -1.4632557779249060E+00 a       845     0    43     1     5
 -5.6563413285738029E-01 a       846     0    43     1     6
  1.5962966093086184E+00 a       847     0    43     1     7
 -1.4267504310885529E-01 a       848     0    43     1     8
 -5.6257995296125618E-01 a       849     0    43     1     9
  1.3595244777604931E+00 a       850     0    43     1    10
  2.1364886078044584E-01 a       851     0    43     1    11
 -9.5374490817407620E-01 a       852     0    43     1    12
  2.1793759560454121E-01 a       853     0    43     1    13
  3.3839493502064864E+00 a       854     0    43     1    14
  1.9489736192275731E+00 a       855     0    43     1    15
 -2.6890478436089245E+00 a       856     0    43     1    16
 -4.0172074908001654E-01 a       857     0    43     1    17
 -3.2689503048700747E-01 a       858     0    43     1    18
  3.7254547103699358E+00 a       859     0    43     1    19
  1.5715356233590103E+00 a       860     0    43     1    20
  8.6001683794158701E-01 a       861     0    44     1     1
  3.8488316938483522E+00 a       862     0    44     1     2
 -4.7183381170600489E+00 a       863     0    44     1     3
 -1.4602550779843835E+00 a       864     0    44     1     4
 -2.1350468949440429E+00 a       865     0    44     1     5
  2.0240169029084418E+00 a       866     0    44     1     6
 -4.5227536030416724E+00 a       867     0    44     1     7
  1.1651847609223696E+00 a       868     0    44     1     8
 -4.8365225521156034E+00 a       869     0    44     1     9
 -5.6647317241014072E-01 a       870     0    44     1    10
 -3.5551295237286022E+00 a       871     0    44     1    11
  3.0230829951108253E+00 a       872     0    44     1    12
  4.5791012312445850E-01 a       873     0    44     1    13
 -3.6619690060219900E+00 a       874     0    44     1    14
 -4.4875149959688831E-01 a       875     0    44     1    15
  4.5326688181281733E+00 a       876     0    44     1    16
  2.0924735567198911E+00 a       877     0    44     1    17
  2.8187666736296086E+00 a       878     0    44     1    18
 -9.0860279531571937E+00 a       879     0    44     1    19
 -1.1494729369453549E+00 a       880     0    44     1    20
  3.3059888690725020E-01 a       881     0    45     1     1
 -2.2341448056662033E-01 a       882     0    45     1     2
 -1.7414578220319177E+00 a       883     0    45     1     3
 -1.6432714998939452E-01 a       884     0    45     1     4
  1.0929128854649677E+00 a       885     0    45     1     5
  2.6120542099661552E+00 a       886     0    45     1     6
  4.4017741058460491E-01 a       887     0    45     1     7
  8.2865824327527449E-01 a       888     0    45     1     8
  3.6400012856711494E-01 a       889     0    45     1     9
  5.4877155342755823E-01 a       890     0    45     1    10
  3.0489173782831347E-01 a       891     0    45     1    11
  8.5569993898801489E-01 a       892     0    45     1    12
  4.6560550648286014E-01 a       893     0    45     1    13
  1.2879478301333611E+00 a       894     0    45     1    14
  1.6353749759133045E+00 a       895     0    45     1    15
  3.8733733683715210E-01 a       896     0    45     1    16
 -2.4845990134001759E+00 a       897     0    45     1    17
 -2.4027670919697292E-01 a       898     0    45     1    18
 -1.6070787234046457E+00 a       899     0    45     1    19
 -1.2348569288199829E+00 a       900     0    45     1    20
  2.0796052813076493E-01 a       901     0    46     1     1
 -3.0700208278719590E+00 a       902     0    46     1     2
  3.5186564610676250E+00 a       903     0    46     1     3
 -1.2057156302792111E+00 a       904     0    46     1     4
  4.8002228186516787E+00 a       905     0    46     1     5
 -1.4936808773531045E+00 a       906     0    46     1     6
  1.3976593007610589E+00 a       907     0    46     1     7
 -1.8907388575221757E+00 a       908     0    46     1     8
 -1.7825103874563712E+00 a       909     0    46     1     9
 -2.4292315621978036E+00 a       910     0    46     1    10
 -1.8495524208638205E+00 a       911     0    46     1    11
 -3.5674145030635986E+00 a       912     0    46     1    12
 -1.2840329100182837E-01 a       913     0    46     1    13
  4.6212767319209003E-01 a       914     0    46     1    14
  4.9318147179305116E+00 a       915     0    46     1    15
 -1.1657146091424326E+00 a       916     0    46     1    16
 -1.3902978140439097E+00 a       917     0    46     1    17
 -2.1169832017400725E+00 a       918     0    46     1    18
  3.9921326068261536E+00 a       919     0    46     1    19
 -2.5770278437629751E-01 a       920     0    46     1    20
  2.4857387943409839E-01 a       921     0    47     1     1
 -6.4035990266112897E-02 a       922     0    47     1     2
  3.9333780753828201E-01 a       923     0    47     1     3
 -8.4843018492208405E-02 a       924     0    47     1     4
 -9.0368256829832583E-01 a       925     0    47     1     5
 -7.3198389727787624E-02 a       926     0    47     1     6
 -5.3694477050997572E-02 a       927     0    47     1     7
 -1.0388707745008208E+00 a       928     0    47     1     8
 -2.7573201295592215E-01 a       929     0    47     1     9
 -6.4701265989038803E-01 a       930     0    47     1    10
  1.2803515488113382E+00 a       931     0    47     1    11
 -1.1290106945505336E-01 a       932     0    47     1    12
  4.3969777557711570E-01 a       933     0    47     1    13
  1.7455059702657402E-01 a       934     0    47     1    14
  8.8996472517283698E-01 a       935     0    47     1    15
  5.5437352447514920E-01 a       936     0    47     1    16
 -1.7363968674526825E-01 a       937     0    47     1    17
  1.3609070872928151E+00 a       938     0    47     1    18
 -2.3478510658001472E-01 a       939     0    47     1    19
 -3.6058670162588052E-01 a       940     0    47     1    20
 -8.6160914388537860E-02 a       941     0    48     1     1
  1.0282814518279375E+00 a       942     0    48     1     2
 -4.5111080096141620E-01 a       943     0    48     1     3
 -1.0805236044374125E+00 a       944     0    48     1     4
 -1.1261895884507005E+00 a       945     0    48     1     5
  4.3287191030026784E-01 a       946     0    48     1     6
  5.4573353964310356E-01 a       947     0    48     1     7
  1.4875448240849707E+00 a       948     0    48     1     8
 -1.3785137874001135E-01 a       949     0    48     1     9
  5.7804475360535246E-01 a       950     0    48     1    10
  1.9148818624558102E+00 a       951     0    48     1    11
  3.5230863973252130E-01 a       952     0    48     1    12
  2.0558645804240924E-01 a       953     0    48     1    13
  1.1032759023462788E+00 a       954     0    48     1    14
 -2.8102878747173516E+00 a       955     0    48     1    15
 -1.1730101689029739E+00 a       956     0    48     1    16
 -7.5527030274200002E-01 a       957     0    48     1    17
 -1.0230693240462925E+00 a       958     0    48     1    18
  1.3995181078929291E+00 a       959     0    48     1    19
 -1.4766915789561104E+00 a       960     0    48     1    20
 -2.4908942675888829E-01 b       961     1     1
  6.2535338710728472E-02 b       962     1     2
 -8.2960381183991738E-02 b       963     1     3
  2.7687337293571840E-01 b       964     1     4
  2.3821222732402356E-01 b       965     1     5
 -8.0377767690080759E-02 b       966     1     6
  2.1581258527405198E-02 b       967     1     7
  8.2749318748083467E-01 b       968     1     8
 -9.6429757787150586E-02 b       969     1     9
 -4.3248351736966584E-01 b       970     1    10
 -1.7385699608799202E-01 b       971     1    11
 -5.7066688513135266E-01 b       972     1    12
 -1.5360845366207584E-01 b       973     1    13
 -5.7226424880679794E-01 b       974     1    14
 -2.9575436218991397E-01 b       975     1    15
 -1.8898171160190377E-01 b       976     1    16
  8.9142082141895937E-02 b       977     1    17
 -6.2467752004272281E-01 b       978     1    18
  4.5310373138064292E-01 b       979     1    19
 -1.1406482226302006E-01 b       980     1    20
 -6.8281080928255544E-01 a       981     1     1     2     1
  1.6367276086177682E+00 a       982     1     1     2     2
 -5.2294072459519350E-02 a       983     1     1     2     3
  4.6530000204296385E-01 a       984     1     1     2     4
  1.8016710729737462E-01 a       985     1     1     2     5
  4.7195167684787614E-01 a       986     1     1     2     6
 -7.7162578070813470E-01 a       987     1     1     2     7
 -2.8829598415436924E-01 a       988     1     1     2     8
 -2.4834980652313987E-01 a       989     1     1     2     9
  4.7863634598736948E-01 a       990     1     1     2    10
 -5.8543041405738427E-01 a       991     1     1     2    11
  6.0996593014801405E-02 a       992     1     1     2    12
 -4.2503641595551095E-01 a       993     1     1     2    13
  5.3979899990867575E-01 a       994     1     1     2    14
 -3.4619736952900920E-01 a       995     1     1     2    15
 -6.1193855488592602E-02 a       996     1     1     2    16
 -5.9954022100496973E-01 a       997     1     1     2    17
 -2.8476375404357945E-01 a       998     1     1     2    18
  1.6184671383056506E-01 a       999     1     1     2    19
  8.3019135655028797E-01 a      1000     1     1     2    20
 -5.8849793224811042E-01 a      1001     1     2     2     1
 -5.3524371598115705E-01 a      1002     1     2     2     2
 -3.1898458253226442E-01 a      1003     1     2     2     3
 -5.7986555264502575E-02 a      1004     1     2     2     4
  2.7254222630285607E-01 a      1005     1     2     2     5
 -1.1778260813851622E+00 a      1006     1     2     2     6
  5.4239673054242703E-02 a      1007     1     2     2     7
  4.3256064151483631E-01 a      1008     1     2     2     8
  6.4077331361567469E-01 a      1009     1     2     2     9
 -2.6493288381830549E-01 a      1010     1     2     2    10
 -4.5328746315929969E-01 a      1011     1     2     2    11
 -3.4319208995055889E-01 a      1012     1     2     2    12
 -7.8917926944614747E-01 a      1013     1     2     2    13
 -6.4025987720733291E-01 a      1014     1     2     2    14
  5.0770138843022983E-01 a      1015     1     2     2    15
  4.3260227983106858E-01 a      1016     1     2     2    16
  1.2535415599670544E-01 a      1017     1     2     2    17
 -1.0572816603093753E-01 a      1018     1     2     2    18
 -6.0317094194036955E-03 a      1019     1     2     2    19
 -5.4519757717840356E-01 a      1020     1     2     2    20
 -6.6380193857504335E-02 a      1021     1     3     2     1
  1.6632630333234921E-01 a      1022     1     3     2     2
 -2.9351209051594201E-01 a      1023     1     3     2     3
 -3.6685328513513603E-02 a      1024     1     3     2     4
 -6.7279677829790441E-02 a      1025     1     3     2     5
  3.7359993337823322E-01 a      1026     1     3     2     6
  1.3229005635842703E-01 a      1027     1     3     2     7
 -6.7095624451812630E-01 a      1028     1     3     2     8
 -5.3125933598217534E-01 a      1029     1     3     2     9
  4.5162552048712667E-01 a      1030     1     3     2    10
  2.6582867478000433E-01 a      1031     1     3     2    11
  6.7306627076346370E-01 a      1032     1     3     2    12
  6.4176606595299346E-01 a      1033     1     3     2    13
 -4.9618875613168778E-01 a      1034     1     3     2    14
 -4.4918666803471996E-01 a      1035     1     3     2    15
  1.2747501199792788E-01 a      1036     1     3     2    16
  3.1808527916910704E-03 a      1037     1     3     2    17
  3.9589002239582821E-01 a      1038     1     3     2    18
  2.3381628114610964E-01 a      1039     1     3     2    19
 -2.6550094196856583E-01 a      1040     1     3     2    20
  8.5483436315295092E-01 a      1041     1     4     2     1
  1.3573034885481041E+00 a      1042     1     4     2     2
  4.3573089080502236E-01 a      1043     1     4     2     3
  6.3801510462800437E-01 a      1044     1     4     2     4
 -4.3323001896922980E-01 a      1045     1     4     2     5
  2.4567630472982899E-01 a      1046     1     4     2     6
  4.8223572459559549E-01 a      1047     1     4     2     7
 -1.6687365730140860E-02 a      1048     1     4     2     8
  2.0236925230189043E-01 a      1049     1     4     2     9
  3.4973473659998999E-01 a      1050     1     4     2    10
  6.5237511116651414E-01 a      1051     1     4     2    11
 -2.5799757324343953E-01 a      1052     1     4     2    12
 -6.3495212761382214E-01 a      1053     1     4     2    13
 -2.7944273254854779E-01 a      1054     1     4     2    14
 -9.3129745441678191E-01 a      1055     1     4     2    15
  2.6799108809994399E-01 a      1056     1     4     2    16
 -3.2453022759373000E-02 a      1057     1     4     2    17
  4.0987930080966684E-01 a      1058     1     4     2    18
  3.2116285942056244E-01 a      1059     1     4     2    19
 -4.6376147852796007E-01 a      1060     1     4     2    20
 -4.9603603311260841E-01 a      1061     1     5     2     1
 -6.6792842137801756E-01 a      1062     1     5     2     2
 -5.9406740658332335E-01 a      1063     1     5     2     3
  1.5060383752610004E-01 a      1064     1     5     2     4
 -6.9047268426330699E-01 a      1065     1     5     2     5
  2.3805768625122928E-01 a      1066     1     5     2     6
 -6.9072259792933355E-01 a      1067     1     5     2     7
 -4.8038603003914621E-01 a      1068     1     5     2     8
 -5.2980070503889531E-01 a      1069     1     5     2     9
 -6.0104109857228083E-01 a      1070     1     5     2    10
 -9.4882980803459444E-02 a      1071     1     5     2    11
 -2.2213072796387878E-01 a      1072     1     5     2    12
  4.1520404178026227E-01 a      1073     1     5     2    13
  3.8642902260361256E-01 a      1074     1     5     2    14
 -4.5198894289828773E-01 a      1075     1     5     2    15
 -2.1584454327581432E-01 a      1076     1     5     2    16
  2.1143397744549153E-01 a      1077     1     5     2    17
  2.5240910875082784E-01 a      1078     1     5     2    18
  2.2649796003039874E-02 a      1079     1     5     2    19
  1.0414862559314887E-01 a      1080     1     5     2    20
  1.0727683390019704E-01 a      1081     1     6     2     1
 -7.9478117013809835E-01 a      1082     1     6     2     2
  5.5563706526673973E-01 a      1083     1     6     2     3
  2.7088851366441957E-01 a      1084     1     6     2     4
 -2.3353776783337188E-01 a      1085     1     6     2     5
  3.0856268766148409E-01 a      1086     1     6     2     6
  2.5147410358384314E-01 a      1087     1     6     2     7
  4.4255023255663334E-01 a      1088     1     6     2     8
  1.1471409980699655E-01 a      1089     1     6     2     9
 -3.6652239095650913E-01 a      1090     1     6     2    10
 -7.2797208122141993E-02 a      1091     1     6     2    11
 -5.1803351236173245E-01 a      1092     1     6     2    12
 -1.7412479472753195E-01 a      1093     1     6     2    13
  4.7783318474695136E-01 a      1094     1     6     2    14
  5.3268417826155634E-01 a      1095     1     6     2    15
 -1.2408286670541535E-01 a      1096     1     6     2    16
  3.3022418171737726E-02 a      1097     1     6     2    17
  3.4492274249822696E-01 a      1098     1     6     2    18
 -2.4422563066317926E-01 a      1099     1     6     2    19
 -6.1392167904589157E-01 a      1100     1     6     2    20
 -1.9775922695866732E-01 a      1101     1     7     2     1
 -3.7468093565139554E-01 a      1102     1     7     2     2
  5.8665217583918558E-02 a      1103     1     7     2     3
  2.4137313105534600E-01 a      1104     1     7     2     4
 -7.1327656776312154E-01 a      1105     1     7     2     5
  1.0605014735784877E+00 a      1106     1     7     2     6
  4.2986681253824494E-01 a      1107     1     7     2     7
 -2.3258929521415930E-01 a      1108     1     7     2     8
  2.7211395261285537E-01 a      1109     1     7     2     9
  4.7424102756701808E-01 a      1110     1     7     2    10
 -6.0793863493638937E-03 a      1111     1     7     2    11
  2.9362448057722507E-01 a      1112     1     7     2    12
 -2.9769920543748551E-01 a      1113     1     7     2    13
 -3.4884607256894873E-01 a      1114     1     7     2    14
 -8.2372257713087216E-01 a      1115     1     7     2    15
 -4.2597951144274265E-01 a      1116     1     7     2    16
 -2.2052694146763835E-02 a      1117     1     7     2    17
  7.0961338991918199E-02 a      1118     1     7     2    18
  1.8351644710091750E-01 a      1119     1     7     2    19
  3.5219342930335845E-01 a      1120     1     7     2    20
 -8.9505308096679437E-03 a      1121     1     8     2     1
  3.9571360104956049E-01 a      1122     1     8     2     2
 -9.4560142210308085E-01 a      1123     1     8     2     3
 -6.3214193349608994E-01 a      1124     1     8     2     4
  3.2495868146710960E-02 a      1125     1     8     2     5
 -1.7310509788760903E-01 a      1126     1     8     2     6
 -3.8439930701531067E-01 a      1127     1     8     2     7
  2.5395433910731235E-01 a      1128     1     8     2     8
  6.8142939269319691E-01 a      1129     1     8     2     9
  6.7509849408627431E-01 a      1130     1     8     2    10
 -7.2337373368218350E-01 a      1131     1     8     2    11
 -7.3981109130457620E-02 a      1132     1     8     2    12
 -3.2583069795005482E-01 a      1133     1     8     2    13
  5.2297340060798864E-02 a      1134     1     8     2    14
  2.7983858276673479E-01 a      1135     1     8     2    15
 -1.0773719220782677E-01 a      1136     1     8     2    16
 -2.6727681672176756E-01 a      1137     1     8     2    17
 -1.0876526840510375E-01 a      1138     1     8     2    18
 -3.3874408558290180E-02 a      1139     1     8     2    19
  6.1359138734973218E-01 a      1140     1     8     2    20
  3.9880380427307355E-01 a      1141     1     9     2     1
  1.2611006483059690E+00 a      1142     1     9     2     2
  4.3242777181959313E-01 a      1143     1     9     2     3
 -4.5425943480024315E-02 a      1144     1     9     2     4
 -7.7623595876298479E-01 a      1145     1     9     2     5
 -2.1255374850943951E-01 a      1146     1     9     2     6
  7.2926471920399527E-01 a      1147     1     9     2     7
 -7.2483221241762330E-01 a      1148     1     9     2     8
 -1.6039622732242076E-01 a      1149     1     9     2     9
  3.2234106732888602E-02 a      1150     1     9     2    10
 -1.8285460641455531E-01 a      1151     1     9     2    11
 -1.2507762349805540E-01 a      1152     1     9     2    12
 -9.5865069839953754E-01 a      1153     1     9     2    13
 -1.2255337229039931E+00 a      1154     1     9     2    14
 -4.2536887612373697E-01 a      1155     1     9     2    15
 -2.6859258041905665E-01 a      1156     1     9     2    16
 -1.4997360869984194E-01 a      1157     1     9     2    17
 -2.9683163983380578E-01 a      1158     1     9     2    18
  5.2423093232750795E-01 a      1159     1     9     2    19
 -4.2621843968984707E-01 a      1160     1     9     2    20
 -1.2592973918538848E+00 a      1161     1    10     2     1
 -7.2353872973838240E-01 a      1162     1    10     2     2
 -1.1227535507500205E-01 a      1163     1    10     2     3
  2.1534690177303809E-01 a      1164     1    10     2     4
 -7.0912017358907298E-01 a      1165     1    10     2     5
  4.9206678513793906E-01 a      1166     1    10     2     6
 -2.5052725156106109E-01 a      1167     1    10     2     7
  8.0139917375846759E-01 a      1168     1    10     2     8
 -3.3976464474340712E-01 a      1169     1    10     2     9
  8.9497551685923304E-01 a      1170     1    10     2    10
 -3.5148708811139828E-01 a      1171     1    10     2    11
  6.8000012366280871E-01 a      1172     1    10     2    12
  2.3158820468024857E-01 a      1173     1    10     2    13
 -2.7027306831389347E-01 a      1174     1    10     2    14
 -4.3229303201653391E-01 a      1175     1    10     2    15
  4.3212680622952387E-01 a      1176     1    10     2    16
  2.0955326894485332E-01 a      1177     1    10     2    17
  5.3962493060723127E-01 a      1178     1    10     2    18
  2.0910257180306629E-01 a      1179     1    10     2    19
  4.2089598532575750E-01 a      1180     1    10     2    20
  1.2667443745420284E-01 a      1181     1    11     2     1
 -1.5528961130741717E-02 a      1182     1    11     2     2
 -2.4048709434950255E-01 a      1183     1    11     2     3
 -5.0326797533436851E-01 a      1184     1    11     2     4
 -4.2037501475322953E-01 a      1185     1    11     2     5
  2.1573886284798519E-02 a      1186     1    11     2     6
  5.0386821960645733E-01 a      1187     1    11     2     7
  6.5615825621679214E-01 a      1188     1    11     2     8
 -8.5205681738431016E-01 a      1189     1    11     2     9
  6.3263318850575001E-01 a      1190     1    11     2    10
 -6.0925101634094682E-02 a      1191     1    11     2    11
  6.1559044454606018E-03 a      1192     1    11     2    12
 -8.9137498776626500E-01 a      1193     1    11     2    13
 -6.4792986510513595E-01 a      1194     1    11     2    14
  4.3943031520037854E-02 a      1195     1    11     2    15
 -2.3806038565593357E-01 a      1196     1    11     2    16
 -2.2967967534292544E-01 a      1197     1    11     2    17
  8.1695052651822098E-01 a      1198     1    11     2    18
 -5.4839195974385457E-01 a      1199     1    11     2    19
 -1.1889739437500391E+00 a      1200     1    11     2    20
 -1.5428111221671123E-01 a      1201     1    12     2     1
  1.0633249314905065E-01 a      1202     1    12     2     2
 -7.0856673135311332E-01 a      1203     1    12     2     3
  3.4614983096661373E-01 a      1204     1    12     2     4
 -4.8281384016730078E-01 a      1205     1    12     2     5
  4.8068877395978782E-01 a      1206     1    12     2     6
 -9.4428477197742500E-01 a      1207     1    12     2     7
  4.7961377105070679E-01 a      1208     1    12     2     8
  4.1425396522512609E-01 a      1209     1    12     2     9
 -1.0735209129327894E+00 a      1210     1    12     2    10
 -3.5351470349692998E-01 a      1211     1    12     2    11
 -6.1309484765389488E-01 a      1212     1    12     2    12
 -1.1799475285539084E-01 a      1213     1    12     2    13
  1.3055021914466225E-01 a      1214     1    12     2    14
 -6.1644123723804289E-01 a      1215     1    12     2    15
  2.6176396448390044E-01 a      1216     1    12     2    16
  4.5170428422520459E-01 a      1217     1    12     2    17
  4.6028686969537752E-01 a      1218     1    12     2    18
 -1.4310626242857499E-01 a      1219     1    12     2    19
  1.0188390780068100E+00 a      1220     1    12     2    20
  1.2656750092983082E-01 a      1221     1    13     2     1
 -9.0262088230902060E-01 a      1222     1    13     2     2
 -5.7910789521781658E-01 a      1223     1    13     2     3
  1.1773176444615672E-02 a      1224     1    13     2     4
 -5.4099430839686613E-01 a      1225     1    13     2     5
 -2.6515028201011032E-01 a      1226     1    13     2     6
 -4.6539564512463122E-01 a      1227     1    13     2     7
  7.8983445434555488E-01 a      1228     1    13     2     8
  2.0342529362045189E-01 a      1229     1    13     2     9
 -2.6611168704358762E-01 a      1230     1    13     2    10
 -3.2799545887874187E-01 a      1231     1    13     2    11
 -7.4954495678995800E-02 a      1232     1    13     2    12
  1.9334786093237036E-01 a      1233     1    13     2    13
  5.0438655265444321E-01 a      1234     1    13     2    14
  2.9028206552624641E-01 a      1235     1    13     2    15
 -4.8484852885991608E-01 a      1236     1    13     2    16
  2.8154991077262180E-02 a      1237     1    13     2    17
 -3.3414439244823646E-01 a      1238     1    13     2    18
  2.4094162329443183E-01 a      1239     1    13     2    19
  8.1770885841669005E-01 a      1240     1    13     2    20
  3.1273965269809345E-01 a      1241     1    14     2     1
 -5.9523992833429396E-01 a      1242     1    14     2     2
 -4.2889936316405508E-01 a      1243     1    14     2     3
 -1.7331496716958864E-01 a      1244     1    14     2     4
 -7.7273383308586829E-01 a      1245     1    14     2     5
 -3.5389492165010927E-01 a      1246     1    14     2     6
  8.7367794733247395E-01 a      1247     1    14     2     7
  2.2278749898903197E-01 a      1248     1    14     2     8
 -2.0397167325387694E-01 a      1249     1    14     2     9
 -5.4400578730929694E-01 a      1250     1    14     2    10
  1.8372265896960971E-01 a      1251     1    14     2    11
 -3.5906820118224125E-01 a      1252     1    14     2    12
  5.5620591322754254E-01 a      1253     1    14     2    13
 -5.0096011888141934E-01 a      1254     1    14     2    14
  1.3012702277398882E+00 a      1255     1    14     2    15
  2.1655288857007823E-01 a      1256     1    14     2    16
 -7.7175885976897762E-01 a      1257     1    14     2    17
 -1.4877273306365793E-01 a      1258     1    14     2    18
  4.0895959729408582E-01 a      1259     1    14     2    19
 -6.0875147004192143E-01 a      1260     1    14     2    20
 -9.4822737910914201E-01 a      1261     1    15     2     1
 -5.1858446848788187E-01 a      1262     1    15     2     2
 -9.2718776184273444E-01 a      1263     1    15     2     3
  4.5760151173867841E-01 a      1264     1    15     2     4
 -1.0054228099881759E+00 a      1265     1    15     2     5
  3.9504760421143215E-01 a      1266     1    15     2     6
 -9.5581315811613987E-01 a      1267     1    15     2     7
 -5.8430402112731838E-01 a      1268     1    15     2     8
 -1.9938898381460146E-01 a      1269     1    15     2     9
 -4.1937517508573985E-01 a      1270     1    15     2    10
 -8.4818945619377310E-03 a      1271     1    15     2    11
  3.4498968130842345E-01 a      1272     1    15     2    12
  1.2298338475060397E+00 a      1273     1    15     2    13
 -2.4779075330017282E-02 a      1274     1    15     2    14
 -7.2850789736512200E-01 a      1275     1    15     2    15
  7.0425563671987129E-02 a      1276     1    15     2    16
  7.0807404390028494E-01 a      1277     1    15     2    17
 -9.2527819511298168E-02 a      1278     1    15     2    18
  6.8813554623026796E-01 a      1279     1    15     2    19
  1.1145186590923273E+00 a      1280     1    15     2    20
  1.4300619524723943E-01 a      1281     1    16     2     1
 -5.2105477624422281E-01 a      1282     1    16     2     2
  9.5160162247182112E-01 a      1283     1    16     2     3
 -1.8988578624732896E-01 a      1284     1    16     2     4
  5.6411677826015838E-01 a      1285     1    16     2     5
 -4.1178275540158155E-01 a      1286     1    16     2     6
  4.7577618994273069E-01 a      1287     1    16     2     7
 -5.8064114878925066E-01 a      1288     1    16     2     8
  2.6667666984323818E-01 a      1289     1    16     2     9
 -6.2821730483473404E-01 a      1290     1    16     2    10
 -1.8124444779026787E-03 a      1291     1    16     2    11
 -5.7822548680786656E-01 a      1292     1    16     2    12
 -1.3162044555400332E-01 a      1293     1    16     2    13
  9.8135922796695452E-01 a      1294     1    16     2    14
  7.4552251830395322E-01 a      1295     1    16     2    15
  1.1939845956102971E-01 a      1296     1    16     2    16
 -5.5662503687885789E-01 a      1297     1    16     2    17
 -6.0122761794463042E-01 a      1298     1    16     2    18
 -1.0164117897942512E-01 a      1299     1    16     2    19
 -9.6953885387429861E-01 a      1300     1    16     2    20
 -3.6979527000504381E-01 a      1301     1    17     2     1
 -3.6654231111531893E-01 a      1302     1    17     2     2
  8.2639126409425154E-02 a      1303     1    17     2     3
 -3.5090048175271082E-01 a      1304     1    17     2     4
  2.7565453508490667E-01 a      1305     1    17     2     5
 -9.1935664563212727E-01 a      1306     1    17     2     6
  1.1321420528014822E-02 a      1307     1    17     2     7
  8.3250031886122178E-02 a      1308     1    17     2     8
  6.0088239152662523E-02 a      1309     1    17     2     9
 -2.0320686330443569E-01 a      1310     1    17     2    10
  5.3464436841011683E-03 a      1311     1    17     2    11
 -4.4195630611587466E-01 a      1312     1    17     2    12
 -7.3151842461026073E-01 a      1313     1    17     2    13
 -1.9125049572849862E-01 a      1314     1    17     2    14
  6.8812368772624555E-01 a      1315     1    17     2    15
  4.4645233175548117E-02 a      1316     1    17     2    16
 -1.5558093718646285E-01 a      1317     1    17     2    17
  1.9069161338383148E-01 a      1318     1    17     2    18
 -1.6684741349416712E-01 a      1319     1    17     2    19
 -5.4825036100171520E-01 a      1320     1    17     2    20
 -5.6236534650397230E-01 a      1321     1    18     2     1
  2.8688578287220845E-01 a      1322     1    18     2     2
  5.6092542107557229E-02 a      1323     1    18     2     3
 -1.7553750581640312E-02 a      1324     1    18     2     4
  1.3676154080024168E+00 a      1325     1    18     2     5
 -5.8899271077974591E-01 a      1326     1    18     2     6
 -7.8522486089095844E-02 a      1327     1    18     2     7
  3.8480168356944172E-01 a      1328     1    18     2     8
  4.8730976762233646E-01 a      1329     1    18     2     9
  1.7850250154199837E-01 a      1330     1    18     2    10
 -1.2112910085332200E-01 a      1331     1    18     2    11
  8.1436867744409669E-01 a      1332     1    18     2    12
 -2.4642154224744342E-01 a      1333     1    18     2    13
 -7.0242910033974548E-01 a      1334     1    18     2    14
 -7.6971937162563675E-01 a      1335     1    18     2    15
  4.3696777985724522E-01 a      1336     1    18     2    16
  5.6932689628199240E-01 a      1337     1    18     2    17
 -8.2448513931476675E-02 a      1338     1    18     2    18
  8.2391784985016175E-02 a      1339     1    18     2    19
  5.3989033472515702E-01 a      1340     1    18     2    20
  4.9211697434251872E-01 a      1341     1    19     2     1
  1.9349141320647441E+00 a      1342     1    19     2     2
  4.2895860205169395E-01 a      1343     1    19     2     3
 -4.3085974447418784E-01 a      1344     1    19     2     4
  5.5526077935046114E-01 a      1345     1    19     2     5
 -2.6472021044689242E-01 a      1346     1    19     2     6
  1.0340812207449424E+00 a      1347     1    19     2     7
 -1.3371321101211775E+00 a      1348     1    19     2     8
 -9.6933165041301639E-01 a      1349     1    19     2     9
  1.3090329915345802E+00 a      1350     1    19     2    10
 -2.7538466508616172E-01 a      1351     1    19     2    11
  2.0535879790182657E-01 a      1352     1    19     2    12
 -2.0460663534748078E-01 a      1353     1    19     2    13
 -9.6834988318807802E-01 a      1354     1    19     2    14
  4.0339665830530302E-01 a      1355     1    19     2    15
 -6.0672403079551618E-01 a      1356     1    19     2    16
 -2.5734721362053431E-01 a      1357     1    19     2    17
 -2.3966930881712192E-01 a      1358     1    19     2    18
  3.1884380049352029E-01 a      1359     1    19     2    19
 -1.7143783855218562E+00 a      1360     1    19     2    20
  6.2904785331685176E-01 a      1361     1    20     2     1
 -6.9314494362243229E-01 a      1362     1    20     2     2
  4.4979398354280845E-02 a      1363     1    20     2     3
 -1.9381829140488716E-01 a      1364     1    20     2     4
  4.6577102486577182E-01 a      1365     1    20     2     5
 -3.3420242589645738E-01 a      1366     1    20     2     6
  3.4894623153418186E-01 a      1367     1    20     2     7
  1.1682217782870116E-01 a      1368     1    20     2     8
  8.5974379891496713E-02 a      1369     1    20     2     9
 -1.2327678804272359E-01 a      1370     1    20     2    10
 -4.1898296938128959E-01 a      1371     1    20     2    11
 -2.5920086083987837E-01 a      1372     1    20     2    12
 -2.1629352343651842E-01 a      1373     1    20     2    13
  4.6085106412540217E-01 a      1374     1    20     2    14
  8.4400728497943966E-01 a      1375     1    20     2    15
 -6.2237496168051387E-01 a      1376     1    20     2    16
 -1.3798383166829908E-01 a      1377     1    20     2    17
 -6.7197292876901604E-01 a      1378     1    20     2    18
 -5.5433943465895830E-01 a      1379     1    20     2    19
 -1.7904009005566804E-01 a      1380     1    20     2    20
 -9.0835042162144719E-01 b      1381     2     1
 -5.8573466353329762E-01 b      1382     2     2
 -1.9550231874401344E-01 b      1383     2     3
  3.4093390362885284E-01 b      1384     2     4
 -5.7203351987848239E-01 b      1385     2     5
  2.5443519979829193E-01 b      1386     2     6
 -1.2738746273933907E-01 b      1387     2     7
  2.9277617019999053E-01 b      1388     2     8
  1.0807649547058096E-01 b      1389     2     9
 -5.2923958230553292E-01 b      1390     2    10
  3.5462804409170418E-01 b      1391     2    11
  3.5229087338858628E-01 b      1392     2    12
  6.7491559169284232E-01 b      1393     2    13
  2.7600798346574973E-01 b      1394     2    14
 -5.3610406036513791E-01 b      1395     2    15
  2.0124701942816617E-01 b      1396     2    16
 -1.2232337271058791E-01 b      1397     2    17
 -1.9045705268447066E-02 b      1398     2    18
 -3.2840543486037638E-01 b      1399     2    19
  4.9804244579729090E-01 b      1400     2    20
 -8.9918858557216569E-02 a      1401     2     1     3     1
  5.5101120632360734E-01 a      1402     2     1     3     2
 -7.5435459129607307E-01 a      1403     2     1     3     3
 -2.8357734651944949E-01 a      1404     2     1     3     4
  4.1768802264584809E-01 a      1405     2     1     3     5
  3.1727320394693909E-01 a      1406     2     1     3     6
 -2.1624354739324031E-01 a      1407     2     1     3     7
 -3.5695419733999045E-01 a      1408     2     1     3     8
  4.5689044079772756E-01 a      1409     2     1     3     9
 -8.7120347137623302E-02 a      1410     2     1     3    10
  3.6064047125809279E-01 a      1411     2     1     3    11
 -4.1567868235411871E-02 a      1412     2     1     3    12
  2.0608410884800227E-01 a      1413     2     1     3    13
 -6.7938441566702512E-01 a      1414     2     1     3    14
 -1.9802297472234406E-01 a      1415     2     1     3    15
 -2.3650374139150659E-01 a      1416     2     1     3    16
 -2.5166670017225845E-01 a      1417     2     1     3    17
  1.8565958782219194E-01 a      1418     2     1     3    18
  7.6717592463110038E-02 a      1419     2     1     3    19
 -5.8499379094602599E-01 a      1420     2     1     3    20
 -3.7924247780473874E-01 a      1421     2     2     3     1
  4.1389556987360870E-01 a      1422     2     2     3     2
  3.6561606277470687E-01 a      1423     2     2     3     3
  1.0458621001200286E+00 a      1424     2     2     3     4
 -7.0103763136453978E-01 a      1425     2     2     3     5
  3.6918193255200760E-01 a      1426     2     2     3     6
 -8.2691280222016006E-01 a      1427     2     2     3     7
  1.8002499016530810E-02 a      1428     2     2     3     8
  6.7272214397744323E-01 a      1429     2     2     3     9
  6.0770946552752884E-02 a      1430     2     2     3    10
 -4.4116833064992517E-01 a      1431     2     2     3    11
 -6.3809460780024208E-01 a      1432     2     2     3    12
  8.8870431454361548E-02 a      1433     2     2     3    13
 -5.6217108628961254E-01 a      1434     2     2     3    14
  6.1584178425705816E-01 a      1435     2     2     3    15
  2.3000569669127074E-01 a      1436     2     2     3    16
 -3.3405905018369986E-01 a      1437     2     2     3    17
  5.5763687019362140E-01 a      1438     2     2     3    18
  7.4519504403259873E-01 a      1439     2     2     3    19
 -4.9464315600880865E-01 a      1440     2     2     3    20
  5.7122228494430283E-01 a      1441     2     3     3     1
  1.9748960229159265E-01 a      1442     2     3     3     2
 -4.7463770809074335E-01 a      1443     2     3     3     3
  2.7506041295083179E-02 a      1444     2     3     3     4
  4.3748059770074510E-02 a      1445     2     3     3     5
  2.3868711363474882E-01 a      1446     2     3     3     6
 -5.2236604456582358E-01 a      1447     2     3     3     7
  1.3068241699778246E-01 a      1448     2     3     3     8
  1.4970884822758759E-01 a      1449     2     3     3     9
 -1.5541024102103076E-01 a      1450     2     3     3    10
 -3.9154017827383303E-01 a      1451     2     3     3    11
  1.5983410227376638E-01 a      1452     2     3     3    12
 -4.7026722328506097E-02 a      1453     2     3     3    13
  2.0247393863341281E-01 a      1454     2     3     3    14
  1.7899212711508600E-01 a      1455     2     3     3    15
  7.2180097067098853E-02 a      1456     2     3     3    16
 -2.7160132772399753E-01 a      1457     2     3     3    17
 -2.5937142291732107E-01 a      1458     2     3     3    18
  6.0454914898336834E-02 a      1459     2     3     3    19
 -4.8486714020162958E-01 a      1460     2     3     3    20
  1.3230149798386306E+00 a      1461     2     4     3     1
 -4.1759544018031142E-01 a      1462     2     4     3     2
  4.3163007042258195E-01 a      1463     2     4     3     3
 -2.1576192069427252E-01 a      1464     2     4     3     4
  4.2999666040881507E-01 a      1465     2     4     3     5
  1.5146628666124370E-01 a      1466     2     4     3     6
 -7.2456260753284249E-02 a      1467     2     4     3     7
  4.2769705241982668E-02 a      1468     2     4     3     8
  3.2803559401753890E-01 a      1469     2     4     3     9
  2.0052604334742119E-01 a      1470     2     4     3    10
 -9.9582224770493444E-01 a      1471     2     4     3    11
  5.8029878560307113E-01 a      1472     2     4     3    12
  2.2097131134629768E-02 a      1473     2     4     3    13
 -2.2742782120474725E-01 a      1474     2     4     3    14
  3.0781294456328756E-01 a      1475     2     4     3    15
 -7.6180134543710243E-01 a      1476     2     4     3    16
 -1.0776755708187136E+00 a      1477     2     4     3    17
  4.4627716985473809E-01 a      1478     2     4     3    18
 -1.7711534746237351E-01 a      1479     2     4     3    19
  5.9937242591016626E-02 a      1480     2     4     3    20
  3.1776331957274440E-01 a      1481     2     5     3     1
 -3.1219431446399659E-01 a      1482     2     5     3     2
  2.4556567779285779E-01 a      1483     2     5     3     3
 -2.4045904298151197E-01 a      1484     2     5     3     4
  9.4836104196554305E-01 a      1485     2     5     3     5
 -2.0342474021285095E-01 a      1486     2     5     3     6
  3.5168944743084452E-01 a      1487     2     5     3     7
  6.8390570011568258E-02 a      1488     2     5     3     8
 -2.1491203868193093E-01 a      1489     2     5     3     9
  3.4712175576353471E-01 a      1490     2     5     3    10
 -4.9545496707181103E-01 a      1491     2     5     3    11
  1.0449624680042306E-01 a      1492     2     5     3    12
 -1.4354530752701569E-01 a      1493     2     5     3    13
  8.3773774559714784E-02 a      1494     2     5     3    14
 -2.7906338456910373E-01 a      1495     2     5     3    15
 -2.3468487759038459E-01 a      1496     2     5     3    16
 -8.0871858855152023E-02 a      1497     2     5     3    17
 -2.2681425607560968E-02 a      1498     2     5     3    18
 -4.9270026006107315E-01 a      1499     2     5     3    19
  3.0497478552163143E-01 a      1500     2     5     3    20
  1.2029525043536121E-01 a      1501     2     6     3     1
  1.3796909439301491E-01 a      1502     2     6     3     2
 -8.7065925327964408E-02 a      1503     2     6     3     3
 -1.8487532296600620E-02 a      1504     2     6     3     4
  3.1982378918030296E-01 a      1505     2     6     3     5
 -6.9057508390684430E-01 a      1506     2     6     3     6
  2.2568868221367881E-02 a      1507     2     6     3     7
  1.2753092263390731E-01 a      1508     2     6     3     8
 -2.3966150754666765E-01 a      1509     2     6     3     9
  2.8879299577528006E-01 a      1510     2     6     3    10
 -2.0367030781317361E-01 a      1511     2     6     3    11
  4.5727460912464279E-01 a      1512     2     6     3    12
  7.1237122320088761E-02 a      1513     2     6     3    13
  3.9200479793938076E-01 a      1514     2     6     3    14
  8.4025333119418330E-02 a      1515     2     6     3    15
 -4.8068087414545550E-03 a      1516     2     6     3    16
  2.3553619474834448E-03 a      1517     2     6     3    17
  3.2222458329134501E-01 a      1518     2     6     3    18
 -1.7916621989048756E-01 a      1519     2     6     3    19
  2.8367841286592255E-01 a      1520     2     6     3    20
 -3.5688114280155434E-02 a      1521     2     7     3     1
 -5.8784849615647183E-01 a      1522     2     7     3     2
 -1.3670346222147950E-01 a      1523     2     7     3     3
  2.7858100958996262E-01 a      1524     2     7     3     4
 -5.0882749252881265E-01 a      1525     2     7     3     5
 -2.6303986340239477E-01 a      1526     2     7     3     6
  9.7859633235692789E-01 a      1527     2     7     3     7
  6.2556217494103405E-03 a      1528     2     7     3     8
  5.0827875884573458E-02 a      1529     2     7     3     9
  4.9643626372273586E-01 a      1530     2     7     3    10
  4.0040897396754996E-02 a      1531     2     7     3    11
  9.9593474568002813E-02 a      1532     2     7     3    12
 -2.0909031492724489E-01 a      1533     2     7     3    13
 -4.6128432822121390E-01 a      1534     2     7     3    14
 -5.6241644117738909E-02 a      1535     2     7     3    15
 -1.3947858323606366E-01 a      1536     2     7     3    16
  1.3551927485379608E-01 a      1537     2     7     3    17
  3.8434404627923885E-01 a      1538     2     7     3    18
 -3.1244005291592175E-01 a      1539     2     7     3    19
  4.2419483128811386E-01 a      1540     2     7     3    20
  1.4721468966550541E-01 a      1541     2     8     3     1
  3.0624597032487547E-02 a      1542     2     8     3     2
 -3.9306766141164490E-01 a      1543     2     8     3     3
 -2.1880254246871894E-01 a      1544     2     8     3     4
  4.3494399641622838E-01 a      1545     2     8     3     5
 -2.5183965203644954E-01 a      1546     2     8     3     6
  3.2527188332225454E-02 a      1547     2     8     3     7
  6.7715167401519505E-01 a      1548     2     8     3     8
  3.5117557922932731E-02 a      1549     2     8     3     9
 -6.7846747788028250E-01 a      1550     2     8     3    10
 -1.3248260909033416E-01 a      1551     2     8     3    11
 -2.3751054328244120E-02 a      1552     2     8     3    12
  2.4224170400756237E-02 a      1553     2     8     3    13
  4.5876436254460490E-01 a      1554     2     8     3    14
  1.2631012917586948E-01 a      1555     2     8     3    15
  2.2685030662908814E-01 a      1556     2     8     3    16
 -3.6735146282239006E-01 a      1557     2     8     3    17
 -3.7834642547134018E-01 a      1558     2     8     3    18
  2.4660654231753934E-01 a      1559     2     8     3    19
 -2.3532923209164552E-01 a      1560     2     8     3    20
 -3.9863880602363191E-02 a      1561     2     9     3     1
  8.9908970596053087E-02 a      1562     2     9     3     2
 -4.2754574707224141E-01 a      1563     2     9     3     3
  3.1022833089664104E-01 a      1564     2     9     3     4
 -1.1713756337935402E-02 a      1565     2     9     3     5
  1.2811158415839927E-01 a      1566     2     9     3     6
 -7.0409954606617853E-01 a      1567     2     9     3     7
  1.8450425935593689E-02 a      1568     2     9     3     8
 -1.0774387049546457E-02 a      1569     2     9     3     9
 -4.8051908158900208E-01 a      1570     2     9     3    10
 -5.0531958052629590E-02 a      1571     2     9     3    11
  7.3988010476785868E-02 a      1572     2     9     3    12
 -6.1156627835717847E-01 a      1573     2     9     3    13
  6.0947576909063095E-01 a      1574     2     9     3    14
  5.5588056307115330E-01 a      1575     2     9     3    15
  5.1484884081009326E-02 a      1576     2     9     3    16
  4.8684391144680000E-01 a      1577     2     9     3    17
 -1.8017877460367618E-01 a      1578     2     9     3    18
  3.0391713470664644E-01 a      1579     2     9     3    19
 -4.8443305250322133E-01 a      1580     2     9     3    20
  1.0276203948486855E+00 a      1581     2    10     3     1
  1.3913401529823716E-01 a      1582     2    10     3     2
 -2.2469595834153583E-01 a      1583     2    10     3     3
  1.5354430442528796E-01 a      1584     2    10     3     4
 -3.3905872727445274E-01 a      1585     2    10     3     5
 -2.5101582084193702E-01 a      1586     2    10     3     6
  2.6598936946322477E-01 a      1587     2    10     3     7
 -6.4285850982445913E-01 a      1588     2    10     3     8
  1.9874297690615839E-01 a      1589     2    10     3     9
  7.6037385398265456E-01 a      1590     2    10     3    10
 -7.0179399802064224E-01 a      1591     2    10     3    11
  9.6785948617641515E-01 a      1592     2    10     3    12
 -1.4978533456195331E-01 a      1593     2    10     3    13
 -4.4444405981105212E-01 a      1594     2    10     3    14
 -2.0240678713858143E-01 a      1595     2    10     3    15
 -6.0603935937289299E-01 a      1596     2    10     3    16
  6.8830640963253767E-02 a      1597     2    10     3    17
  7.7693637077433053E-01 a      1598     2    10     3    18
 -9.5242723739579127E-01 a      1599     2    10     3    19
 -7.6165608842039850E-02 a      1600     2    10     3    20
  6.7659648480969525E-01 a      1601     2    11     3     1
 -1.0691074638548818E-01 a      1602     2    11     3     2
  2.2418742948691911E-01 a      1603     2    11     3     3
 -3.1474817224526011E-02 a      1604     2    11     3     4
 -2.7867637306829302E-01 a      1605     2    11     3     5
 -9.6409093015745040E-01 a      1606     2    11     3     6
 -4.9436169791042450E-01 a      1607     2    11     3     7
  4.0227158250438866E-01 a      1608     2    11     3     8
  2.8621487536899920E-01 a      1609     2    11     3     9
 -3.2331609130579603E-01 a      1610     2    11     3    10
  1.1765128532444362E-01 a      1611     2    11     3    11
  9.1565402891048309E-02 a      1612     2    11     3    12
  3.5737779972608757E-01 a      1613     2    11     3    13
 -1.2558002628367601E-01 a      1614     2    11     3    14
 -1.3088656641692631E-01 a      1615     2    11     3    15
  4.4371723924886985E-01 a      1616     2    11     3    16
 -5.8556868898149217E-01 a      1617     2    11     3    17
 -7.3830439220285871E-02 a      1618     2    11     3    18
  5.1720671077141922E-01 a      1619     2    11     3    19
 -6.2864653018606161E-03 a      1620     2    11     3    20
  2.6394293267026225E-01 a      1621     2    12     3     1
 -1.6380802555335541E-01 a      1622     2    12     3     2
 -2.1571856084376234E-01 a      1623     2    12     3     3
  4.1950419833561275E-01 a      1624     2    12     3     4
 -2.6565804770283968E-01 a      1625     2    12     3     5
  3.6019443423210956E-01 a      1626     2    12     3     6
 -1.1887668879537938E+00 a      1627     2    12     3     7
 -1.0926982902911771E-01 a      1628     2    12     3     8
  6.9239799813920955E-01 a      1629     2    12     3     9
 -7.8685014708261825E-01 a      1630     2    12     3    10
